4.620347399901988950e-02
1.003522311712833126e+00
3.725134664228598180e-01
5.911505874158139440e-01
-2.475998147551057293e-01
-1.229481974723849180e-01
5.375713111739574002e-01
5.829821783955172476e-01
8.941261521093026854e-01
5.930449106598491005e-01
-6.378571090578259994e-01
1.003091672618912078e+00
-2.810631525828370947e-01
-6.290552486975720115e-01
-4.085112344902704917e-01
8.177832311283802502e-01
-8.536698559011819398e-01
-5.425071435049897417e-01
2.040920916645644068e-01
6.801943196872098918e-01
6.941201268515210243e-01
-6.630044161099568623e-01
-2.516127624322501699e-01
-4.759164754089089677e-01
-7.420861088571915065e-01
4.203361101648411813e-01
3.709600962475048669e-01
-2.523652803980882542e-01
2.489752879518939421e-01
-3.445245458850771936e-01
8.343746547647227230e-01
-9.357626984231514067e-01
-3.943601554768699224e-01
-5.114337046732724684e-02
-6.950385217070937927e-01
-2.042509465271320490e-01
4.456876001460380321e-01
2.951267859781389613e-01
1.982017025911614327e-01
-2.320132859866506081e-01
-8.868576150193288044e-01
7.761211053326959597e-01
3.574904001185330582e-01
-6.471260877071196571e-01
-2.525364606143301049e-01
-1.835755109724545031e-01
-2.244933626468192112e-01
8.807306474232136362e-02
5.012449386361516115e-03
2.501102843103085727e-01
8.238763981391554747e-01
-5.467562368476734935e-01
5.486023907112520526e-01
-6.253860329124527606e-01
5.398448948422254930e-03
5.518937942221402437e-02
3.841634129678700438e-01
6.889465826024585571e-01
1.790678396046728182e-01
-2.289046794254912150e-03
5.332429330390120459e-01
-5.678297993267828608e-02
3.631601561071681195e-01
-6.898714448693443746e-01
-1.793630235785593219e-01
6.468321272328240168e-01
9.868684671590416402e-01
-8.961368630972320615e-01
-1.954198352561033192e-02
-7.062294350827994505e-01
-7.676924479970284598e-02
-7.642861869245204387e-01
7.712651207453615765e-01
7.887272222033921976e-01
-5.106409568106072827e-01
3.210073370010406157e-01
4.705938088148512999e-01
2.369768819078506283e-02
5.326910976093699457e-01
-1.581481300108374954e-01
2.052200346359178973e-01
8.217038295779809376e-01
-8.590852437843968792e-01
-2.543175602142726532e-01
-5.584465861594688496e-01
-7.055693497624823118e-01
3.258343644629038138e-01
-6.806510473925355686e-01
-7.018391329647738486e-01
1.097412363064692586e-01
2.304801670586608398e-01
3.414725802763191043e-01
1.418425819715101177e-01
-7.513026991507564256e-01
5.343062510545782962e-01
4.432255276663870092e-01
-1.004745713916578964e+00
6.974673513877890363e-01
-1.286279178343062435e-01
-5.451959481126221752e-01
