6.677828152786899896e-01,8.156955814332215171e-01,-7.717714458168420943e-01,-8.193240863554771547e-01,5.616958446065404287e-01,-2.477729993251140683e-01,2.488414421921740505e-01,7.464146574241077303e-01,-2.755574479358946505e-01,-2.792909686437628491e-01,-2.057751356148158906e-01,2.298934520143706972e-01,-8.048620791242213635e-01,-3.631691550329591012e-01,-4.053609239693200528e-01,-3.425682159580464847e-01,2.021191290349238501e-01,-9.653820419255870755e-01,7.113276590630157603e-01,5.902860316720583977e-01,-3.366222686122681829e-01,4.411615996714129961e-01,-4.394295799446887307e-01,8.097444695917334068e-01,9.960073882093621878e-01,3.027197400032836105e-01,1.736664881222892698e-01,-2.932798276392344083e-02,2.032852047237604098e-01,9.364708071774611176e-01,3.884539828427595598e-01,-6.737051685102809495e-01,8.215233313146248773e-02,2.264038405911171503e-01,-8.203505250920390957e-01,-1.043150554950639242e+00,-3.892907609014502612e-01,8.830943277278420211e-01,4.727908310356853105e-01,-4.965663555991030598e-01,2.102868403745245252e-01,7.683897400201139538e-01,-5.123765304978464830e-01,-7.532011001131979633e-01,-2.110553512515986052e-01,5.065250851566145407e-01,-4.200510105826105733e-01,-7.567349075836085071e-01,6.294288037734877550e-01,-1.029510782136247304e-01,-9.591232360110857336e-01,-8.458697659261149582e-01,4.521666841617578703e-01,-1.451726224492148054e-01,-6.694124480167737978e-01,3.568936234825697551e-01,4.828691812261495242e-01,4.402097725367283831e-01,-4.071288902310066238e-01,-5.714561271380570462e-01,-6.764783491805791416e-01,4.096455883987561442e-01,-4.011672924529556261e-01,2.703466397487757494e-02,-3.179114434313225490e-01,-7.657605750005356260e-01,1.413939642284775255e-01,3.879568293851954341e-01,2.823512701808510994e-01,-4.981082302073717716e-01,-3.532398966420229741e-02,5.704645504987524429e-01,-1.526927117475982421e-01,6.355564040927288438e-01,6.511804874484369288e-01,-8.734202879253935015e-01,9.113686236192699575e-01,6.860302212535548394e-01,3.891313882719740214e-01,-4.202128961848866640e-01,-6.097115480988498648e-01,-8.573715480070127626e-01,-2.328026596035397966e-01,-5.170394229086691107e-01,4.202178082248557156e-01,-7.916750263449356950e-01,-4.222139425426328918e-01,-7.544218627879044625e-01,3.360102585491468452e-01,-7.732789406638654883e-01,-5.123486576478557541e-01,-4.966034512001157170e-02,9.318697335328175457e-01,-7.813872044490829394e-01,2.872909299363974323e-01,-7.318768003673313816e-01,-7.011323291959093984e-01,-5.261395673215637503e-01,3.134800946821206802e-01,-8.498219095397593348e-01,6.468285067449758285e-01,-2.957759767451347693e-02,6.253748474310480976e-01,2.945549477607242173e-01,6.296505121133214589e-01,-5.624805631147700158e-01,-8.037071921977004818e-01,2.690785605439700023e-01,2.202207435656094725e-01,-2.860665772023612274e-01,3.811458674420086790e-01,3.408430892911442633e-01,9.373817836469060527e-01,-5.284547561672566784e-01,-3.009485245719198954e-01,5.099158665994650841e-01,6.456191527326359259e-01,-7.836659675889433574e-01,-6.550589904580756961e-01,9.079626273143556747e-03,-3.435708113232988081e-01,4.584311652567062412e-01,5.311891508911539272e-01,4.354907155441064548e-01,9.057894020819542424e-01,-4.133148260665526763e-01,-3.648205247646971738e-01,6.009483311339498535e-01,1.685081225930048221e-01,8.111505549486792699e-01,-5.846947813129370619e-01,7.122912279418529558e-01,3.323755175717238441e-01,2.350023048548302296e-01,8.380562888513356512e-01,8.962361601301874758e-01,-5.346281437326119157e-01,-7.337187608615157730e-01,-2.210477562057238388e-01,5.199388602183484531e-01,9.498509909783420246e-01,-8.696238746740974079e-01,3.694675073855341330e-01,9.323811904305558951e-01,8.418687600236219870e-01,5.078123019313650621e-01,2.696996827634715044e-01,2.882477803730132959e-01,-2.447316484290359140e-01,-1.750035430938235714e-01,4.872155976835906288e-01,-4.130033056106340028e-02,1.004446116783017651e+00,5.967102845556233603e-01,-5.118560579129614041e-01,-3.593720494702539736e-01,3.788169013213572023e-01,8.143602565987255737e-01,1.010209869527067594e+00,8.266905261655285164e-01,-2.110753903467206538e-01,9.512509795723796957e-01,-2.679225741259458893e-01,8.534127466630626879e-02,-8.953908923155012856e-01,-2.658745146698703737e-02,1.221085853546270555e-01,7.964024302675190015e-01,-5.422237232474380608e-01,9.649098579708492718e-01,-3.099597003705049647e-01,-2.828745084259118650e-02,6.858081554525029544e-01,-8.290154521538366517e-01,-2.288548709279297246e-03,1.746947398964336373e-01,2.692858612067093871e-01,-7.117715349602140584e-01,5.361145867348396932e-01,2.809242271197505691e-01,7.840070662995611839e-01,9.063904259838906352e-01,-9.923611312885907143e-01,8.092464435017108215e-01,-2.942447022346224017e-01,6.375936138923666840e-01,-8.427109404768616530e-02,4.715973880472179025e-01,-3.634787278898188312e-01,2.535352789618006697e-01,-9.444217655791254176e-03,-9.744021450576648147e-02,-5.124156972190930803e-01,8.482329512642861058e-01,-5.754174740837247892e-01,-8.932154891648608208e-01,8.624238823944658794e-01,4.273677882299404263e-01,-4.061333925289971059e-01,8.970792601976459446e-01,-2.017194175006679080e-01,7.647683766861944621e-01,-2.270783024864016231e-01,-6.102712470616830087e-01,-2.246602779569723818e-01,1.507780364051646838e-01,5.120216115276362556e-01,8.363793428657697593e-01,-5.183805404352180846e-01,-8.990038742183671383e-01,-5.058712635941711167e-01,6.886881713865256049e-01,2.212174174320691578e-01,6.825358140843509336e-01,9.169003930237820676e-02,-2.508114953727261232e-01,-4.290506482710002012e-01,-1.528613053810693734e-01,9.811571702812266552e-03,5.113220676880256832e-01,9.578133017796934823e-01,7.246179066154740944e-01,-1.954700688388517071e-01,-5.311584351739460086e-01,-8.250024769781517664e-01,-2.157139627635772938e-01,2.495326395126762353e-01,-8.881861563641886281e-01,-6.637989308677232081e-02,5.952439715705567513e-01,-6.752700021048791967e-01,-7.985556361707142337e-01,-4.897716499506288845e-01,5.059116772110737736e-01,-8.400264307464913038e-01,1.187808154468429078e-01,5.952815694512704203e-01,-6.265897402114997128e-01,-8.538854259641550648e-01,7.463783891626244449e-01,-6.946009961013255296e-01,5.133750115602200292e-01,5.268130685624684562e-01,-4.548108638631973011e-01,6.370112886312113698e-01,-8.756385181657800887e-01,-1.043447102727496523e+00,-1.865291242403109007e-01,-6.371400025965782143e-01,-9.935252893605996949e-01,2.189615775039546464e-01,-1.815811048594649091e-01,-7.619129014998000937e-02,-9.295883023357928154e-01,-2.572528968722040399e-01,2.015621573895423069e-01,3.816458331706931162e-01,6.436134661854189254e-01,-5.527292301657434070e-02,-1.007634056063973826e+00,-3.111326805892304370e-01,-4.496484419896728535e-01,-6.266164540821199669e-01,9.500122884857973293e-01,4.521461140676010793e-01,2.840469881025314280e-01,-5.067955966849582161e-01,8.765407099801583168e-01,-6.720486917479413791e-02,7.902856026093648678e-01,-7.257739304690689064e-01,2.614883352620079870e-01,-6.418417477861408926e-01,-8.814524949310256208e-01,1.039205035481977762e-01,-9.972427855378482309e-02,1.183279772638758248e-01,9.071305462299602551e-01,-3.440028087719481098e-01,2.278675289538512061e-01,7.646202417160404829e-01,2.791102123544515756e-02,1.483934118439959038e-01,8.198396097677359551e-01,-6.079560268552774982e-01,-4.767088856000168962e-01,-2.351613031554650457e-01,2.384045886645902168e-01,-1.002905804862837258e-01,-5.553246358093251178e-01,4.724373277423695172e-01,5.644341345924326347e-01,4.006649925429536796e-01,-3.195363694506970220e-01,-5.672661853233127438e-01,-2.202087645876145139e-01,-7.697607213925724556e-01,2.751603050492465452e-01,6.273047869305875546e-01,2.055491693033274780e-01,-6.846077415438995839e-01,-3.372281135013165954e-01,-1.544771526367006986e-01,-4.963247631805405846e-01,-6.164472809113432650e-01,2.489410175979302475e-01,-2.773964565220812251e-01,2.914739240660359568e-02,1.486998534747640821e-01,2.101750814150887547e-01,8.199229646154198026e-01,-3.209974337724439408e-01,-1.032876626117399610e+00,4.524417130244691165e-01,2.264226686608089012e-01,-6.798547889927455401e-01,2.519489675807705664e-01,6.634833888341092889e-01,1.555014861651451141e-01,-7.062589083086568964e-01,7.042943664916576640e-01,7.587498557700561586e-02,1.393420178004470544e-01,-6.756950317389205651e-02,6.203973607006665336e-01,9.102077179067654678e-01,-5.170451955048531723e-01,-5.893487794560954285e-01,-7.911820206511944731e-01,6.994867838398369786e-01,7.775747369983675439e-01,-8.782710233724561055e-01,-2.754918894208532310e-01,4.106391325519335722e-01,4.484717640571733721e-01,-3.990086591268699606e-02,-3.098250711912329258e-01,-9.401031824457707631e-02,-8.142551694628379078e-02,-6.625899233677304823e-01,-2.540698154245665807e-01,-9.515011247863341959e-01,2.985940899222200295e-02,-1.691551504951308571e-01,8.477348914777130262e-02,-9.124581448275467244e-01,-2.800833272530892648e-01,-9.159439067284474989e-01,-6.434643822455183848e-01,-2.860352695737846118e-01,-7.579260881553397944e-01,4.089605764818795564e-01,2.280469738866550133e-02,-5.389409913079852288e-01,-9.788404091650684813e-02,6.424920566728327120e-01,-7.310154938907006961e-02,-5.464869242203594935e-01,-6.646273727157812061e-01,2.395303995973134537e-01,-7.472828560790977237e-01,-5.104436109440563252e-02,8.722064800376628790e-01,4.000211824193748988e-01,-7.023313106821928997e-01,2.420906851033577112e-01,-6.777528644447796680e-01,3.249183082860561123e-01,5.092288901721626626e-01,-7.112503551663827972e-01,-6.723217104833210944e-02,-2.181531226427392001e-01,9.006108297138659680e-01,-9.906564632470045151e-01,-1.031546544726726244e+00,-1.808247157275625905e-01,9.175693268339670805e-01,6.878980968493596526e-01,-6.812677014294928890e-01,-1.882305900768274642e-02,-9.254447922664573722e-01,-1.725108943367659464e-01,-9.683198948093037217e-02,-6.487109066325449369e-01,8.800088936647491034e-01,-3.023224168005972379e-01,2.878487710337017114e-01,-7.346665624982733345e-01,2.923106009821828111e-01,6.741918882853417117e-01,-4.654023398803981415e-01,8.481521541562296873e-01,1.340032093869065154e-02,3.966075267809299199e-01,9.436237330274298285e-02,-7.340676773402504685e-02,-3.644970224426534733e-01,-8.619118999586919960e-01,9.090737139409671430e-01,6.264513243664424635e-01,2.816075030760808451e-01,-3.043266127141400212e-01,1.153337815839797637e-01,-4.315777704544265791e-01,-1.333237429290674014e-01,-8.246411748511272011e-01,7.015347423403270888e-01,-9.549679482816896270e-01,-4.393823964388712117e-02,2.837017281597922214e-01,7.324587160476607739e-01,8.638443881709142458e-01,-8.428879142020780924e-01,-6.785752451933664275e-01,1.014613903654862259e+00,-7.143064243890487885e-01,-4.802097956112457156e-01,-4.874849405734318908e-01,8.005618558604137291e-01,3.334318245693216887e-01,-4.818657160271193063e-01,-9.206385816089748264e-01,1.505881676348932996e-01,-1.049305671739880763e-01,7.698907921468874926e-01,-2.798994237109891925e-02,5.009744990462817738e-01,-1.566210795162222835e-01,3.559707214199050451e-01,2.002482393250808457e-01,-8.474578762236782969e-01,1.458560559989439953e-02,-8.089276913503503641e-01,-5.113944793767958297e-01,4.339340061075271926e-01,-3.193884646053449794e-01,1.880314777362847301e-01,-6.813302118048741862e-02,-8.782821385437656891e-01,-5.476776657548207972e-01,-6.876415408565546006e-01,9.108651136066135967e-01,6.419902797832655050e-01,2.936815519587655451e-02,-5.025999041171141934e-01,2.801637903788365414e-01,-3.668721075679049481e-01,2.341149457088779196e-01,7.361652518091347241e-01,-9.808561980001411218e-01,2.506041191198865592e-01,8.891395977007527929e-01,-6.341699034729128548e-02,-4.151467920423139168e-01,4.468125745707186014e-01,-1.705965774176936359e-02,-8.907480985431820431e-01,5.115682729289799946e-01,-1.166514702793520902e-01,-2.672210516657403390e-01,-1.952527172251008192e-01,4.694373097877400092e-01,-6.891347007113511891e-01,-1.421237522620516849e-02,-5.859834301753555907e-01,-1.153097938507444270e-01,-7.241875624794377186e-01,3.152544138329640977e-01,-4.309866797981371511e-01,6.209640005166410237e-01,5.843473755775959733e-01,-1.097333878547188807e-01,-7.781740465940918394e-01,6.738852835590176671e-01,-8.523910956782206894e-01,4.940715232262084533e-01,-4.360212090790161477e-01,-7.710993334647288089e-01,-8.923278290467864249e-01,-4.610387512586707204e-01,-6.295760269199885961e-01,2.629802978939016489e-01,1.321219383085107113e-01,-7.055683786139113622e-02,-7.362704652694134211e-01,7.672392680114937802e-01,-4.407568672057549652e-01,4.746414816419485816e-01,7.963984210361915173e-01,8.706652952927054212e-01,8.506840355740847848e-01,7.161391443281548419e-01,1.709740802302982601e-02,1.579279641473217699e-01,5.484211908478867081e-02,2.684012890108606331e-01,-8.243830724317364744e-01,6.185058656970955360e-01,-3.012928194188822448e-02,6.832697253286226791e-02,-2.327141707893548017e-01,-6.314613942106117594e-01,6.270181216405851243e-01,2.050688194103321427e-01,8.401646456893119286e-01,-9.358514558318344057e-02,7.780915910108361366e-01,-3.321057210505505286e-01,3.130740823087268393e-02,-5.600484527448111594e-02,-6.700024681329396214e-01
-9.018309954019955166e-01,3.805079079807137110e-01,1.352260994588659615e-01,-8.106375475479155046e-01,4.150012794312489262e-01,7.706019219627813222e-01,4.596899516377059847e-01,7.290128904302434210e-01,-4.835417653736597821e-01,4.841897210223263248e-01,-8.514308314226564089e-01,-9.597607849025832083e-01,9.767560326652464653e-01,5.500581956916552606e-01,3.779202624327205884e-01,-1.293848866777768392e-01,-8.035539555038173631e-01,-8.469513639058581789e-02,-3.588921230625806147e-01,6.223569777152267168e-02,4.832236837873660762e-01,4.261676105062403019e-01,9.078636112093603217e-01,-2.606379285232938159e-01,-1.496448394202168075e-01,-1.579752713140222253e-01,-9.522738809533093374e-01,-8.089808325992808857e-02,-4.212519223413755953e-01,-7.598702354497229861e-01,1.304258762328987242e-01,-1.583013586173108722e-01,4.202918125377260172e-01,4.627614093826814545e-01,-5.173050103683646261e-01,3.595839839197635668e-02,6.573458931855771237e-01,3.713809181498830547e-01,-7.272399557457646102e-01,-6.005042045831522346e-01,-8.211104315045115731e-01,1.197578887474717302e-01,8.517860199037643465e-01,8.734982594034866876e-01,5.954270695301477900e-01,6.474241901239781161e-01,7.630897737331847619e-01,4.099942860698102542e-01,8.658087651922260486e-01,-6.376984615783158894e-01,-5.158556016234886465e-01,7.477665207798214198e-01,6.376824111243692972e-01,-5.649509083899002526e-01,9.104030278023430567e-01,-4.002865692473091541e-01,8.858623392401918095e-02,8.908162486728740115e-01,-8.202235998744296375e-02,7.498541380332232609e-02,-3.502863107176908408e-01,9.956137923873851214e-01,-4.488062020463449708e-01,-8.616197639128472252e-01,-4.134909744132698184e-01,2.736716040177979425e-01,-9.359867129397207997e-01,8.701995423987076705e-01,-4.007031972468418912e-01,9.321691111607066649e-01,-4.997072165114728182e-01,1.033109108226061210e-02,5.342748890709957399e-01,-7.869885017498639002e-01,3.087311194676017889e-01,-1.231765356287121693e-01,7.774391829053285408e-01,3.513592444583430452e-01,5.934290015054429768e-01,5.727959374564928208e-01,-1.558741000350343242e-01,7.445295836108843934e-01,-6.280028512733136781e-01,9.078368084013768158e-01,8.253299250330567438e-02,6.361314516567662114e-01,4.416199774072149808e-01,-5.374090352800596770e-01,-4.515618652807723565e-01,1.600664969467051058e-01,7.519308739334142899e-01,9.119023426649801589e-01,-4.343497306339617614e-01,1.190748743349530486e-01,3.172753868717498316e-02,-4.423360042319091773e-02,7.907171130877088672e-01,6.329118605374522977e-01,7.611611958177539883e-01,1.158611826478296164e-01,7.955656234275843008e-01,3.270222050789631241e-01,8.219861108995332177e-01,8.108474602884824245e-01,8.626398058108295519e-01,7.501992302268460922e-01,4.350320293704342256e-01,1.385587471905959378e-01,-2.315353885831227532e-01,-9.995197369444750457e-01,4.519453177249811437e-01,-1.030225371463273643e+00,3.815007291265619382e-02,-5.428625206498203237e-01,-5.816902652113002947e-01,-5.902012454584522061e-01,-1.758317993465852436e-01,-3.684705404136323637e-01,-7.914572112504086876e-01,7.702514622208933570e-01,3.335474970828328778e-01,9.026364497695188449e-01,7.857375942531068524e-01,4.734358638150106269e-01,7.711152865123469535e-01,-6.467922359895583728e-01,5.268139036657454310e-01,-1.757564877903040335e-01,5.181638097059829140e-02,-8.557118974453125082e-01,-5.092399480234129916e-01,3.148427020839233981e-01,4.792189971370570678e-01,6.734532545318496766e-01,2.047257558976931791e-01,2.223500763760815624e-01,-4.526135783145205926e-01,-3.660363203400421317e-01,3.673817041825586105e-01,3.913655073365816528e-01,-1.241184659333873369e-01,9.406317512944147863e-01,-7.188207774029237163e-01,5.374391525265858061e-01,-5.314846257463837764e-01,2.629183194735644769e-01,8.721773401471308862e-01,-4.386334170355103423e-01,-3.313577869250320385e-01,1.481184842612353614e-01,3.683968747861037785e-01,-7.879259890718108839e-01,7.202554443956401542e-01,-4.228969196074258696e-01,-3.476881807419921477e-01,2.273375722768121165e-01,3.861687539997381569e-01,2.357019397949783879e-01,9.367489583565958844e-01,-1.769639493255105445e-01,6.878626785207337946e-01,-3.044463222378053779e-01,-7.045531021531560301e-01,7.913941192064535279e-01,-5.047779198152707592e-01,-3.045689556452159108e-01,4.629144771960820859e-01,9.138631119853840579e-01,3.153553583850726705e-01,1.558531373373673035e-01,-3.779604359721160933e-01,-7.762214780835168249e-01,6.576887644477447115e-01,-7.420687124368769982e-01,-9.242768706205388707e-01,-4.725854858982182494e-01,-8.678563710785814900e-01,-1.657468918110974743e-01,1.985025672280707476e-01,3.914382549359647911e-01,-3.508826623578808479e-01,3.707000474011526436e-01,-5.836276854852502360e-01,-2.159923353780062172e-01,-1.330174288237918889e-01,-8.952323787587703752e-01,2.796853016904502637e-02,-3.250769363043240490e-01,-5.055885733867247073e-02,5.038092632002345583e-01,1.035177880042480014e+00,-8.497259834683693613e-01,1.315374510221372639e-01,8.252611431148642041e-01,7.791933066635617355e-02,1.162673670631862444e-01,3.254445635225158839e-01,-5.256085963975086761e-01,7.604236164619765370e-01,-6.932770653476694189e-01,-1.189347611598619986e-02,-7.460410356965687662e-01,-5.181192785242084708e-01,-5.427038203349272144e-02,-3.555748061304947472e-01,-8.316665367662813280e-01,4.941986753841927649e-01,-3.662989355924242685e-01,-7.130134470766935628e-01,8.406478821366907273e-01,-7.343986446306850768e-02,-8.338312591713344935e-01,1.091780827902902179e-01,-8.065545216444957033e-01,-8.178318778554872770e-01,6.064245275225713661e-01,5.779042261117927071e-01,7.473758662799129260e-01,-2.084629642663352045e-02,1.467723823035403663e-01,7.171069251963086977e-01,-8.764215220619839819e-01,-4.272362587829810904e-02,3.240841051047512744e-01,-7.818735700001794298e-01,8.324870924794663951e-01,-4.688649478844622021e-01,-3.630835372251107196e-01,1.765958842388755112e-01,9.964251291908428065e-01,8.395298944191446899e-02,-5.744198113486558011e-02,7.973118398431052745e-01,-4.471479329057586605e-01,-3.377733012778716959e-01,8.410151726877426182e-01,2.124778481082960080e-01,1.437939268515757603e-02,3.530428566804091894e-02,8.676596549985615692e-01,6.461746026891556083e-01,-3.348016520779720784e-01,-2.704964268403026173e-01,-5.329402951138608735e-01,8.651143922845850875e-01,5.763475676773708312e-01,1.024463351408856138e+00,7.039725365302038629e-01,5.338416581318606857e-01,5.050800468040372859e-01,-7.318315314839958508e-02,5.442936996670787453e-01,-5.144372805342506405e-01,3.306744912668089786e-01,-3.610511560588670621e-01,-1.912796108764654723e-01,-3.794731034755814414e-01,-6.928444912857527616e-01,2.651218045008005286e-01,-8.430707705358307935e-01,6.914588200107187888e-01,-3.740092941603535004e-01,2.782663676864581270e-01,-8.710586835940983264e-01,5.900439507916431792e-01,-2.310141062015508562e-01,4.480092474111496137e-01,-8.259196440123758309e-01,1.445029588207476512e-01,4.334168686907742263e-01,5.570784717785538104e-03,6.376605245456608007e-01,-6.490293920580271214e-01,-9.578398765488833622e-01,-3.671275404196493453e-01,-6.444345472430290656e-01,7.016250694367430762e-01,-9.287872539989644460e-01,-4.303834340257612356e-01,3.560126630243222734e-01,8.787386431400925346e-01,-2.279873318532603388e-01,-4.081445321216846112e-01,9.725667825421541179e-01,-2.578079677132850689e-01,1.241082388133422400e-02,-8.900579762977144371e-01,6.379759400030314831e-01,-4.717669581332771811e-01,3.702720346870349011e-01,-3.156419262122904246e-01,6.240188242023204657e-01,-9.148406448583449313e-01,-1.553795273553473244e-01,-1.935655382893735066e-01,3.366578347533419890e-01,-6.177234308653678507e-01,-5.315420082669879420e-01,6.943146391392419625e-01,-4.151924106730977559e-01,-3.875432969699291186e-01,2.751886850242095672e-01,7.834550858218601865e-01,7.123378558701461971e-01,-4.749025398145981236e-01,1.695056936825714566e-01,-7.824537145757776146e-01,-1.187988648852516538e-01,4.441777081144285821e-01,-5.031915448985649908e-01,8.869424833071459791e-01,1.214152914122132998e-01,-8.547932611333365349e-01,-4.346697239761041498e-01,6.976233424705032826e-01,-4.562634966074664566e-01,5.457908087022721455e-01,5.171419934633422200e-01,-2.669069341205198564e-01,-4.645663607805457507e-01,4.405307747080219327e-01,5.255219476860819583e-01,1.026798968071468976e-01,-2.309157835599230657e-01,6.978401314548254852e-01,-8.007743601978261072e-01,-8.792897818246695474e-01,-9.923864014802721289e-01,3.174677240363134034e-01,2.193464820761035772e-01,-9.899056409852480254e-01,4.900683936662895701e-01,8.204638727444629742e-01,9.498362289520316804e-01,9.346166346060863495e-01,-5.827645707638781092e-01,7.796134503141478600e-01,-2.421243954958634814e-01,2.386914227688817502e-01,-1.712763859547884737e-01,-3.523053862140844775e-03,-6.690610671172986246e-01,-7.317571922833395748e-01,-7.478490437622939968e-01,-5.880396803885715729e-01,6.767428459776784200e-01,-4.590442886907011300e-01,-6.024354624975838401e-01,-2.429538575303623049e-01,-8.658170625255530162e-01,7.481341443298027416e-01,-8.149037541164317888e-01,-6.747529004632336902e-02,-8.278317841733315863e-01,5.747393283136538467e-02,4.621120629529433532e-02,2.707177429188371565e-01,4.031599298545601728e-01,-2.840541414430974854e-01,3.864574843726377718e-01,-1.006995330216955864e+00,-9.012322754730391905e-01,-1.150108272519075742e-01,1.714675461485560548e-01,1.864224572298494031e-01,-7.009712943974136246e-02,-3.197582349181162797e-01,1.904877366433267716e-01,3.990215068557214084e-01,9.397029148293248868e-01,3.598957638585209562e-01,4.419997128351564886e-01,-5.941671865267631469e-01,8.695441093335168903e-01,3.489658277222356664e-01,9.886228463328811111e-01,-3.954687762232274029e-01,-9.485188067173498938e-01,-3.268307664229887499e-01,1.648290745217441677e-01,8.729840232641359332e-01,3.995922035539127282e-01,1.463780868207457397e-01,4.405618209990879164e-01,-1.937526496262737818e-01,4.246883908451126177e-01,-7.873792520754874236e-01,-6.379849965721055005e-01,5.566258156254658696e-01,2.864593163451041868e-01,8.510810262030161777e-01,-5.056703463895473316e-01,6.358356799602655762e-01,7.616555241278133437e-01,8.080499916876525690e-01,5.901644579244995636e-01,8.703002481358929066e-01,-6.691661765883557544e-01,-2.429600967318704119e-02,-1.005515215177392063e+00,4.819725837497849108e-01,-1.657147763681867114e-01,-3.656240119220571794e-02,-8.614735161359378113e-01,8.690546422725093922e-01,6.451757183442451138e-02,3.970946402266419817e-01,-2.423801967598523677e-01,-1.158801175422621843e-01,7.311500867166054185e-01,5.127919196028100091e-01,5.531087890534610585e-01,5.867968111663828257e-01,3.973356208637299214e-01,2.139302860885258228e-01,2.646996787239355720e-01,9.360957939649316994e-01,-4.395302177502857233e-01,-9.216511512163023667e-01,5.166217115181200858e-01,3.926803115877347539e-01,-7.928337360522718091e-01,-1.381105427988527090e-01,9.132862912672179423e-01,9.965576991356088765e-01,-9.439419144009789653e-01,-8.856713036258900829e-01,5.300500234793338317e-01,-5.656991832052259660e-03,5.118550325783787214e-01,-6.911672791478342681e-01,-4.023925452059279873e-01,-5.242552287572749270e-01,1.087128584334165482e-01,-2.135881825380073762e-01,1.008228931913335513e+00,-7.465165576956347415e-01,7.755150552682149590e-01,-6.426584406896819202e-01,6.518340822271997403e-01,-8.243620420932504800e-01,-1.581162829877369447e-01,7.979796343571894379e-01,5.236200737831624430e-01,8.058496884610665267e-01,7.973579914105557442e-01,5.088809085192762538e-01,8.216051785231925919e-01,4.125553915361799273e-01,-1.348378592151048584e-02,-1.501967438722109915e-01,-2.170901186577272046e-01,-9.235415513460362158e-01,-7.313700379901473259e-01,9.253843024253571858e-01,-1.845437707922756125e-03,9.415092247291871885e-01,9.092182740001036878e-01,4.640391426776567241e-01,6.543105212556019623e-01,2.881075608356803430e-01,8.852502328908667950e-01,8.201194131873198456e-01,1.332679250813089966e-01,8.008230136051573966e-01,1.838889437832247065e-01,5.907276226908646510e-01,-9.890834755573642278e-02,2.289892030371093457e-01,-5.182525412943022047e-01,2.527213510612950215e-02,2.238526355366638187e-01,-8.032688886081968960e-01,6.638230936117148762e-01,1.047738355706998581e-01,7.639201659530127086e-01,-7.038764837369174687e-01,1.070854482627704024e-01,3.695773730443126931e-02,9.604327475654607094e-01,9.798475245563192937e-01,-5.000542588354602858e-01,-4.962199967245727872e-01,-8.313712326599743685e-01,-8.887394086620180600e-01,-7.284635492057917050e-01,-8.598607148485699625e-01,-7.861109219079236432e-01,-4.531618476986306043e-01,-4.600507045546817220e-02,-1.837422555738695840e-01,5.747531420802773905e-01,4.752986368411030726e-01,6.847729322704486643e-01,4.533551522103188708e-02,1.800837030077607204e-01,-9.240012322653263777e-01,-7.195761246772669310e-03,-8.064998153349312027e-01,3.370591845438321577e-01,-5.821525987736795305e-01,-9.020483679408152211e-01,-9.500121145686377666e-01,8.147945731304446770e-01,-8.648717165760891890e-01,-8.014481499687658994e-01,4.152063229332645378e-01,9.294422821864457562e-01,7.774126897729473074e-01,-3.313260103878566953e-01,1.631901640077847160e-01
5.986765800756925493e-02,-7.976069912159533537e-01,2.017255633036160734e-01,-4.484273436348890640e-01,2.058586255941010079e-01,-3.392295243223435453e-01,5.205202848408247984e-01,-8.669818961699046200e-01,4.796080134950487378e-02,5.598005405237657106e-01,8.414995188832899431e-02,5.701000089728930353e-01,1.793517885344471027e-02,-2.571759405633238793e-01,7.466197822769493619e-01,-5.669556924081913252e-01,-2.452839258749449636e-01,8.223286937041925926e-01,-9.877170830653401179e-01,-4.017548015620508450e-01,-7.070202125935278747e-01,1.424517560731927146e-01,-6.746398234647605907e-01,-4.995587043332747612e-01,9.353896247390819374e-01,-2.936999661893070490e-01,9.039075689311697470e-01,-2.130451048219654253e-01,-7.239847359127914439e-01,-5.054939357286380303e-02,8.644916711104564389e-01,4.833581535246015415e-01,3.978778024576919981e-01,-7.900740894890058152e-01,-6.616445840508505816e-01,-2.082086329676790248e-01,-5.315277897606544844e-02,5.833055081877668302e-01,-6.787838996064518016e-01,-2.846311792459008116e-01,6.799825127235361588e-01,4.074545735776050059e-01,-1.498277083598156811e-01,-1.966123185920284622e-01,4.144540562696636399e-01,3.189931488781794222e-01,9.686591257636668617e-01,-4.369809439985739563e-01,5.502866121658319676e-01,5.627431437938363867e-01,-5.758865235225458790e-01,-8.957731487261614278e-01,-6.310477215982712718e-01,-8.716687913946270794e-02,4.636089567091234431e-01,7.078285603349916411e-01,-2.994809219553651314e-01,7.195737578589734840e-01,-6.795631105449992937e-01,4.290251258370202381e-01,-4.528691428083949089e-01,-2.131332371268648551e-01,3.466568493912193794e-01,8.110106123052390759e-01,3.123603437425830909e-01,-3.128523794440868366e-02,-4.645282359385363713e-01,5.909935148357154944e-01,-3.939583823737912716e-01,5.829144782058288676e-01,-3.477965929523869071e-01,-4.027966291125185949e-02,3.834846741976442042e-01,2.169562917096085064e-01,2.416895060411560769e-01,-7.342168005535010256e-01,-2.112756754529731551e-01,-7.273867564319490553e-01,-8.021038833746663155e-01,-5.967374084999184092e-01,5.600324758682058146e-01,6.271536124657961508e-01,-5.907503654857801934e-01,8.736039451158580382e-01,1.036399238387093885e-01,-1.229643221352460375e-01,-3.511230031981116967e-02,3.906242680566901493e-01,4.094818367536654513e-01,-1.017169998012020571e+00,-7.821953341466849619e-01,-7.330174988691852134e-01,3.835898079055767296e-01,-8.277528049041853186e-02,4.217814557814698051e-01,4.877566286478117186e-01,8.898443446550047264e-01,-6.059989096594127211e-01,-7.934076641269083296e-01,9.001174847680634139e-01,-7.125061826585197267e-01,-6.032466506775361337e-01,-9.266554289901370867e-01,5.486762192050435027e-01,7.968383564281522613e-01,-9.029092810509702360e-01,-1.845113628417061891e-01,-6.012477108308936780e-01,-8.872823568698202656e-01,2.746499812130897000e-01,-1.941308159244091447e-01,9.419228964012716920e-01,-1.448089422368708246e-01,3.574571598063523981e-01,-9.644350845922214921e-01,-2.767287382961106101e-01,-7.089928083850658425e-01,-1.835558617289694550e-01,2.014480740115000834e-01,-1.656568787713869062e-01,-5.107371206409289099e-01,5.654706495477782591e-01,-4.845326876961293383e-01,1.895606954450846926e-01,-3.831458112686738082e-01,-5.382489105573257104e-01,5.802839805617644453e-01,-2.422663568274380785e-01,-2.115620412364443981e-01,9.869156833427945585e-01,-9.345029191939756563e-01,-7.373904566863878629e-02,-7.903793401340939440e-01,2.359563190845705705e-01,8.867151201375041980e-01,1.447711476407557429e-01,-6.106079701110864871e-02,4.558048469529863422e-01,2.571309232264283873e-01,6.488240115042653855e-01,1.498278137412176469e-01,-4.232626839737425595e-01,-5.731564909901604166e-01,-6.442895674462019162e-01,5.737322020617970919e-01,-6.618320641145274408e-01,6.481095040619098135e-01,3.600134411785392285e-01,3.737428325133217988e-01,1.499130698227534586e-01,-5.553519680225532662e-01,-8.362903773396062057e-01,-9.539462241197266268e-01,-1.722655983528372237e-01,3.213700327046030147e-01,-5.140992461152804616e-01,-3.104353863316181572e-01,-9.045073744503243640e-01,3.706404523552480623e-01,-8.719168395520711101e-01,3.074479364380636182e-01,-7.132789992073626517e-02,-5.325615527413305461e-01,2.881206763815369332e-01,-9.075338152843329675e-01,2.766267176587247079e-01,7.375542272002301664e-04,-7.581572151830842099e-01,6.211290741637642832e-01,1.269922436628872220e-01,1.431919441576391394e-01,-6.727458201924033654e-01,-7.549911735870915575e-01,-2.713329578593237298e-02,8.381345263872738149e-01,-2.368248287554592380e-01,2.957633330264434757e-01,7.556531581650758334e-01,6.054757738173872639e-01,4.742579754243916867e-01,-7.547098640942756509e-01,-1.933681988277860531e-01,7.848620939410456965e-02,5.659921122719301784e-03,-6.373695979230058206e-02,9.713424015148014456e-01,8.428588817268017896e-01,-8.145599694169943783e-01,8.544958487710251349e-01,-4.407405705539906293e-01,8.197926689672939693e-01,-8.626357582907441257e-01,-9.147879399451851468e-01,-3.940361593832911735e-01,3.233330623145915794e-01,-3.804953230654083141e-02,6.000651649599487714e-01,-4.876733652073721448e-01,1.795117460041077695e-01,-9.389259300552791343e-01,3.946112802433163202e-01,-5.376795976257643384e-01,-9.758508395432615723e-01,4.849517701896236543e-01,-4.868015722407344481e-01,3.390978329175070027e-01,9.917478193351163540e-01,-3.816522579175398722e-01,-4.092243938881495180e-01,-5.550053639943381967e-01,8.458695790867042374e-01,-6.444407046873963651e-02,-7.652112850210962547e-01,-2.974120057086623858e-01,3.265839536522344710e-01,2.427486248592811702e-01,-2.838684264543092639e-01,3.123620638042745035e-01,-4.229003322312673285e-01,5.044793120341896087e-01,-9.766275964861641234e-02,-1.771617418528826648e-01,9.502095435895361319e-01,-6.665052541919937179e-02,3.322954851657137776e-01,1.071245282627460299e-01,5.166868447174375323e-01,-7.285036611561795938e-01,9.823213246507893626e-01,-7.823034642904735936e-02,-1.831464057082510255e-01,-3.758776105787644539e-01,2.826830750656889601e-01,-5.444077477090301098e-01,-2.695359185683489089e-01,6.766932733364032782e-01,-8.940101895959501332e-01,7.532719436523223067e-01,-1.978321094801087920e-01,2.977411524467085679e-01,8.535555193012686614e-02,-6.184471753474579669e-02,5.582973044296050125e-01,-9.414483878725770083e-01,8.502856205354258901e-01,8.214466050491445737e-01,8.031190003892578477e-02,-7.215322861622324169e-01,-3.180139596031753002e-02,-1.854895030110332022e-01,7.360909776435253793e-01,-8.820533900261255944e-01,-3.623754852080957045e-01,-8.269585142555384571e-01,-7.989637248062445574e-01,8.412544380422228851e-01,1.624261386386574024e-01,7.808912949372528445e-01,-3.704253250583412482e-01,-1.005668061765110144e+00,6.684890348646070901e-01,3.083694003161177033e-01,-9.627791121164127608e-01,6.152221208069679204e-01,5.984026074643969406e-02,7.343076337316684077e-01,-4.038298625002800790e-01,-1.487636041505971118e-01,-5.167708424484797058e-01,7.937148592344011044e-01,1.446766387824279521e-01,2.652281141766549277e-01,4.626903590126265481e-02,-6.206010267239393530e-01,8.816082973135744849e-01,-7.332395861721148211e-01,-2.107967838830385465e-01,8.564452576252153948e-01,-1.416959544664772586e-01,8.557730631893456508e-01,-5.737258626838913633e-01,-6.813026849252136197e-01,-1.031903046273776381e+00,-1.034778682160738539e+00,-7.649678881494905713e-01,-4.702507978127385968e-01,2.573567019760729657e-01,-7.560543430676134324e-01,-9.821093720046673858e-02,3.961008085605229323e-01,1.513973934549109335e-01,8.548219169604015510e-01,-8.721772020029086026e-01,5.659375707753800944e-01,-2.658266785617986461e-01,7.128885448293748039e-01,1.968646453392229878e-01,-8.346444256989223875e-01,-2.714694276750644897e-01,3.526554078520068858e-01,4.898100982530649850e-01,-9.347296727386366078e-01,-3.084131089328396302e-01,7.787186585185916776e-01,6.064136567008746592e-01,-8.685128607486037877e-01,2.098425127634398757e-01,-2.062644586276426162e-01,8.415600392584817735e-01,-2.996526941305038827e-01,1.181494617072564729e-01,-7.065472203861164480e-02,9.240166995731856625e-01,-4.686492119128064515e-01,4.872123899055849638e-01,7.510562420832056496e-01,-9.075847081425774121e-01,7.647295284303423646e-02,-3.230496004705371016e-01,7.907988934619104571e-01,-6.585374905237392218e-01,-3.108304486449600113e-01,1.442742027748873321e-02,-4.683194925868227609e-01,-5.701996112364247082e-01,-3.080546470493528144e-01,-6.812577740265999271e-01,3.012295325063620854e-01,-5.886531808989655667e-01,-8.797739170990074298e-01,-9.713060980765747532e-01,7.074554960089011191e-01,4.354505701689865282e-01,-5.923567054621649008e-01,9.595220081385047450e-01,8.964132835965983315e-01,-7.191337110186246662e-01,-6.723187964145730389e-01,7.348489328342335813e-01,3.585161537562615575e-01,9.056227901230737842e-01,8.231420497761983146e-01,-1.503435007710635443e-02,-1.109899098864951111e-01,-7.239598730507533497e-02,3.487200508677398281e-01,6.671748775774078988e-01,5.447738090842787484e-01,-2.265727990119205046e-02,6.276936112759834430e-02,-7.523448915694379568e-01,9.273082630061223464e-01,-9.469916389026574732e-01,8.458362095258354918e-01,9.543248514797229021e-01,-6.486647447491796781e-01,5.202582506343197410e-01,3.181652889399477768e-01,1.035123794895972810e-01,-1.634175112442927402e-01,-5.602782155010979093e-01,-3.185564965418440364e-01,6.716617348275865096e-01,4.039148730665152454e-01,4.846772296959149795e-01,-6.610116932205523099e-02,-3.305098952409629143e-01,1.284442990016412128e-02,1.404402857403308502e-01,5.227198077954497979e-01,-4.962364841428714701e-01,-6.829451115015452434e-01,-1.019899958854759703e+00,-8.569330971683760678e-01,-1.478103023661984927e-01,8.760877283626359313e-01,-5.581490241965568755e-01,-7.871070125896958425e-01,4.892304465983778883e-01,5.660505723503088671e-01,6.883563015036000543e-01,6.044936013283239706e-01,6.859529272756054175e-01,4.799303238742156363e-01,-4.587096010361503273e-01,-3.779499846773953786e-02,7.477941970205480571e-01,-1.468179718939030265e-01,-2.449176659489852026e-01,1.699812682760534766e-01,2.840380634883318822e-01,-7.900354350107775814e-02,7.167937941431309357e-01,5.166980206966355071e-01,6.521509072749012148e-01,8.886261915950728341e-01,-3.314524804681168724e-01,-4.757363219901071805e-01,-2.360869402941841444e-01,-2.183610340414722517e-01,2.343213040238813216e-01,-2.239533303758356464e-01,8.341178278449719041e-01,-3.219875317378694257e-01,-9.214856578231973572e-01,-1.398554599719249447e-01,8.495887446732878212e-01,-4.640722674764849454e-01,-6.012342595246366050e-01,-9.442449003456635515e-01,-8.474662342302591300e-01,2.713197211312129986e-01,8.092699212544842702e-01,2.619660355451948752e-01,4.632976718419685724e-01,8.394655439360567684e-01,-1.273746338898891495e-01,9.269870645682288801e-01,-8.447506355349150287e-01,5.125095280377510720e-01,4.820949820080835391e-01,-1.417141551335280580e-01,2.194127906311528209e-01,9.217738123164802289e-02,-7.485596066702703277e-01,9.625893108978277046e-02,-5.162586945785115899e-01,-6.155927060329764444e-01,8.706034645342645290e-03,-1.092677396222463265e-01,1.830371134691867741e-01,6.923698508892129899e-01,-4.309294685391791280e-01,-7.164417258448063652e-01,5.664563162530461549e-01,1.867415810012623967e-01,-3.356858670416624224e-01,-4.476767106365790727e-02,-7.684318784065208296e-02,9.519485471564130830e-01,9.235677764893942543e-01,-1.372468323275646274e-01,7.494018074139496832e-01,-5.619210940723836645e-01,3.925875047023607567e-01,3.391869248592605524e-01,3.241049658363087671e-01,2.677549479934264176e-01,8.638288044094998286e-01,-3.957951210951110022e-01,1.812040369328117295e-01,-1.513962909292392196e-02,3.229413234629057716e-01,-4.460246532993612512e-01,-1.654241556333575225e-01,-7.868945873204051811e-01,-1.178580506199676664e-01,7.248523044977512875e-01,-4.989699997514339680e-01,-3.598140695305594994e-01,-5.028193783334972133e-01,2.630063365385345575e-01,5.196636306364657010e-01,-3.471823252967597417e-01,9.119005332924855559e-03,2.260732137607181225e-01,-8.102816952071464351e-01,9.292794393779814088e-01,-5.696597100027315230e-01,-9.567387731284364705e-01,-7.308248816277491677e-01,-3.060847261999408153e-01,-6.215951952254772372e-01,2.345890020587892977e-01,-1.727673247923685040e-01,-5.838412884723340746e-01,3.311300320270585962e-01,-3.865161796897076396e-01,3.177610454569697596e-01,-8.760597962942816563e-01,-4.879443393158990894e-01,-2.189727813441003923e-01,2.703294962370639265e-01,5.735053060413748405e-01,3.108310770484525309e-01,4.163109128744613141e-01,7.837252558104189637e-01,4.810800518932510372e-01,7.815620909919962500e-01,2.302463266128569608e-01,5.593308152609610673e-01,5.900813831086266781e-01,2.802217908499370358e-01,-5.409260897987695771e-02,-9.728174327435916424e-02,4.106942812567963563e-01,5.556575511945036627e-01,-2.947235348658326370e-01,-6.025297422976808592e-01,-8.311455347425632523e-01,-9.418542135230581480e-02,-7.858774218418168589e-01,8.697384544365739378e-01,-8.064760371632853642e-02,-3.740088433424305081e-01,8.571767420464258130e-03,-8.025142810927109460e-01,-1.927825485567045416e-01,-2.657978116630526078e-01,6.513398303055487615e-01,-5.676898505092391467e-01
4.527498049016037696e-01,-4.527202207963289954e-02,3.602885624508667811e-02,2.931581806414725322e-01,2.647367410889847061e-01,-1.410800605603474388e-02,-7.984394730529873474e-01,-9.506835840976377572e-01,-2.564995903527666488e-01,1.413925815154032373e-01,-5.811353618665863197e-01,-8.440448907406584711e-01,1.504490372242549834e-01,-1.691124000598588639e-01,4.277043885585625760e-01,4.108307341748778097e-01,7.835450391540887960e-01,-1.234412610279815720e-01,1.030393504325463061e+00,8.464395420873732645e-01,1.355103729915397293e-01,-9.034920940932979205e-03,-4.280389337255586790e-01,-7.224341874362637528e-01,1.774366902585351458e-01,9.432391111771878944e-02,-8.338482316960792173e-03,9.204390415440355522e-01,5.166635481795976981e-01,7.031758185706670217e-01,4.528221508092243330e-01,1.214751500484911595e-01,1.003492561620748624e+00,1.066416119146207098e-01,-5.605499470156090069e-01,-9.716580851847741451e-01,6.960359030939171632e-01,5.092642732018330953e-01,1.958360006650061713e-01,8.277102039159410507e-02,-5.808708472632823083e-01,-2.019352244723823242e-01,4.918782950299844248e-01,5.999558343176654152e-01,-4.003651726282448919e-01,-5.790541421644617159e-01,-9.981333742175443891e-02,-6.975422316440585968e-01,-8.419943853125235744e-01,1.383413611258061948e-01,4.093114763729074346e-01,2.029375550053883204e-01,8.313169409522791486e-01,-6.876167196906626256e-01,-1.629404784147640006e-01,-2.885892727355939824e-01,-4.262899474377290221e-01,-7.054787041244322543e-01,-3.146844086326380241e-01,9.413577230341918511e-01,-2.513363906654753413e-02,5.064279377151985617e-01,-5.937081318113692774e-01,-3.805400431013502421e-02,1.828463205671447545e-01,-7.336207743653911928e-01,-5.505669596796873844e-01,-1.517092007551146537e-01,8.303037740350819318e-01,-1.643038541813868214e-01,5.179064586755600941e-02,-3.205736818156515455e-02,3.134132323468039605e-01,7.566268247915016731e-01,7.979692933698617763e-01,-7.477452070135569562e-01,8.966448371330280054e-01,9.568096004804471644e-01,3.712975701890768726e-02,1.443896609547571097e-01,3.626583367723063001e-01,-2.361554574877217372e-01,7.847819759071530399e-01,8.824409324552671130e-01,-2.434414661493241039e-01,9.012177676248207536e-01,9.032515029074315027e-01,-6.926110236752247573e-01,-1.857223142684332473e-01,-8.406211836332125875e-01,-4.134741034828661177e-01,8.188754917577063530e-01,-6.056658063119219060e-01,7.250150623686815732e-02,-5.357887190506023245e-01,-6.953077088073725820e-01,8.108036565962949416e-01,2.832644719437374392e-01,7.728345745660122335e-01,8.368931736273743649e-01,-1.579829109577519583e-02,5.214932959464712026e-01,-2.099807426688018452e-01,-3.379965643935529673e-01,-1.959326844264938361e-01,-9.679470184363072605e-01,2.917289091412988422e-01,-4.985362493956112945e-02,-5.427532388377054318e-02,-2.507299450847454425e-01,6.572062478490171555e-01,-8.356391328979323463e-01,8.713635032658696433e-01,-5.012059714826877510e-01,7.113217514341556580e-01,2.212159764181965971e-01,-2.097204065855712007e-01,6.381772164651651202e-01,-5.327126306595668659e-01,-5.740293075575947368e-01,-9.075400300778565521e-01,-7.900323192771696590e-02,8.314942618178765565e-01,7.876387966530722373e-01,9.547876261117259344e-02,4.602308441171676368e-01,9.497510514200764309e-01,9.072975307913081489e-01,-4.301543375372415823e-01,5.554391470674348019e-01,-1.720979251260516540e-01,6.203946356404155260e-01,4.235948172881411899e-01,6.376333478441412739e-01,-4.671465388075686787e-01,-7.870814271134929374e-01,3.072265161288397772e-01,1.469463437879651446e-01,-4.106582278800453012e-01,-8.233152970748880417e-01,-3.433164440289351860e-01,7.498104021755221948e-01,-3.423568719356929746e-01,2.372250175784507142e-01,-1.265764897161560931e-01,-3.550188402270326726e-01,-3.383084967416014055e-01,-8.930634277551304789e-01,-9.495239261697749344e-02,3.666407715506491694e-01,-5.912656487186452869e-01,6.524270018836320073e-01,-5.213320976799032946e-01,7.780139293031538283e-01,-1.959454922177275293e-01,-4.999336260312481350e-01,7.874968935292504524e-01,3.798913507335049400e-01,7.613124734900487134e-01,-3.406996234068122020e-01,8.005935975610638522e-01,3.955136993554226876e-01,-9.478265377688777082e-01,-9.765809210062030565e-03,3.643450565489175230e-01,-7.321689207518105036e-01,9.593818060263311631e-01,-5.674724547566322164e-01,1.031128950790214827e+00,-4.804931046237932435e-01,-1.502599907935008583e-01,4.983509027806343750e-01,8.506241577773347995e-01,-7.867132033557242554e-01,8.800273481481568627e-01,2.513388836132738335e-01,-8.675014641857027309e-01,3.566727510889493025e-01,-4.174443402582893037e-01,1.173889815878071535e-01,-2.700017892396090746e-02,2.594308079686494239e-01,7.317202148773385706e-02,1.586695719529807591e-01,1.007549236660912340e-01,-2.380317072019030866e-02,1.055646317217527885e+00,-5.840193083553466696e-03,-3.667832093166262242e-01,8.123897025754138745e-01,7.905436910676278961e-01,-5.571050078149158979e-01,7.566988620608690042e-01,-8.192398072261405373e-01,-5.240105173819414874e-01,9.338461270488165322e-01,-6.571673242306309837e-02,5.169654126204733524e-01,-5.043004293333878951e-02,2.272686887162803093e-01,-8.575098330487603837e-01,-3.585836680494564055e-02,6.605918378210093866e-01,2.933336562139828366e-02,9.022875443207621915e-01,3.649091386148126670e-01,-8.844574253768479055e-01,-7.107710610574050625e-01,-6.879766522853562050e-01,2.373008312791948654e-02,-5.258470384552060839e-01,9.113794174520708502e-01,2.835957991664921907e-01,-8.626041025448760724e-01,4.155229817272236836e-01,-5.897539330874643770e-01,1.757707567812831773e-01,8.975539170080404361e-01,-4.706414128953473330e-01,3.242850626191259300e-01,1.494027432581405412e-01,-6.476343217704031430e-01,2.899300472711971097e-02,7.509690587986745935e-01,-4.844752295200150383e-01,4.763899972185705461e-02,2.755351406553278593e-01,-5.580804148028079004e-01,6.952441051353979162e-01,8.766924678181462482e-01,-3.043972125248408656e-01,-7.603939821931239296e-01,-7.393830639713205866e-01,-9.194500791225428404e-01,-6.795381291468086116e-02,-1.037901051375194478e-01,-1.903322539303576588e-01,-1.625205215333516140e-01,3.288806788347061749e-01,-8.475577162093743677e-01,-1.729207553021306631e-01,-6.856458861234073776e-01,4.165522075643999234e-01,1.717617167932173061e-01,1.623883614214990667e-01,2.934317065570277161e-01,6.216150458550784991e-02,7.584484378391370685e-01,5.760729245927489472e-01,-2.504395695792481225e-01,-1.203776104605488312e-01,9.281204572278833886e-01,-8.597584760211552934e-01,8.002672646010026147e-01,4.566128064567567812e-01,9.518857713571472479e-01,-6.927915166774657463e-01,-2.471661058728394644e-01,-6.313009127917820207e-01,-3.286602865682007324e-01,-5.065838195296031854e-01,-6.287728180993056304e-01,-3.298356186130519396e-01,-6.193836213330213836e-01,6.714446046612234653e-01,-6.343451814150216639e-02,-9.340916276558594022e-01,-5.165571118250710247e-01,8.870586451391924143e-01,7.262407077250930543e-02,7.561754392148526405e-01,4.317361736421044816e-01,5.002024525031446567e-01,-1.415960763003250127e-02,-5.018674879040894155e-01,9.275130986808985956e-01,-4.463796758463371983e-01,7.784963531431650097e-01,7.353750199974828927e-01,-1.840330429722132899e-01,1.857820401364649043e-01,4.548619572683862966e-01,-7.318705824235968160e-01,-3.136895080808371206e-01,-2.338879487118044331e-01,4.480791991259358009e-01,6.653461725021884154e-01,5.346896956098764475e-01,-5.587220237309209470e-01,6.314903181413320521e-01,2.674229552334592697e-01,1.627140457849720334e-01,4.227890610015140327e-01,-7.860944641750958750e-01,3.676796815918087491e-02,-8.946794712654729809e-01,-9.639962464679416865e-01,1.958007847902335785e-01,-7.237635332627194718e-01,-5.705644924081750835e-01,-8.416941920473559879e-02,9.812659388792376036e-02,7.311277554946136181e-01,-1.734115956419750582e-01,2.866025406865977954e-01,-7.708845621594696551e-01,5.140248561291420604e-01,3.312882149595027803e-01,8.463007793057814032e-01,5.463137304530275851e-03,-5.477898816069107779e-01,2.465810217274773050e-02,-9.005890870057174924e-01,1.340118348825646843e-01,-9.058516479114698816e-01,-6.941944813013227744e-01,3.659354712052022007e-01,-6.747818822254012527e-01,9.874331856127241958e-01,2.700239681067324593e-01,-6.439246742963807835e-01,6.320279307051532847e-01,-1.001004216592343669e-03,4.473157843832570313e-01,-9.099834835130148347e-01,9.161816553161366006e-01,-9.700910255747651201e-01,-6.563040684049714635e-01,-1.562614822892549882e-01,-5.431523819838558476e-01,-5.656900012105827713e-01,2.676078383999822563e-01,8.637715754138979296e-01,-1.156098511518443422e-01,-6.130980237359893170e-01,3.599866085521441494e-01,9.369352388338780813e-01,-3.532643135494448888e-02,9.382964192596957576e-01,-6.148543527161548505e-01,1.057193021305291858e-01,1.492383831586672760e-01,-4.065963158212749229e-01,-2.510478117149474997e-01,-7.388907950981143946e-01,2.279022004619110087e-01,5.873445397848139349e-01,4.769894385144648474e-01,1.092349892804726358e-01,-7.081039398763421255e-01,-9.530345753035558698e-02,6.594115069145742858e-01,-1.384132036845737435e-01,7.887349770463474297e-01,2.612672311498100974e-01,9.359342998482377274e-01,2.179639442486983603e-01,-3.403951747624887059e-01,4.532926378833429526e-01,3.871400355727662168e-01,1.573944119839850719e-01,-3.724383573061498254e-01,-3.550271157410163636e-01,-2.715314555230842752e-01,3.830250808114030736e-01,4.981679797746904059e-01,5.608305555780104812e-02,-1.372652719310806478e-03,3.784244895225786220e-01,-3.844030320457983430e-01,6.603212901547463876e-01,-9.334783254408163256e-01,-8.429184236434333899e-02,-4.739838787338249149e-01,-1.011518502495912131e+00,-6.383394259642781732e-01,8.844983352785900088e-01,-8.799369871724984637e-01,8.786866831038236958e-01,5.354113634233975683e-01,1.962287555321300392e-01,-1.167979221666740064e-01,-3.819961393309462827e-01,2.323800262129268879e-01,-5.348325641089678451e-01,3.532064820753320067e-01,6.547039857932758222e-01,4.155385947245861522e-01,-1.876273166700137551e-01,-3.804310638730384331e-01,4.617568581687546692e-01,2.206295749011706053e-01,8.595448407636330224e-01,-1.747153169960110330e-01,2.535648435865763828e-01,6.055432389344963529e-01,-6.438475163678443469e-02,9.140199657524904486e-01,7.788134819961487487e-01,3.251010819452043732e-01,9.521914580386557914e-01,-1.044282901186906337e-01,-7.599676510023185561e-01,-5.294664950375554957e-02,9.588006802379920313e-01,-5.507718364745995965e-01,7.126263935617280221e-02,-9.675302353888829421e-01,8.510742800245795214e-01,-4.350472069595502922e-01,-6.411382372044338585e-02,5.805800085794224907e-01,7.074057071134904895e-01,-3.536526026760333230e-01,5.464428824106148941e-01,1.482661253389790622e-02,-1.154410827376732562e-01,-4.839619283822365614e-01,2.354897756940742826e-01,1.761539871119216505e-01,-8.352362535790333609e-02,6.070624874454312314e-01,-5.240179553894798170e-01,-9.136149010866111420e-01,-6.539206540969196846e-01,1.911604587786170373e-01,-5.136961475471062410e-01,7.611132848561658060e-01,-6.823343769009161397e-01,6.241761675444393309e-02,-5.929845855898311369e-01,2.077614706919133636e-01,5.434600985549145058e-01,3.614984985480941548e-02,-1.530173589703553716e-01,-8.706384419081352188e-01,-7.102197886685680805e-02,-3.379692868876267298e-01,-3.057792939768565477e-01,5.905921535297476987e-01,5.695870008095782477e-01,6.276685391180771845e-01,-8.435853399653371332e-01,1.810053698971636760e-01,6.400852601543007836e-01,-8.907685975013939217e-01,-4.210499900063569556e-01,4.926143494817483148e-01,-6.015011401225219823e-01,4.956960576553906539e-02,6.171614085696495167e-01,7.627747667271524978e-01,-8.222178259756504071e-01,-8.003312265004381976e-01,-6.468030287895032426e-01,1.999702176785432550e-01,8.234813524513036054e-01,7.220117946721616997e-01,3.937925443432484518e-01,-3.679049781119504980e-01,5.624580143540437449e-01,-5.244014334849231851e-01,1.499474854049256678e-01,6.507890705186438751e-01,9.438699227453135610e-01,-5.809660532205624950e-01,3.972295743702662918e-01,7.935654490031179842e-01,1.473649806146967167e-01,8.118549994328907449e-01,6.924051394585686303e-01,4.707064248503871617e-01,9.570989421294147093e-01,8.348081363002981536e-01,1.333856784019950836e-01,5.731312807341855109e-01,4.732109871658485845e-01,-4.404484252051777959e-01,6.270934867798064194e-02,5.242841105662372492e-01,8.112201910464066357e-01,9.604540331759336969e-01,8.519113660089281392e-01,3.867614660677752281e-01,-1.664864928071296823e-01,-6.105933864394542665e-01,-8.235264954258175729e-01,-1.448982983804320557e-01,1.006533701727220231e+00,3.949186203636171899e-01,8.746405562387080668e-01,-3.077203799846515153e-01,-1.296869280872418040e-01,1.839893799441072453e-01,-3.333755072612676895e-01,-4.840395227051733640e-01,2.283688015296018656e-03,9.699403689523643513e-01,8.850977959687305052e-01,8.709204770089476466e-02,3.911329016633252609e-02,-3.989587151876893834e-01,4.350578478304118479e-01,-1.144899774552939585e-03,-4.750931557708288344e-01,-7.996714980681798313e-01,-9.784190624675028758e-01,-9.323761212383241404e-01,-5.265776183093576757e-01,1.195548645247215963e-01,7.978374749450899417e-01
-2.955345176465938306e-01,-7.173245270131906048e-01,-1.712200176750174330e-01,8.607357926382781521e-01,-7.273630367606696012e-01,-2.818644510581658214e-01,-2.874980251357189820e-01,-5.457554522592024115e-01,4.933270129946349392e-01,-9.259071437919170755e-01,3.351074037131732131e-01,-7.501885347361152423e-01,-8.634337924696106059e-01,-5.706135880218708017e-02,-5.958724290252089828e-01,-7.321553980791780658e-01,-1.103575105886946822e-02,-3.185146975518796109e-01,-3.697822844817842958e-01,-2.182125576060646444e-02,9.246811759638238204e-01,9.366468349348190392e-01,-9.794054285455010278e-02,-9.720804193093318668e-02,2.014912181978256722e-01,-8.639398235347385269e-01,-6.724937647789563933e-01,7.993927316387070547e-01,-9.594606543674740751e-01,-9.933840134215995432e-01,3.679702711638436347e-02,8.505078113581532318e-01,-6.955027391928191305e-01,1.568911716351426011e-01,9.289562203094979542e-03,-1.758984252792452491e-02,-8.348391239202678227e-01,7.715991986536916425e-01,5.140882760113331118e-01,-7.905937662949116262e-01,-4.567233515077574468e-01,-5.557953571209359733e-01,-5.903455976374666347e-01,-1.207826122495620769e-01,-5.598817051799663824e-01,8.412045607506033473e-01,-3.813731120053880930e-01,4.217855560214469057e-01,1.764739395364107177e-01,-8.582218399866662351e-01,-9.245411185331684489e-01,-1.778818141466104730e-01,-3.831442516560872869e-01,1.957784999468782094e-01,9.038956911820394957e-01,7.326246737079890048e-01,4.308999647997459603e-01,1.108227550434115055e-01,4.118016141703872424e-01,1.016662700038829081e+00,-9.062777821878423845e-01,2.293423565427112620e-01,2.530537384914519072e-01,1.673492969430676047e-01,-5.152152902248255950e-01,9.586486281881836380e-01,6.399148105110465945e-01,-7.836394865831691758e-02,-6.404132821585305502e-01,-2.804871041179545221e-01,-9.135784116574346969e-02,3.880934132261353725e-02,6.925528899139417049e-01,6.747856755005666729e-01,3.850591487825332782e-01,8.262464692502143881e-01,-9.838791032289767591e-01,-8.950213375804657590e-01,-1.450795150429228242e-01,-3.340503889148322414e-01,-9.096183062733437241e-01,-3.706555678045765356e-01,-1.653901220681036899e-01,-3.143765146325888660e-01,-6.521706417520134469e-01,-3.528953444998895184e-01,3.518771107507171481e-01,-6.566509404487148593e-01,-4.476148162835392741e-01,-8.056977515425063352e-01,8.996564560885236261e-01,6.425091030518920165e-02,5.859604855572969617e-01,-7.262513441911104817e-01,1.819480492989530296e-01,-3.537295289221984995e-01,5.032953422878273519e-01,-8.870735745693558716e-01,2.995390059277795447e-01,7.831420448268130996e-02,6.374793970370875584e-01,7.048427479338411628e-01,3.582982954846109513e-01,-4.771287729927619070e-01,6.776949767156692506e-01,-9.362165450753917595e-02,-8.275575751910874134e-01,5.905167471794649930e-02,4.616737999823310457e-01,9.441998305595429297e-01,-4.237676108904940842e-01,3.003933761792743629e-01,8.485611768173962483e-03,-4.415641560852053837e-01,4.983071023727008719e-01,-4.029703397204912330e-01,6.629996782108408260e-01,8.375351898495784209e-01,3.543722753120942537e-01,-3.511699529879727666e-02,-2.520513145623022311e-01,-3.445503253225670748e-01,-2.604676271764491124e-01,2.336579217989090840e-03,1.925832803636169099e-01,5.532260271620036418e-01,-8.238437495105078723e-01,-2.980147094080934922e-01,-6.695557878391713569e-01,4.472807598449225486e-01,-1.557095472483660259e-01,-3.054542897888826158e-01,-7.897227535368875895e-01,1.011789084374307590e+00,-2.853953798183990198e-01,3.393456929164203051e-01,-2.205297993516700666e-02,1.764576660076959402e-02,1.486669996523488912e-01,-7.877713683992506599e-01,1.456344879345506382e-01,-1.880302546839155708e-01,-6.372631821625567294e-01,1.619278063061665440e-01,9.801549950089891716e-01,1.002859293370076399e+00,2.807455860379338280e-02,8.101840722784433568e-01,1.085019489718800356e-01,8.360805509454245499e-01,-3.771114486130792698e-01,-8.797228274700451267e-02,9.688845492596220854e-01,6.400441370699430643e-02,-5.197381595183113712e-01,-5.157534338266518414e-01,4.404742742004445488e-01,3.961553311131360555e-01,-3.118590435304059438e-01,8.891825824923693666e-01,9.372102500743546560e-01,5.097571681079010597e-01,6.253947248009098514e-01,1.670194015685281252e-01,1.405155134292004337e-01,7.241014320503051938e-01,9.830520147634438377e-01,8.588640210531371944e-01,8.995129462693483013e-01,-3.502265640970717020e-01,-3.416367752448796202e-01,6.307270626350196530e-01,8.349706221934110051e-01,9.581516665164347968e-01,-2.347651546917395304e-02,-5.781388636782379686e-01,5.350207895169962757e-01,5.763319236379534777e-02,9.661985050148487186e-01,2.446149428050489183e-01,-6.098384674886818679e-01,8.528817895133269378e-01,6.564375036980177880e-01,-8.162388280205503666e-01,4.261375327334528396e-01,7.202867999578684843e-01,1.033867780723764618e+00,3.509317326769982870e-01,3.102251994384916042e-02,-7.787887887327317182e-01,5.008761150744459600e-01,7.876861504088060739e-01,-4.814936541178604368e-01,-5.824364203087967207e-01,2.712972208324774259e-01,3.941693795441802428e-01,-6.639163870340165641e-01,9.448566545197935040e-01,3.412783159184059056e-01,1.484817658810248242e-01,9.365505025209914791e-01,-9.451147537856987579e-01,-2.553997511778950402e-01,-7.720716047988777087e-01,-8.567509658963210484e-01,9.006793114979282366e-01,-1.092497847573620506e-01,7.454939988048513433e-01,-4.629247659046106245e-01,-9.471455976842615421e-01,8.581565715331024302e-01,3.611674553367218432e-01,4.149435613222175467e-01,3.758537508028919061e-01,-1.026540229398116066e+00,7.001299157561601261e-01,6.025088230648631415e-02,4.418904471002833012e-01,-7.567541004992792697e-01,-7.948168917873154049e-01,-1.381522236579519891e-01,7.539783574314560255e-01,5.619835497083794928e-01,5.721760848721045845e-01,9.472465091759419975e-01,6.687936643617428123e-01,-7.051819571049258162e-01,7.644257491115139524e-01,-1.795124607221139715e-02,6.489063084024194739e-01,-2.161902930982237403e-01,5.653125265540218658e-01,7.595245203741250728e-02,-9.643399816662621138e-01,-5.031122504347984581e-01,7.381991604787604411e-01,9.944551067026854430e-01,-3.246703993022198032e-01,6.288393897566372237e-01,-3.691698500109921177e-01,-9.261877243311270602e-01,-3.566763259521434359e-01,-6.445344535334065483e-01,-7.295695751015912611e-01,1.377231487485718608e-01,8.048977627689829495e-01,8.397675369905988063e-01,9.136797907057497836e-01,6.903820144147388982e-01,7.308856091065631944e-01,6.836354444739356495e-01,4.248812435146873678e-01,5.027584707524574981e-01,4.664023108945805282e-03,1.659238057802764899e-01,2.149986120499964015e-01,5.301705586929513769e-01,4.294172271276422426e-01,7.847105447725121197e-01,-3.462157315113562842e-03,8.674591138542870894e-01,7.771466841223410027e-01,-9.596545369479426713e-01,-2.716458665892513280e-01,9.063003882494061192e-02,2.011801260951374612e-02,-8.102241561497680600e-01,-1.547419821649746452e-01,-5.849817446900187345e-01,-9.302619867261399111e-01,9.718029465354320606e-02,-3.515462003906958399e-01,1.216672050751855666e-01,-2.249858598123178899e-01,-3.815029743524749883e-01,-6.569111246280270322e-01,-8.038082817658257495e-01,8.041273625789360224e-01,7.088131371851325024e-01,4.615544274451259255e-01,2.205025591557026876e-01,8.230093992007841974e-01,-1.901392142751550385e-01,-1.672054278859748944e-01,4.039585411655072927e-02,-6.595092396163716453e-01,2.211061207871241330e-01,2.452318815870303259e-01,-7.878974743829714189e-01,-6.093939224422593171e-01,6.400322597181862250e-01,7.318174642532961904e-01,-5.157553682293840314e-02,3.635752427447724311e-01,1.375300572525062492e-01,6.059663044992561476e-01,8.104437299834281738e-01,7.718687063646971769e-01,-1.177420803563111601e-01,7.377383529594248035e-01,-5.298369904852143764e-01,2.131027042160592855e-01,2.180987533257845723e-01,-7.559823131276496300e-01,3.736284024511782875e-01,-5.501495854380541450e-01,-7.860471328465801211e-01,3.023276173984383863e-01,-7.065652968729396743e-01,3.894517491907552031e-01,-7.223325484632641125e-01,5.011961050884233826e-01,4.631369018930058812e-01,-9.844693712073357417e-02,6.816676928621429044e-01,3.970523163609712691e-01,-1.163291839903872610e-01,2.278645481851082344e-01,-4.064163687911573897e-01,5.642531474826379956e-01,-1.660234285345397465e-01,8.414399745115813678e-01,-1.076556539639823423e-01,2.131177695157820684e-01,-1.943153446605453971e-01,1.932697741400499492e-01,-3.483768060567518088e-01,-2.639313442333636739e-01,6.537835906926038332e-01,4.380935434450521915e-01,-5.874379301796983643e-01,-5.857772010784786376e-01,8.528248966806981635e-01,5.338971595922072932e-01,-2.469996703634179946e-01,9.067486732290512830e-01,-5.338192449231355940e-01,-6.707618418137124561e-01,-9.689402550590453522e-01,-2.086819851066924747e-01,7.624377243919328029e-02,-3.336329129948428229e-01,7.289210650933244384e-01,-2.793716053302078284e-01,6.389452783980937856e-01,1.735203836839123714e-01,-2.291096858287162974e-01,-8.771882165370054052e-01,-5.381952332833443986e-01,2.823820551903998832e-01,-8.045437068854756069e-01,8.332101218323082481e-01,6.876732009104141730e-02,2.324669471414377298e-01,3.129909589658058100e-01,4.822037159815039664e-01,5.517762726310629917e-01,5.023994402798593883e-01,-4.750095578690706200e-01,5.648127762233792204e-01,1.589597934021442782e-01,8.816261700219072406e-01,-8.680839466033717366e-01,-3.767416704188729648e-01,-9.612107504320089868e-01,4.822401991391749299e-01,2.209446803832573747e-01,-1.066758657194356724e-01,-7.763773536365773387e-01,3.700249772295578499e-01,-4.443640283087795240e-01,-2.416320702802018938e-01,-1.387886564606810591e-01,5.907515317847252811e-01,-6.152949237106007940e-01,-8.442699569355004430e-01,-7.596299922963615225e-01,-1.790201458447970850e-01,1.465004752403261390e-01,7.991884827651436485e-01,8.841225647219599360e-01,3.695009398913149390e-01,1.537539759743608014e-01,4.703426081820846760e-01,-8.413246859702527836e-01,8.510403339766777764e-01,7.038189683750781800e-01,-6.264708977613689944e-01,-3.973452029380037387e-01,-8.344202168191269253e-01,7.378028177820667999e-01,-4.834168329105238415e-01,3.426703791509829733e-01,-5.803142871517500412e-01,-4.407674180335427461e-01,-5.701786628964786718e-01,-6.757620850735769347e-01,6.364732865433265774e-01,-1.336105939130697862e-01,4.857907554901675917e-01,7.955974048961820255e-01,5.109965401544226404e-01,3.546902497013929012e-01,-4.584727830800618409e-01,4.590770607945354187e-01,3.351926136497178632e-01,4.882205985551649197e-01,-7.682795007803211451e-01,-6.421710987995209452e-01,-3.630729657266603683e-01,-5.604581648288985418e-01,-5.250623819295955341e-01,-4.509344430874822618e-01,-1.285618805823594835e-01,-1.865768784723197127e-01,-9.569421650097686971e-01,9.361827998052034416e-02,-4.516453454845199000e-01,1.364179691386653848e-01,-1.222251446221354759e-01,-1.174487350010184478e-01,2.155994687089508866e-01,-7.865603078966337813e-02,-6.629367848912660621e-01,-4.147395573501418964e-01,-7.135848191691352982e-01,4.463172936367712507e-01,4.161537252761625116e-01,-9.021589551091411252e-01,9.850199360681868299e-01,-7.709593069821164546e-01,5.725438590875538969e-01,-1.783714430235643078e-01,5.116879215043044216e-01,-8.403519108409702731e-01,-3.293842905743420979e-01,7.439364931168025441e-01,-3.078496355382376870e-01,-9.282831607406041297e-01,8.855225431871331931e-01,-4.220046491613857476e-01,4.446864287173811665e-03,1.470955246763531454e-01,7.882959303508260129e-01,2.936200490126647522e-01,-6.025539230677992020e-01,-6.976524405463582212e-01,-6.927246127103829920e-01,-1.534603829789843998e-01,3.628167265517084905e-02,3.140088363069606370e-01,5.150310223078148342e-01,8.475453034433838573e-01,9.226388916231973436e-01,-2.786842947375793855e-01,3.682676144006242214e-01,-5.172741359810100192e-01,-6.246184902034555009e-01,-7.821829611314852493e-02,-3.283196277297856791e-01,-6.426652182146237458e-01,9.713538820425580145e-01,-7.356959849299962162e-01,9.313376965101006766e-01,8.863495411980411298e-02,-4.932958323394970312e-01,-5.240988219339853815e-01,-2.159272399097393602e-01,2.164266387134098357e-01,2.346855575009803296e-01,4.816146232334683752e-01,-7.648338180419131938e-01,-1.646170896631947433e-01,9.443754930849388440e-01,2.561248476845186528e-01,-6.491741034614291195e-01,-5.200281120110032962e-01,-4.093836380871538339e-01,8.969115547676863587e-01,-7.265880251443784799e-01,-7.913447229300080155e-01,-6.899683010284710649e-01,1.633677775046469549e-01,7.192527976189646566e-01,-1.396862431926380044e-01,2.920910062137271335e-01,-2.093008013758292651e-01,-9.599483995008323278e-01,-6.431958588343090755e-01,7.658777349512033705e-01,3.957464527844906793e-02,-1.160030524805732433e-01,-9.842135459984306944e-01,1.589707253123562661e-02,5.242767025600483244e-01,-1.098024819876566166e-01,4.751647044819327093e-01,1.593718145372584882e-01,1.238425669741221868e-01,4.724352813567913589e-01,1.528313659099133498e-02,-4.979047473459299877e-02,-6.988241439548993350e-01,3.857151959871085167e-01,-7.829919646580987824e-02,9.262892733092776831e-01,-8.379090193162732625e-01,-8.031415909451965485e-01,-3.559764822699315601e-01,1.229442137479216518e-01,1.749470371924643497e-01
-1.020549031949369745e+00,-3.951094580938927653e-02,-2.755199809690982854e-02,-7.329382129204653484e-01,-3.508130763185794421e-01,-6.264227978331023960e-01,-1.386408042484087444e-01,6.060233013390331491e-01,6.400435567653546265e-01,-2.200519125703945256e-02,1.893100877244071889e-01,5.097931147308168986e-01,-3.576319386493426178e-01,6.029831771199031243e-01,8.984592177395642754e-01,5.965212507709269918e-01,-3.545661447306192038e-01,-2.053492963807484195e-01,-5.540410386521475994e-01,6.396811600125844599e-01,4.656932699426711841e-01,4.408970115893410813e-01,8.387500387631816601e-01,-9.427153285099095781e-01,3.192674489880504840e-01,-1.717524456113232179e-01,-5.206060556892836422e-01,-3.347272463046108149e-01,-9.081248812223290390e-01,1.177984779352408452e-02,2.428603676915368770e-01,4.165772354894558549e-01,-9.730391796487943834e-01,-2.093615872361424268e-01,-4.073309703488819933e-02,3.204340297886258959e-01,7.259389157061572895e-02,5.004955033946030252e-01,6.380064624184341726e-01,1.930764804710666527e-01,9.772884469992092205e-02,-8.532290776915226749e-01,1.023697949544021490e+00,1.328734331281106462e-01,-8.873651578249687200e-01,7.452114494048305282e-01,8.439153133602114165e-01,2.671804128838936032e-01,-8.815299265036339316e-01,-5.474308093333112024e-02,-6.088819874640646335e-01,-2.461407802742468509e-01,4.072496688945869692e-01,-7.159782540940707977e-03,-4.036702119340950801e-01,-8.266483938653028385e-02,8.933218218150626999e-01,-1.581007123118607083e-01,2.471670799653162554e-01,7.959932788074711718e-01,-8.378769881028815814e-01,2.301812315650310636e-01,5.126308523481641899e-01,9.056219022998521773e-01,5.367834132081766851e-01,-5.513950235991714743e-01,-3.644781550612036236e-01,-3.793469576260631859e-01,1.456356146648192518e-01,-6.762359114557980888e-01,-4.413764116905780077e-01,-7.957459478661041974e-01,1.822322396524622412e-01,-2.760465646823858643e-01,9.849509341762392456e-01,1.571043961836060543e-01,8.902173763617719782e-02,7.960861014948822367e-01,1.443184944728888031e-01,4.531400056257969822e-01,-6.610587233594534817e-01,4.660197179421984304e-01,-7.974702096507733096e-01,-6.185780790854723543e-01,-3.284180780727901650e-01,-5.984092860844403283e-01,-4.405861181671284488e-01,7.996070475185657056e-01,6.313895710063267552e-01,8.895808069850040800e-01,2.303894832330351684e-03,-6.647041885424805896e-01,1.382694422421753555e-01,3.486917854784680748e-01,4.892893856672127506e-01,-3.643554732330797075e-01,-9.078879883253029304e-01,-5.003796396881268205e-01,-6.032306261642205181e-01,-4.332965868882180382e-01,-3.430568017611171361e-02,1.834210873864606517e-01,-8.511680079617075512e-01,-2.984528635570091182e-01,-2.615585618375680377e-01,8.293149254177475949e-02,-1.832773287204994273e-01,-8.544937909897006856e-01,9.867120981111526801e-02,8.166778841702062586e-01,-3.602935527675230065e-01,-3.925118448605188770e-01,1.011553119324456018e+00,-5.426624057149911362e-01,-5.134982485262631347e-01,-7.791562911365323973e-01,3.170745752669711925e-01,5.783529530862366874e-01,-1.082513210785197438e-01,-8.885905598117579407e-01,5.834304671806990195e-01,1.615684643051396585e-01,9.864953221256756999e-01,-7.104339636519522161e-01,-4.004020836169592396e-02,-8.971811221116026136e-01,-4.117162964187995877e-01,5.417711154265354434e-01,7.922503020896846104e-01,6.346304730227892987e-01,-1.157545345473408593e-01,-9.858755746321022917e-01,1.551213283296958012e-01,-1.413644874688463615e-01,8.837999187504581855e-02,4.318742455372048816e-01,-7.970667301777119018e-01,-5.222070245213907835e-01,1.695138021872936995e-01,-9.161651069979863671e-01,-7.514612139434299065e-01,-1.016147088346171512e-01,1.084055344528221110e-01,-1.001576438470717090e+00,-9.868159689548332558e-01,9.523674515950076858e-01,8.746254166568337984e-01,-9.208601623066076103e-01,4.651072639174940182e-01,-3.262256842918393462e-01,-2.251968996272387113e-01,9.133875080943050229e-01,-6.688195968988494000e-01,-5.698730822301814047e-01,-1.002829321080974945e-01,3.315619986372140282e-01,-4.530606079505727357e-01,9.497131145570103516e-01,4.781562965097408968e-01,7.057359657807960041e-01,1.271385504914169032e-02,9.413918185902628855e-01,-7.286101076071271887e-01,9.453831495403035579e-01,-1.701214674072791533e-01,-1.017636903611027099e+00,-5.361584675524798671e-01,-9.440239898786081385e-01,-7.214182989819376557e-01,-6.929731440189702552e-01,4.533730118924227948e-01,-8.045396683031831309e-01,8.792539683459986710e-01,-8.604452385975309703e-01,-6.752539368317139745e-01,-8.422822096305764283e-01,-4.549183404306684775e-01,-2.769830208331073851e-01,-1.862868849918987435e-01,-1.088914253947155242e-01,2.202069089512969091e-01,-2.754059903102195617e-01,4.121357069894932695e-02,2.353480208315402444e-01,3.234554509340976658e-01,9.023739601861606729e-01,-2.916626313437705332e-03,7.327644856079810198e-01,7.892016046775607307e-01,2.087269719978016025e-01,-2.360351682614837410e-01,-8.293307580089948061e-01,-3.566938222568971084e-01,9.089411624245953281e-01,-7.560467665745762567e-01,-4.823098416847573788e-01,-8.770498913967879062e-01,6.107959749375629910e-01,7.582111614610641537e-01,8.468052878887233348e-01,-8.658774875970947082e-01,2.105260170952162890e-01,5.393578610286712260e-01,-1.613913418426173307e-01,2.791361740900608068e-01,9.396288863264983249e-01,2.464291146368150776e-01,-7.700282486541928373e-01,-6.410105023923041712e-01,7.732557888567538340e-01,-2.825857780371876515e-01,1.555224353652148173e-01,-7.053710448835912583e-01,7.814746049554610607e-01,-5.089544182229347458e-01,-4.913983418239848966e-01,6.533327627551653860e-01,-8.123230969221120201e-01,7.166254471159723138e-01,8.936365784678899082e-01,3.664216942316068093e-01,9.166163703167358179e-01,-7.739799842723715795e-01,-7.154893175697151220e-01,2.053031495966804384e-02,7.098430172050774756e-01,-5.696588096209098673e-01,2.166821867848654076e-02,-4.790842018176284106e-02,2.730011737847362618e-01,-3.997449472672685578e-01,3.420813076189144764e-01,1.533502810152610196e-01,4.448058224800450211e-01,3.500822079684086097e-01,-2.392520796814972261e-01,3.050054669357725734e-01,-2.102275650497735793e-01,8.105071592102579547e-01,-2.428536461851087958e-01,-1.975864607791944505e-01,-1.710081896534238477e-01,-6.304692149355241026e-01,-5.262318787241846429e-01,-8.150228676144161133e-01,-4.061903010780247743e-03,-3.011842815320301958e-01,-4.304963056274024868e-01,-2.433683662656835611e-01,-6.723173496928561699e-01,-8.316130491690675308e-01,-4.843142293528663878e-01,4.565341222311752323e-01,2.228892938475011791e-03,4.637021712234758453e-01,5.428595678781173994e-01,3.087301670441189305e-01,4.900733744092905519e-01,-6.040785610246470760e-01,-6.400490597914760826e-01,-5.165598437267889809e-01,-8.377968689236213740e-01,-9.274310076646213874e-01,4.326353548917657998e-01,-4.077748307777055436e-01,-1.758204863204081703e-01,-9.656377572876426729e-01,4.653111577043819724e-01,7.097256288796250923e-01,7.489625802650858866e-01,-9.320598323590312262e-01,7.222322329694249587e-01,2.431272204611930124e-02,2.644354638603251817e-01,-5.863262650667828702e-01,5.715830658696792188e-01,8.542135878338114052e-01,8.322774490314528428e-01,-3.751017364507180929e-01,-3.178482058558301793e-01,-7.983882292200412678e-01,6.386075683704286465e-01,-9.348276510626033486e-01,6.242438629264915884e-01,2.628017739535795094e-01,-7.895776839976863526e-01,6.973095348342283062e-01,9.191962325650845367e-01,4.756799245794285924e-01,-1.666618772035766416e-01,2.888223452339342412e-01,6.307627461415744596e-01,4.686780183739148176e-01,3.927633665095339177e-01,-7.478262133131999834e-01,-7.334022607644894443e-01,2.285001127841418123e-01,-6.247906740889663801e-02,7.312839451447320505e-01,4.767077266405812530e-01,5.811638208643029602e-01,-5.374387059935648026e-01,1.117389935429674991e-01,2.264796977495123487e-01,6.082635589209987037e-01,5.845560859031788681e-01,-5.596046584698054494e-01,-7.904650606209978614e-01,1.626018283206853710e-01,4.043991147441876044e-01,2.792196344886301376e-02,-4.101494644081510321e-01,4.741525093257162871e-01,-8.113204752251027552e-01,-9.520188032167022918e-01,-4.680391569227953519e-01,-7.003904675177906672e-03,-1.031788713460654483e+00,-3.056243921660892204e-01,8.617673701405740294e-01,2.190613300887401804e-01,-6.884999608525391168e-02,8.719838117317909587e-01,-9.652400092503607976e-01,5.278085614309567797e-01,-5.405629773903068980e-01,7.503552507749343681e-01,-5.684256742846941490e-01,-5.633525610514951154e-01,6.985951804555025069e-01,-4.325423144848296042e-01,-6.314363926202658517e-01,4.465170625280045491e-01,-1.478898076701468112e-01,5.155342300111623866e-01,9.520309664532919935e-01,-3.675627057434109335e-01,2.384248743118756730e-01,3.852070722964203719e-01,6.801190419204748532e-03,5.139024930502052863e-02,-8.253174859296699140e-01,-8.671597230309644466e-01,1.952650190472704494e-01,2.664891895369189689e-01,-1.456480661105704899e-01,4.132914488818820176e-03,-9.443311661250105571e-01,-8.416675127917837562e-01,-6.608712473867282000e-01,-8.011971645163759037e-01,4.781933078248447599e-01,-6.236259433229470739e-01,6.660110827584015958e-01,-3.111269050509614664e-01,1.415901714397528044e-01,-9.948705297085396193e-01,-1.867062147794551485e-01,-7.999159997857649973e-01,-8.028670662760256649e-01,7.848257062757119096e-01,-7.779376502647278313e-02,2.146812202371485012e-01,-4.224951841257769125e-01,-6.630212461966857873e-01,-5.132529607409894723e-01,1.291160833552767659e-02,-1.938185388409600918e-01,-6.637147330408375845e-02,2.637101234205164180e-01,4.479121067606141593e-01,-4.807817105067306862e-01,6.820366072536736546e-01,-5.706070373367829601e-02,3.492371358918606311e-02,-2.198912085058515875e-01,-9.735473101950010977e-02,-4.055493847258744289e-01,4.595868696132670433e-02,8.582107965871710320e-01,-1.305996092210132131e-01,-6.770103234416506854e-01,6.448301829568405807e-01,-1.103081691690962693e-02,2.397560745080535016e-01,1.363619195288306718e-01,-2.084334591322447583e-01,-5.085575212219890090e-02,-1.886563627384924835e-01,-3.572040002787688628e-01,-9.578182374867314497e-01,1.366765136299963324e-01,7.506445080755726196e-02,-7.847655557499806367e-01,3.084053532369647188e-01,-5.503832015271938882e-01,5.855058026904034207e-01,2.990801630683408430e-01,8.050449304980482612e-01,-3.281942372558609988e-01,-6.309631679533793669e-01,-1.048420649022412388e-01,2.373465360601952068e-01,3.767077649376401882e-01,5.983108891572546106e-01,-7.283699341945447658e-01,5.209270018632092825e-01,-6.840860098669192535e-01,2.054861351189515295e-01,-6.228353629908639499e-01,-9.158463121994290246e-01,1.485248958916279005e-01,-4.013920500323986396e-01,1.588876827786055990e-01,5.076632993778279479e-01,-1.014720858095444100e+00,-7.472910474420952909e-01,-4.582584913255476899e-01,-1.058875066882742910e+00,-7.476761625361296737e-01,3.323108209878584685e-01,8.737313664945842717e-01,4.818833733787845630e-01,5.724965705458537890e-01,9.613750618769068002e-01,4.886489777191586198e-02,-8.899291711297593888e-02,3.059628589310086078e-01,6.999354578940354399e-01,-7.094781013031504768e-01,-4.038625044721634305e-01,-4.067654382776610955e-01,-5.785460148473782205e-01,-1.069054856602976722e+00,9.163615385031986804e-01,2.916696757690023234e-01,-7.793804043347807298e-01,2.442039094566103574e-01,6.249134369155243673e-01,-5.611039937177525472e-01,-4.467986315671451658e-02,5.768596701066093235e-01,9.020505499784496617e-03,-8.177549727926228806e-01,-2.653896331709300616e-01,4.099604180474394899e-01,-4.901680382153646987e-01,5.500385742410520695e-01,-1.015151543097132958e+00,6.722399682537671950e-02,-5.877846864729743270e-01,3.351741304836109991e-01,6.975792071229662827e-01,-2.018416248678751856e-01,4.573348283939929759e-01,-1.092070796033780405e-01,2.642040031344599638e-01,5.234982045321284749e-01,6.238756553695592455e-01,-7.358699025605123234e-01,3.438115581672068766e-01,-1.416383640841607783e-01,3.388261963471669858e-01,3.036148061534901244e-01,1.793543003105322609e-01,-8.578610366209895588e-01,-7.161391902421444522e-01,-6.821355117410586866e-01,7.371357175447370569e-01,3.463032790570343966e-01,-2.538079387002403764e-01,-2.373998805494723641e-01,-2.154034234100070944e-01,-6.157808462285261353e-01,1.375241546603649390e-01,-5.223073263095516783e-01,5.233260678448439229e-01,-1.371043242312673105e-01,7.268540550686988233e-01,-5.691852364324007096e-01,2.172441874005502649e-01,-4.808326938401991657e-01,-5.672234653683595473e-01,9.182499223867125471e-01,5.830445913744367603e-01,4.857083576425851867e-01,5.912521038535873963e-01,-1.562732284302342511e-01,-2.817665874840039053e-01,6.687225868084207825e-01,-2.938286816468754781e-01,6.207847940410866627e-01,2.751633144955064614e-01,-1.043909128313076140e+00,-6.554855234754355942e-02,4.345092929708478935e-01,-3.577384118878280672e-01,-1.391761190210420995e-01,6.740578243740894537e-01,1.568380749804286212e-01,-3.715412379610930765e-02,6.648575669933403098e-01,2.524989226630578454e-01,6.520457690303901321e-01,5.894419052007021653e-01,-9.266742910585017423e-01,3.990878677056898249e-01,3.084398039857276785e-01,-3.461560669482454111e-01,-5.680651326140061519e-01,-2.407827622961838665e-01
6.994589739589469612e-01,-3.725765006636386767e-01,-6.702398092155912313e-01,4.690667710308079608e-01,7.984628623697694882e-01,-1.293502050734116754e-02,5.621923660509505760e-01,-3.717504720844909682e-01,5.985591780816276186e-01,2.499563148321641004e-01,9.395024931196184204e-01,-7.056521182854158525e-01,3.547178823297447159e-01,4.984136012331375487e-01,-4.560313731556796535e-01,-6.207440144867538284e-02,-9.506536416046964533e-01,8.152239662205532089e-02,-2.483856059265735494e-01,-7.744456610139592856e-01,2.945775718189808101e-01,-5.982271691058035357e-01,-6.681916643481815576e-01,-8.951634731662491684e-02,6.129834789151860502e-02,-5.183456592753616921e-01,-1.034296228083685154e+00,-5.104138792635500854e-01,-4.352134223349762299e-01,9.400362150820527063e-01,2.262406050816439251e-01,-1.014677110889956158e+00,-2.656057549918676708e-01,-4.547515644053037875e-01,-5.095826440679893793e-02,-1.045123180506096983e+00,-1.348755251357670881e-01,-2.465848318202709388e-01,1.204184329809475512e-01,-6.624331577373367974e-01,3.843907968536618425e-01,-5.864486777453526978e-01,-7.335459073023831156e-01,-3.731031971244859746e-01,2.589696581890534310e-01,-7.862781353930480277e-01,-9.295553300973528055e-01,7.227347344695152220e-02,8.458106155349017774e-01,-7.388797577623646973e-01,-7.242829558796571865e-01,4.999801169748383511e-01,-7.229666206842827458e-01,2.830416594583559098e-01,-1.011676351934439388e+00,-2.433238302421919241e-01,-8.647672135980550845e-01,6.563527200033530962e-01,3.550725305275245769e-01,8.035688683607077332e-01,-2.727256975717822773e-01,2.132439627083417555e-01,-7.748703427725256443e-01,-8.314069183661598750e-01,7.420141679837590765e-01,8.092362324763830994e-01,9.101795540283039720e-01,1.952237914108829325e-02,3.150104470627949627e-01,1.730842724148576872e-01,2.650897934858172933e-01,-6.021683801633963551e-01,6.813332770213451628e-01,-9.256563360958034448e-01,-4.611709179248287271e-01,8.474183892160614961e-01,4.116237078868779653e-01,-6.251122368885567160e-02,3.012738495577650388e-01,-4.673046789501831277e-01,-3.149519844918212130e-01,2.247527648560733171e-01,-7.475942009601130867e-01,-7.696716030269464826e-01,-1.015217633779092049e-01,8.599375119548480217e-01,-3.147971764133966621e-01,4.943217646592613090e-01,-8.247082834725852907e-01,-6.440074976417174968e-01,-2.900499592168531149e-01,-9.236690270320204732e-01,3.999192838273787909e-01,-4.824031501046051607e-01,6.961871594461549462e-01,7.712817704019963028e-01,3.837451475135849610e-01,7.378327256357501696e-02,-4.244026831247019876e-02,-1.813172420269691387e-01,-2.906234431097509119e-01,1.352488593800290351e-01,-3.277236670013842224e-01,-4.861461015462519852e-01,-3.339096501146409657e-01,3.028303608552486148e-01,8.147358723360677013e-01,6.663551629686610411e-01,-5.696313404853864393e-02,6.429867904217578811e-01,-2.160854824475813563e-01,7.160064027569584821e-01,-2.531213728606281684e-03,-7.338617330446278730e-01,-1.051050975945547528e+00,7.548600242193687082e-01,-2.070885334146181297e-02,1.902969274514652032e-01,-4.951083680844852175e-01,7.111458723710741836e-01,-7.054038028433594620e-01,3.474322419674121809e-01,-3.718735663613889630e-01,5.320531386550243491e-01,6.398326541779311150e-01,-4.876735564033786718e-01,-1.026365811922233418e+00,-1.009076589853213912e+00,-9.006355068317671575e-02,5.230957268628533274e-01,5.377409329137732286e-01,9.223501901222037613e-01,-8.128293480173998109e-01,1.914930824970640655e-01,-8.142080318966296026e-01,-8.273261074299141926e-01,-1.968558732515097442e-01,-9.489034860349176981e-01,-1.409104658379882191e-01,7.766686130939429722e-01,3.857844845540065459e-01,-8.306620572896815657e-01,-9.000482812016032952e-01,-7.634020065720589776e-02,-3.473848174718787152e-01,-6.145941075739753678e-01,1.909599513804511109e-02,-6.754886387648550983e-01,6.827335182971291383e-01,-7.477627420573756956e-01,-9.481668694527093377e-01,-5.213072773968716600e-01,-2.454959951656425776e-01,-3.880528391528749454e-02,-8.369752126686007265e-02,7.045873910623594305e-02,1.363126154062508921e-01,6.013877509641488844e-02,9.711439416905716382e-02,5.225417142353632194e-01,2.966751834238019470e-01,1.058087191962714946e-01,7.017646974067960342e-01,1.211161214673587977e-01,-9.213555999508329375e-01,-3.796417156195522336e-01,9.857137755629764853e-02,6.553020606857205832e-02,6.195568521374030801e-01,-5.270657022510125689e-01,5.737008371036397270e-01,2.296636739961001317e-01,2.973964089682138434e-01,-2.274639149887126288e-01,-5.584017183492375747e-01,4.824616174811042213e-01,-8.322925951368803643e-01,5.096070735655737136e-03,8.479552038523842095e-01,-2.696714320719020286e-01,4.982465859302350752e-01,7.435432716793175523e-01,7.812267646628908713e-01,9.011904052585488767e-01,3.254999539519918828e-01,6.074466838955883130e-01,4.456032286285835364e-01,-5.975855515716677058e-01,-4.894232020066754396e-01,6.297288041948860549e-02,8.265763456692111211e-01,-8.150018993793936017e-01,-1.006931092461119670e+00,-5.868955154681995134e-01,-5.472646289247804496e-01,-8.035808863749709374e-01,-7.456893127789419040e-01,-7.895091855656730662e-01,4.713481549432392281e-01,5.809485500134375924e-01,-8.341308362719878078e-01,-9.369640131208840927e-02,8.025252244883886166e-02,4.760877743416025987e-01,6.960906073422432616e-01,-4.554021176463975973e-01,-6.814967479851418153e-01,-9.901696364271288520e-01,-7.550171000764930307e-01,-7.753228316564462208e-01,-7.846377936621148352e-01,6.880333570339048910e-01,-2.887304915163021457e-01,-1.937496668441248404e-01,-3.663541287540942326e-01,5.250783889314393216e-01,-9.245193992068923006e-01,9.726898968140679225e-02,6.209135176438287385e-01,6.130971977950389062e-01,-3.534709508544905954e-02,4.093202098740413297e-01,3.008290950978512179e-01,-4.311868601458032080e-01,6.479016455833780386e-01,8.816818322275918884e-01,-5.608379249303430125e-02,4.071499971355559411e-01,-6.212760779422131785e-01,-1.460536327613286556e-01,7.028054786328689074e-01,1.611534485266821193e-01,4.572341465802456234e-02,6.094974395165887460e-01,7.261355093459247456e-01,7.607354706438208547e-01,8.040194944545826505e-01,-9.424646030892936954e-01,7.231585226239577446e-01,-9.485863318446073611e-02,-7.173439142152125969e-01,-9.706812296448606991e-01,-9.839437851419103875e-01,-9.727178623267753732e-01,2.296124243761638387e-02,-7.712249218002066309e-01,4.452202911201582070e-01,8.271901707172315543e-01,4.451017747721742190e-01,1.907236806198781276e-01,4.614287078317586555e-01,-7.515295346484439643e-01,6.934292191666717731e-01,6.546305745110739260e-02,-9.450949646608882704e-01,-6.780109645428240572e-01,-6.669989692168051820e-02,-4.522394143214703011e-01,-2.942970711332514311e-01,-8.445682201631149466e-01,-5.336450978052166561e-02,4.907577960956030494e-01,6.047772007166660746e-01,5.775447458623647057e-01,-1.901743516184372929e-01,4.046251055348802361e-01,8.994350488963904766e-01,1.712216367639309358e-02,5.904479225534055020e-01,1.003267319539207447e+00,-2.662816103335982620e-02,-7.938789287726857324e-01,-6.416028864249458952e-01,2.010665689175818727e-01,7.936467492858209072e-01,-4.208324223348821058e-01,-8.568925478486201230e-01,-7.556709584870658913e-01,8.503066112489605644e-01,-4.481411485305114017e-01,-4.792604986884262952e-01,1.386560362090975274e-01,3.037816072912428722e-01,1.527771787047629282e-01,3.994500679426329914e-01,-5.046924353114872197e-01,5.589155359082114138e-01,-4.088172803372651654e-01,9.308984615375686111e-01,-2.415359274653492427e-01,-7.144974898207030467e-01,1.146721585455570680e-01,-1.738120939855617719e-01,-5.419031979633710527e-01,-6.937471517689774991e-01,-8.455456793365394574e-01,2.285932356168336177e-01,8.310948253865363400e-01,9.762917839674575271e-01,9.066225365133818714e-01,-3.900366563623674510e-01,4.512292722836689918e-01,-9.218255114989972743e-01,-1.399692451356599754e-01,-9.133868969476059974e-01,5.256679578779768214e-01,8.453712295034470081e-01,-8.089498217290386206e-01,-2.626882939153105459e-02,1.782318887224308979e-01,2.793984476143187012e-01,8.324910509417267068e-01,-6.872354141101555403e-01,1.152631382029319640e-01,9.046094677900192726e-01,-5.915051878517870731e-01,1.262653834240303474e-01,-1.029531953891336782e+00,-4.925968713922975195e-01,-3.026907770037752798e-01,4.215360840139215082e-01,-1.241701057568735667e-01,-8.446384517279272863e-01,-6.466103490379611074e-01,-5.612102533763915213e-01,-7.375106731933925297e-02,3.913632448299631528e-01,6.013958763116582507e-01,-3.855605272190328892e-01,-2.532848749745471584e-01,-7.475904125699369684e-01,2.188595858514806314e-01,1.011587721203544454e+00,8.946604165393459152e-01,-6.090774766679891705e-01,2.925148061214749018e-01,-3.621303233593080595e-01,9.278848675369485433e-01,3.406805453523147342e-01,4.009361391706063871e-01,1.567981098170692089e-01,-5.898260302917395226e-01,3.233824904753557772e-01,-2.684517563483859171e-01,-6.001572585404565396e-01,6.031825746286288981e-01,2.437350794773270740e-02,-9.409704344005316301e-01,8.570068397298357121e-01,6.340287282935629376e-01,-1.017990701987115498e+00,-6.390501606395948553e-01,-5.600005643036854996e-01,2.378039459056029703e-01,-5.279429991757851326e-01,9.379063942172468638e-01,7.624734066235859808e-01,5.158519974182729229e-01,2.686946505469494650e-01,-8.201623587262633075e-01,2.694202961392702655e-02,-4.474777862026649289e-01,7.938383726770563698e-01,8.515078726212055305e-01,7.416550456861303875e-01,-7.610139548430394640e-01,-3.148406410213190620e-02,3.570847950240814694e-01,4.274794389678098772e-01,6.123761695227660784e-01,-1.040797532207844989e-01,4.550293245831363853e-01,5.896980990327603811e-01,1.855716967891356262e-01,-8.952698104408449709e-01,-4.086990683475372754e-01,-9.315032448120408315e-01,-4.370633908994099870e-01,-7.046499350724000355e-01,4.114918036762452713e-01,8.504884086733027759e-01,5.503053118171774560e-01,-3.427668158481328997e-01,-8.914640551249971567e-01,4.889772196187778253e-01,-7.661467657114874319e-01,1.633830671785140021e-02,9.718273416251381747e-01,-9.220098065924778874e-01,4.905224500836349866e-01,9.676401213692535641e-02,7.144119302796246573e-02,-8.301617960152756215e-01,4.399874810591556940e-01,-8.102097597337556412e-01,9.129367276161358680e-01,5.187357779214379905e-01,-9.889950876515476996e-02,4.671558600060878724e-02,-3.746593204808902622e-02,-4.194458590269034559e-01,9.055413804207967932e-01,-9.483964211401124667e-01,9.596561127014687775e-01,-9.102652557644681508e-01,6.099236644602586965e-01,-7.261109936774214901e-01,-4.423932268489633723e-01,7.658523381950039788e-01,-4.475851197483693422e-01,-1.481081622204782622e-01,-2.603609047211703498e-01,5.025763749459329910e-01,7.845381535912393511e-01,4.752142970034489017e-02,-4.971624522108479827e-01,6.586888231608686306e-01,-7.250809478558775494e-03,-4.002975805428228284e-01,-1.253945275196621800e-01,-3.278715965878225419e-02,-9.317901076317235409e-01,-9.028840240421224239e-01,-2.376064237989152506e-01,-2.223307981963257296e-01,9.377844611693323396e-01,2.960603970779797367e-02,3.928806198235025304e-01,-6.379836320777003689e-01,-6.469548780426526147e-01,-7.053861314094644896e-01,-6.996668017719190891e-01,-7.531771480309293887e-01,4.082469854505912377e-01,5.418356354972067024e-01,7.173775618315462177e-01,3.386970870949732593e-01,2.462004421613966099e-01,5.972591362492970513e-01,2.416880097795733873e-01,-3.266978242944830191e-01,-2.112529812293511555e-01,5.321115003660827902e-01,-6.880548287771997007e-01,3.015980808380860356e-01,-3.825523722904749513e-01,-9.692933060000807899e-01,-8.891808580658999706e-01,-6.452991731079325000e-01,6.205595292133768703e-01,8.060151634110588326e-01,3.215523451183613379e-02,-4.059535738561904084e-01,-1.856425664265443642e-01,-5.385732706755488319e-01,-7.928238653285089033e-01,1.416158369819157103e-01,-3.828440320390660845e-01,-1.730210951338300163e-01,9.766026467086263985e-01,-6.980617274996867017e-02,-7.474957886085653591e-01,9.599526710482025882e-01,7.140476378226674470e-01,1.293737503428158131e-01,-1.253035237301592109e-01,-8.518731395788725624e-01,-5.718257244806156103e-02,7.719572758135296864e-01,6.634938649126131960e-01,-7.954083061459976678e-01,7.217984092219020820e-01,7.196497715579798227e-01,-2.714700109583687571e-01,-6.663475428754851437e-01,-8.256764751423596449e-01,-7.545042651614375373e-01,4.812624119205801132e-01,5.348666450792095572e-01,7.876829411141654802e-01,-6.726818927397236747e-01,6.653744696774177569e-01,3.874259591091350208e-01,-4.754128186367780895e-01,-4.751759977998145090e-01,9.090781641198224516e-01,-6.455212639707762490e-01,6.452214960254840648e-01,-2.267526620290052086e-01,-9.406680586119331444e-01,6.185310860405002220e-01,2.625459824670480224e-01,4.851475754169869981e-01,-6.308376408268795421e-01,3.795593640834725724e-01,-9.280375836952083901e-01,1.996111979358499988e-01,-4.367748867719030703e-01,-2.989002011919537627e-01,1.681803556808436351e-01,2.738790910098445885e-01,-3.067079162647706192e-01,4.039543613011104539e-01,-8.022789949533880582e-01,-1.012395082653577694e+00,1.249126846211762454e-01,3.000044688301574114e-01,-6.459075567642471594e-01,9.520568982545348780e-01,-6.433246982963718441e-01,-7.381758011088812577e-02
