2.916247074839709713e-02,1.161533161755049282e+00,-1.957503566017475272e-01,-2.604213650518977796e-01,-1.643377134910986859e-01,-3.844870826311864165e-01,-6.190652402792629072e-01,-3.024687409757594869e-01,-1.007645447174680270e-01,4.791224512585555706e-01,3.716985581695114171e-01,-3.298546618404799569e-01,-4.535445313061795547e-01,1.716716181821401344e-01,-6.063519685594160880e-01,-9.793631909636648647e-01,-2.988878468594801663e-01,8.238342025319036477e-01,9.573804141474421270e-01,4.935922237243786093e-01,-5.257286531922223949e-01,7.440083235234277170e-01,-3.413910168074571483e-02,1.194140734577029683e-01,1.633401095601972053e-01,3.642224704057043239e-01,-7.703290510116914680e-01,-2.094728933945984584e-01,1.971411889494335545e-01,2.409543185793514564e-01,-3.684217032300860506e-01,-2.067883200749082440e-01,8.280927552505257250e-02,-4.893758093665748765e-01,-9.583707717152623040e-01,1.757517131706732294e-01,-5.554684760696138729e-02,1.068508481736413218e-01,5.833985658297963228e-01,9.158279794646270178e-01,-2.854339064156173666e+00,3.346043204447887165e-01,6.230609940985377682e-01,1.054427164705710324e-01,-3.322874546829904241e-01,-4.811964328284367709e-01,-5.510449732753857077e-01,5.210709757442986145e-01,-7.120897161284585053e-01,6.205411115273634648e-01,8.287105017528982875e-01,1.739068239756233480e-01,-7.239610674073838625e-01,3.809230519436599960e-01,-3.475033760875022582e-01,-4.709977821243240825e-01,1.924392614709401206e-01,3.982024644176644923e-01,-2.198645073311126207e-04,-4.139901126684839006e-01,-1.034506004813890545e+00,5.687751150946586121e-01,5.617393695293557698e-01,1.364834539335006425e-01,-8.744567077240672157e-03,-1.448844485028531193e-01,1.507643795458891989e-01,-2.644803663475833178e-01,6.022632241920575780e-01,-6.935953157078387221e-01,2.743772211021337504e-01,-7.641029125308795855e-01,-1.653401527896068146e-01,2.989787422070962642e-03,7.385676757042357599e-01,2.776538955851657331e-01,5.186577831017492590e-01,-1.727473753276992374e-01,8.631936530921062722e-01,5.853046764199655305e-01,4.036089757741984779e-02,-2.918969310866045275e-01,1.040692583881603628e-01,-4.904878870863534357e-01,-5.940518842680621026e-01,-6.908734237437008652e-01,3.926523390346627757e-02,-2.314598958432220188e-01,-4.068153782963038201e-01,-6.859253134382330419e-01,-7.508206125083250089e-04,-1.367644029803115335e-01,6.987879750508742271e-02,3.382160480130366187e-01,3.870938518786785076e-01,-1.088466392474856992e+00,4.736352761787276933e-01,1.728943722234846103e-01,4.894601850046511049e-01,2.173642756479724492e-01
-2.286111970272530325e+00,1.822427532304426445e-01,-6.749150696232865121e-01,7.186257177797369389e-01,-2.749084293962363312e-01,1.275482440551425345e-01,2.286117823961192341e-01,-9.968398138572727163e-01,4.318441640941712567e-01,-3.005076588923296654e-01,-1.496029350748360631e+00,7.549947239193182114e-01,5.456840357437590106e-01,-1.648752179943742679e-01,1.341878459109337118e+00,-9.324631632213673527e-01,2.633952427834012622e-01,-6.346073350513543598e-01,3.500958054278776044e-01,-9.007146717594672891e-01,-2.558908001289080247e-01,-7.585920364543326244e-02,2.620352530820272974e-01,4.905203609444600543e-01,-8.987946973438984966e-01,-5.236649659546800395e-01,7.645299480013099114e-01,-9.008949660176583940e-01,4.064621835073221612e-01,8.839351768219556871e-02,-6.770389508344639706e-01,5.620807316687564947e-01,2.218197074480112493e-04,1.382193490660814095e-01,6.404919271616467125e-01,4.979663781686281543e-01,2.511603421390002366e-01,-4.400280305211081155e-01,-6.357971652279147401e-01,-6.208068801420631860e-02,5.822483651021987949e-01,3.998367201944125204e-01,1.336408440292836119e-01,-3.611835170256764149e-01,-9.295323066126628397e-01,6.116545939154311995e-01,9.551806379088060295e-01,9.148400320349654447e-01,-5.863687534252151057e-01,-5.515817505363702633e-01,2.305226325724428760e-01,-3.508640076849709466e-01,-2.422315960905001286e-01,-4.034044344323128306e-01,3.812843287343804788e-02,9.963556592017882574e-01,-5.413432722457846014e-01,-5.725551335984990775e-01,-9.292676796809661299e-01,5.495500219874337455e-01,1.141721235310048238e-01,-2.717038828932586414e-01,7.815540162823942927e-01,6.570057094702514977e-01,-6.622741830985044709e-02,6.069691822380589574e-01,-1.213968643720243074e-01,-5.203100577196185794e-01,-2.032207162009546653e-01,-7.517044630735653099e-01,4.811242017998051401e-01,-1.001712984869546075e+00,-1.123111807259710826e+00,9.774275053825607351e-01,-4.660794416000387796e-01,6.556417481826627702e-02,-9.494791539623932408e-01,4.315951106958531430e-02,1.808402898872936426e-01,-5.827179452363405732e-01,4.257789876057721523e-01,9.023123641623133073e-01,-8.350817890957944467e-01,2.607869091377756354e-01,5.155322854784656350e-01,-2.265340480784792110e-01,-5.593736283489421091e-01,-1.590880193869422532e-01,1.562836326771919679e-02,-6.754534856744640603e-01,5.823030322234085121e-01,-6.827938874341862308e-01,2.214254526077503310e-02,4.491139171269091235e-01,-5.371668881608305801e-01,-2.816581563842950886e-01,-7.212144252014163204e-01,6.846700815623282255e-01,7.697922069185843263e-02,2.550630586707652858e-02
4.704410428860839044e-01,-5.501673096762257353e-01,-3.838635375035096692e-02,-2.443474432485242404e-02,-9.360760966576721354e-02,7.811686229613469257e-01,-2.008734947089505785e-01,3.624785691812629912e-02,-2.594422361909660968e-02,4.459789423640124206e-01,-6.033048883271624474e-01,7.196268180181705221e-01,5.282889755425680400e-01,-4.249422307665133847e-01,1.824268377529846830e-01,4.064669821719433807e-01,5.784028421995972280e-02,5.508195086546927577e-01,-8.485257671856069051e-01,-1.651187529443431667e-01,2.612862251663269575e+00,-4.235213355656523571e-01,-7.380903843984464308e-01,-5.140853635230454577e-01,-5.866501894221500812e-01,-6.798829011519248455e-01,7.539352582861184038e-01,3.918202759590270756e-01,2.901206500814335620e-01,-5.089058774657984757e-02,5.547731318079502927e-01,-1.982798870082091713e-01,-6.810564404445010878e-01,-3.362269266898476050e-01,-7.788322237172228268e-01,9.346499219165523842e-01,-5.527388558551485920e-01,8.225209562886007797e-01,3.668016592223839467e-01,-3.761471245539228514e-01,8.349914866422577520e-01,-9.100360215080446347e-01,-8.624912062122926937e-01,-1.226913406834191145e+00,-3.161420613337930785e-01,5.026124852189879366e-01,4.414411775882015609e-02,-5.194793893791061629e-02,-8.401246751101982824e-01,-4.396378870737425171e-01,5.022526896522533368e-01,-1.890243647097575863e-01,2.313411184696100298e-01,-8.872801817820787917e-01,5.056032031449998465e-01,2.853617402443981432e-01,6.800533957156564835e-01,-3.574930167589642771e-01,-4.992835311440317891e-01,-8.365594391210796898e-02,3.156412036765188223e-01,-5.225933727669369588e-01,3.368745563022808587e-01,4.607524583068284829e-01,4.018020162626084746e-01,-9.993374652102290367e-01,2.967671106591998620e-01,3.062819992896897436e-01,1.143541620316441687e+00,-1.414377786358893274e-01,-5.525076256836967126e-01,-6.061205918611950461e-01,1.252630783994358010e+00,4.092696299687215711e-01,8.148153137705148596e-01,8.566294732104018372e-02,-6.165314226086593408e-01,-1.333176468244522850e+00,-4.916659045781515691e-02,6.734211722699910974e-01,2.131149903526205758e-01,-7.894317318715389498e-02,3.626740036068668571e-01,-6.611073115289663182e-02,4.087304361715453083e-01,7.595586067192321433e-01,-6.767824510200949328e-01,-1.284736983625954121e+00,1.243465136839444485e+00,-9.481409163928117279e-01,-3.906559839219590491e-01,3.581497272746853588e-01,1.637852026591709864e-01,4.397344493593811077e-01,-9.088286299652736933e-01,-1.962658539511312472e-01,9.254439486135357384e-02,-1.978285232204678168e-01,-3.709951086473167736e-01,-8.823942519720348598e-02
-6.883957922546820596e-01,-9.515276934836246481e-01,7.768229550581619014e-01,-7.845599337796673733e-01,2.220057742501692077e-01,6.546795595279116808e-01,1.588174459333235866e-02,-7.364158142568175691e-01,8.437549777684756613e-02,4.855970106368719397e-01,5.117159781260093299e-01,4.860609681620441380e-01,3.134599124985540386e-01,1.707968106739619074e-01,9.222411276764881649e-02,3.121311377796951447e-01,-3.352973661212881318e-01,-2.848702791597376160e-01,3.367065732305785652e-01,5.579994115378552610e-01,7.704688755979877124e-02,6.148370648826348983e-01,6.411327841935531291e-01,4.038719459246141730e-01,-7.307111486356563379e-01,-1.825614240807424404e-01,-6.026989934534219273e-01,8.663422754692877426e-02,-2.605112257799537256e-01,-4.095896305138561205e-02,-4.691519068365573863e-01,5.036178321899145161e-01,-6.896454785025407652e-01,-2.759541455502358409e-01,1.643180379613015385e-01,-3.056650361119938597e-01,-5.974746979163952226e-02,4.588929384102677367e-01,-6.942830278195329941e-01,-2.930823592786717668e-01,-2.281558868829258457e-01,-6.368871100487853987e-01,9.298094938613745697e-01,4.953715539486102520e-02,-7.922494324834489232e-01,4.919206269655301139e-02,-4.118450706324486288e-01,-6.990590506777267787e-01,-2.265089509702401804e-01,2.357019626746191809e-01,1.028733869060798473e-01,-8.685047990512416716e-01,1.561535964269140209e+00,9.194038417275657293e-01,-3.542975516894926180e-01,2.571275332083818310e-01,3.157953182941079517e-01,-3.674696085711605664e-01,5.229758497930410144e-01,1.018611339771907237e-01,-4.569759675933112719e-01,-8.464644161038828996e-01,-7.232457791795245949e-01,2.530593400355340972e-01,4.355041814567874314e-01,-6.345787558412182561e-01,-5.031891868057365019e-02,1.793831986602312800e-01,5.036669299263724087e-01,-6.504623460497851450e-01,-1.646928529075330772e-01,-8.465550916390799374e-01,6.305269421265977670e-01,3.203873902112609473e-01,4.118604446400214725e-01,-2.162955139637125768e-01,5.329414199141466746e-01,1.073742672095787110e-01,8.408639448164384467e-02,-1.517162566981715921e+00,-9.105088724411148915e-01,-8.521450713634594054e-01,-3.999259143052996124e-01,-7.184713044383216340e-01,1.445462341533053641e+00,-4.367129090625294086e-01,1.719767305496532561e+00,-1.158385980670661730e-01,-4.816933411057471304e-01,-8.152630244396726067e-03,-4.728958342157250083e-01,4.196045942857811739e-01,-7.039150538119312017e-01,3.023241479248050534e-01,-7.938935428464125588e-01,-8.703352097671507304e-01,1.829707119196689324e-01,2.005642526158207262e-01,6.887944304508100135e-01,-7.453664573571774365e-01
1.003599730133829082e+00,-2.495293133480536996e-01,-6.288768508588364892e-01,6.839981376279533065e-02,2.031341496188213969e-01,5.423599469531330541e-01,-5.707615548784402693e-01,5.690176706592976474e-01,-2.718080874470934702e-02,5.747434824827156730e-01,4.015248969564014919e-02,-4.658044963063702193e-01,5.992283571967864653e-01,-8.624552053542116070e-01,-4.223994588064206579e-01,-1.582339937402127972e-01,6.941508321955962568e-01,4.779671577932827486e-01,-2.887175052414379106e-01,4.770538655257117733e-01,-6.239670596751714093e-01,1.092140300900303673e+00,-2.659138156147432541e-01,-4.517475993361723674e-01,3.289180193502770910e-01,1.915804161159165020e-01,-2.097155079485646945e-01,-2.084398461528639557e-01,-2.243396606426295292e-01,8.817989107273888072e-01,-8.750529499126258326e-01,4.165173090783487186e-01,-4.801869698644999906e-01,-3.458078598841867191e-01,4.022557633985214820e-01,6.955161543492334175e-01,-1.615958048935074665e+00,-3.943383326122139598e-01,-2.554597386617455945e-01,5.761953349161197391e-01,5.929811824296209455e-01,-2.345298571597983495e-01,2.009322417373935188e-01,-7.828404432290737847e-02,5.317183715412433509e-01,-4.436412457578174373e-01,3.218609363001577184e-01,2.754683701482608660e-01,3.776926521946489257e-01,-3.116231120329777116e-01,3.445834099626715052e-01,4.551365908360488488e-01,7.227050535633967876e-02,2.736873486687438350e-01,-2.695165330720630803e-01,7.003414989314373784e-01,-5.675164423351057863e-01,-2.126089131995851644e-01,-2.798983917536290722e-01,-6.217002425657389697e-01,2.228322482964048556e-01,-4.744367710827837592e-01,1.132264395154640280e+00,-1.049002515973737282e+00,-6.149573720955644474e-01,-5.446905632460430358e-01,6.710829621548791701e-01,7.428443535068481041e-02,3.505398207786520892e-01,-2.789404244910070330e-01,5.309337010689171299e-01,-1.377377590193457069e-01,4.698680174148951449e-01,-1.163883847722432918e+00,5.116010979630238875e-01,-3.099640185724690522e-02,6.453035872782757476e-01,-6.449456622973412934e-01,6.889520707701783930e-01,1.446746294960230272e-01,1.460897195981531449e-01,-6.597441709667581367e-02,3.001420204488950971e-01,-4.692694601452314374e-02,-5.144176291437546622e-01,7.584874040459372857e-01,-3.843596941989805837e-01,2.919929840722528813e-01,-7.168381925892891582e-01,-1.961743287524957691e-01,5.671879763806927377e-01,4.728194901523827265e-01,5.061494255183225377e-01,-5.443729831500231375e-01,3.475186982149601200e-01,-1.212565860295019005e-01,8.131501428384450003e-01,-4.151356150864170536e-01,-4.140260119467328304e-01,5.614115179152137092e-01
7.600615431029706937e-01,1.086660722697444958e+00,-8.153147485377482129e-01,7.271829706879711086e-01,2.518469355340242632e-01,2.425973685824887871e-01,-1.104089507372495005e+00,9.582409860393359402e-01,8.442082848017448127e-01,-8.435984702383529654e-02,4.763519158292232533e-03,7.324785414477588130e-01,3.043023986733152664e-01,-3.853636877140131367e-01,3.318006720509439345e-01,-1.166629213365093509e-01,-3.962120761570632199e-01,-1.253575024018180606e-01,9.729867160888217015e-01,-6.618492045339464669e-01,2.226178353785874253e-01,1.595991851846603055e-02,2.548601817904216360e-01,6.023891281755721500e-02,1.984872164088333571e-02,-8.728895548452213216e-02,-1.967797962994470184e+00,1.698780222476806989e-01,8.874823879970048512e-01,-1.782940966951638562e-01,-4.604798870684040368e-01,1.423657687120364335e-01,1.269471252979900364e-02,-4.880871088239799316e-01,3.562918893024016320e-01,-5.479721652966205170e-01,-2.086339135010953916e-01,1.983528793258000911e-01,7.756271667028872274e-01,1.502340016654951371e-01,-3.426299437722711561e-02,-3.887741801818944687e-02,3.584745927672435273e-01,-4.917906568651119747e-01,-6.134007581608341697e-01,-6.074437071538582034e-01,-9.361892867461312218e-01,-1.820590717870818886e-01,-1.476069548622313266e-01,-4.884401138948565313e-01,-7.860044726229229450e-01,5.238984563561730479e-01,8.413095133021404604e-02,4.627609161698911788e-01,-1.258033719404487716e-01,-1.055029634728826132e-01,-4.363182522206296987e-01,-6.183908428192860102e-02,-4.148690651446477751e-01,-3.963680990708193796e-01,-4.971543056788806370e-01,5.114908138115572545e-01,1.587359720103155847e-01,-5.889568276175928263e-01,-2.378117312896546598e-02,-1.269955272202571983e+00,7.159220118912312802e-01,4.917126156655491909e-01,1.001029684420416815e-01,-4.155278694670017092e-01,-8.908746816857823214e-01,-4.002528592763553439e-01,3.122699208407406779e-01,6.107847788354466845e-01,-8.747243248673656213e-01,-3.527118747741021521e-01,3.268180733213440492e-01,-3.833642384846349671e-01,-2.824297071744403365e+00,6.007681835312927987e-01,3.713155733363189825e-01,4.153779453224273888e-01,-3.287573384757154771e-01,-5.797344856947282965e-01,-4.945407124304935786e-01,3.388644994056590476e-01,-2.954022954487372718e-02,2.559923838643966554e-01,-3.739479388349777333e-01,6.715294837824915541e-01,1.315662883123555615e-01,3.688078915933373780e-01,-1.912828756364954794e-02,4.373499761865893426e-02,7.487597280357222163e-01,-4.935591038017098087e-01,2.454723878382215896e-01,3.374469389286470222e-01,4.851020248338300256e-01,-5.299670826940053869e-01
3.167905223046726428e-03,-1.256592430581318365e-01,-3.266573695068325511e-01,-1.180502533867987258e-01,6.010811567757665674e-01,1.898814779163111588e-01,4.689141357241439212e-01,-5.270208160008845732e-01,5.199150365836597842e-01,-6.056075203489079684e-01,8.878018889205721575e-02,1.122910424108875871e+00,-6.945580913720586502e-02,-6.585024931756704447e-01,5.931454422383324321e-01,5.287290924346320642e-01,2.109214322784223050e-01,-8.673028871827147268e-02,7.718785978108186896e-01,-2.644066847210517213e-01,1.368996027642013502e-01,2.724800663784775479e-01,9.279431014389898438e-03,-5.269935799017527733e-01,-2.755397600454861373e-01,-5.097362203735100739e-01,2.789628136723642376e-02,8.078836361544652900e-02,4.324803157895721339e-01,-2.873867069954615383e-01,-2.499045187205286289e-01,6.835095249305778164e-01,1.880352622937483120e-01,-4.436040705187337951e-01,7.094901791418542492e-02,9.706037240303423408e-01,-4.300186333457166610e-01,-1.929262000115947284e+00,7.029975857722875476e-01,3.963687573255526009e-01,-6.181532284940900734e-02,-1.825445314860378240e-02,3.064209953727056179e-01,-7.623278363653296363e-02,2.405897527697410665e-01,-4.216168076499473005e-01,-9.303480573676122800e-01,-5.749089248988386025e-01,7.861271988332474425e-01,-6.834221480574620422e-01,-1.664106387529213082e-01,7.226014317860671721e-01,1.689912356597003118e-01,6.902633418229358053e-01,-3.242677958415383643e-01,-1.471351279835223132e-02,-5.229187880793656484e-02,-9.331990712991641845e-02,9.591595804808068504e-01,2.881363937282253596e-01,3.500005162562807026e-01,3.685654818208326522e-01,1.712694595007097087e-01,6.942851939920688942e-01,-2.243361543684948001e-01,4.561848127939055475e-01,-2.223619327357771458e-01,2.650170459569317627e-01,-7.596181392849390424e-01,-2.176132732358606325e-01,5.916541855738557398e-01,-3.119044468421423577e-01,5.512199384500229837e-02,5.096306987750449657e-01,5.855934087411613920e-01,5.690420050002757968e-01,4.350728039087811694e-01,-6.696712057103035853e-01,-4.086050109916716244e-01,4.630488637421599774e-01,1.009632662706908324e+00,-6.866453781237288334e-01,-2.863655531029954404e-01,1.881937216027244342e-01,-7.728149378083785104e-01,-2.752047427683703140e-01,-3.727688643129511425e-01,-5.857673677847893279e-01,6.990616219364910178e-01,6.562247403022395398e-01,2.952111381506282786e-02,-5.411772406370493060e-01,-3.443876930798299707e-01,-4.479815561492071774e-02,-9.739822836607500145e-01,-9.557576646953006572e-01,-4.940473342690129832e-01,8.022476567458812491e-02,-4.233255025650152770e-01,-4.523861434829093975e-01
8.145107106085190951e-01,-2.530212032136345268e-01,-5.383946704573887576e-01,2.885972520839318323e-01,-8.498863386704721967e-02,2.493168141441351807e-02,7.166492832951103509e-01,-9.914762865296063155e-02,-4.810510555978576575e-01,8.336818939345373991e-01,5.811317857911478812e-01,-2.470101906240133594e-01,1.708856115345367688e-01,-1.006967577477793085e-01,-1.649591209829675220e+00,-4.534994270928575100e-01,6.031472213244218894e-01,3.082226877488537520e-01,2.195667141962390212e-01,-7.975350564770486983e-01,2.559478428296736996e-01,-4.113802139597991236e-01,2.265579769234526974e-01,-6.185349482341603311e-01,2.390720736452153078e-02,2.675907848984964144e-01,-3.558601962575441702e-01,-2.972016086923462974e-01,3.694485695668799363e-01,1.726808923618050051e-01,1.862009980936996378e-01,2.035816577377353997e-01,4.794505858434691681e-01,-1.517984020506479015e-01,1.879139183287124037e-01,5.629330761793371884e-02,3.992576286433495159e-01,8.481126171961529403e-01,-2.719205895053398159e-01,7.540753805658677589e-01,-7.994659286417396538e-02,-8.355014865443490812e-01,3.605574141029048163e-01,-6.928812849717601585e-01,-4.402022105190890877e-01,-3.552697686940186617e-01,-8.488890101242666519e-01,-1.373312051264800271e+00,-5.025381063983772600e-01,-5.084487062025425663e-01,6.968904202769378442e-02,4.262249681287772485e-01,6.936077802063854714e-01,-3.181188758820403528e-01,8.282579825655105310e-01,-2.842908149971843379e-01,-9.848602669687556155e-01,1.134688876123586404e-01,-3.294150574683072374e-01,-2.220243968638472287e-01,4.400321305572695851e-01,-2.127150333907351920e-01,3.852997357130171774e-01,-1.256443262816699935e-01,-4.131762523666105968e-01,-5.242597195837367385e-01,6.684583181816509123e-01,-4.556861730693875789e-01,5.377241487728795510e-01,-4.673629519260660836e-02,-4.226771080940129877e-01,-1.293532523449171245e-01,1.733487528528363519e-01,-4.909427921067222034e-01,7.621059861702715876e-01,-1.874257209541529273e-02,2.169342465285599973e-04,4.358619767162015823e-01,-1.111274070974320322e-01,3.845183717315359684e-01,2.508749318716367305e-01,-7.206276955072957180e-02,4.428519234100004032e-01,-8.493015819748158668e-01,-8.609205020007459908e-02,5.268794381494565915e-01,-6.471599016436293539e-01,4.702948637415905742e-01,-8.008166646519131182e-02,4.552428444409698516e-01,-4.830415273041003821e-01,-2.393936213888978315e-01,1.531004858793557355e-01,3.571160190042640958e-01,4.753232739439126608e-01,2.394252591095517579e-01,-2.036415486839106670e+00,7.905171835818805559e-02,-7.156801843830512544e-02,8.783283343523020648e-01
-4.239890478144546226e-01,5.746093818103487072e-01,-3.003625419260658735e-01,-1.194493581611294208e-01,3.990794881068594480e-01,-2.238805650238701705e+00,-6.296079320259204692e-01,-5.131981316413270627e-02,-1.240094934405974181e+00,1.284961684126678660e-02,-1.364753912896668753e-01,-1.089061627793241754e-01,-4.139249870261577091e-02,-6.654852646479264555e-01,4.009286343370226380e-01,7.594748661516187438e-01,2.874779420977565114e-01,2.855081665449258344e-01,-1.637352265857238975e-01,5.904293009849934659e-01,8.629505687566994820e-02,1.837763648704655861e-01,-7.608777689566724456e-02,-5.227926435866568911e-01,3.395806138501038934e-02,-3.508945867968928378e-01,-1.936918404247849057e-01,3.659323809455968662e-02,5.452058282033206416e-01,2.199946309038600806e-02,-5.548502565122728214e-01,-5.729200000368994683e-01,4.476978621033922412e-01,-1.507551186173201052e-01,6.195345094652421336e-01,3.115126303918754336e-01,4.247293699553458257e-01,8.253006527114552515e-01,4.893766811613872725e-02,6.187638153982909506e-01,6.842332278298436377e-01,2.181211745926282253e-01,6.643552634237772647e-01,-3.240333163715032883e-01,7.360697508723276217e-01,-9.509393404350208190e-02,1.343692900083800934e+00,-2.393888577340826940e-01,-3.147439248251965860e-01,6.500028366314725137e-01,-2.245364466666159853e+00,2.955813754892004375e-01,-7.238918748717479423e-02,3.345174464640048861e-01,-4.683547296994920450e-01,-9.203124673631774000e-02,6.209760314666361580e-01,4.154537821535748687e-01,2.091669796000568404e-01,-1.601221971826532683e-02,-2.312795864552408542e-01,-7.022766725354349093e-01,2.887001308117263521e-01,-4.180255394818186976e-01,-1.128525281436280503e+00,9.016099076921149091e-01,6.203129156824327417e-02,5.329124084620370239e-01,4.105759098018443853e-01,-8.792211567320609711e-02,-6.076761028384038976e-01,4.997947404084905898e-01,-6.372140330430766664e-01,-5.329911517525531828e-01,-5.250697127943388942e-01,-2.418570053457231098e-02,1.654639554468984031e-01,-7.547697380521691327e-03,5.195731402522256737e-01,4.344366781140793776e-01,3.515637196260573138e-01,5.647789816679706920e-01,-6.266001786006795138e-01,1.235387997941968796e-01,-4.633192719570902729e-01,3.059608858846805668e-01,1.032836344016112434e-01,1.324018181557769513e-01,1.435600333315543986e-01,6.446188594977489417e-02,-9.501314908938025827e-02,7.305196694401919766e-01,-1.625506913237227957e+00,-3.798080457954529088e-01,-7.279936312155969036e-01,-3.161177235766862020e-02,-1.335299420557713723e-01,4.989421788817100661e-02,-5.511507213520205894e-01,3.594329581622773273e-01
