9.143194688966761463e-01,-6.337591568967746447e-01,8.470210789374836846e-01,4.569092069089212838e-01,-2.723790031251258417e-02,-8.566204410761460997e-01,-1.500603137803249998e-01,5.643696407595776288e-01,2.453985634854002063e-01,5.798393542990706306e-01,8.184027211933972978e-01,2.078374995270284575e-01,7.516793313156623357e-01,1.890510206081031097e-01,8.844236204240434052e-02,1.652046387570248742e-01,6.269927066455752707e-01,1.571809247385570485e-01,-5.038965081770743759e-02,-7.119439771329459932e-01,-6.266711549651082791e-03,-4.528291398907806076e-01,3.479316804593428625e-01,6.906720045824572551e-01,8.773088005075625473e-01,6.440544337391750362e-01,-1.517047101295639910e-01,-8.873607120547168936e-01,8.753973792095383066e-01,-9.308561976326198417e-01,-6.289158406301630366e-01,-8.498368579216996066e-01,6.010615496788334067e-01,-6.143269844772700772e-01,6.667864560378576888e-01,2.196847633298911195e-01,-3.491283332060726163e-01,9.778647996878776505e-01,-8.072501553039919120e-01,-1.368672608212750941e-01,5.246451646423614390e-01,2.262770287240964129e-01,-7.358254768076195884e-02,-5.915215928166583925e-01,-4.553281291485924975e-01,-6.919152563532348088e-01,-9.597982229451375025e-01,6.239496794301847560e-01,-1.595420243124798521e-01,9.734244475166413668e-01,-4.686358197904589296e-01,1.990096395919841721e-01,-6.694358053249406526e-02,7.016674058670116509e-02,1.649680730636203796e-01,-4.461594045294337008e-01,-6.136498075309538835e-01,-9.293599572033705014e-01,7.399220876155535032e-02,-9.736224817622719796e-02,9.306369318460783191e-01,4.872274239940064255e-01,1.645136542476917929e-01,-6.117058873117493106e-02,5.089509077857784503e-01,-9.957660423033896091e-01,2.355677140497657585e-01,-1.466800707426118011e-01,2.688834122405279747e-01,8.042796656179301840e-02,7.943446594533848382e-01,4.509243045020444041e-01,8.339148371672800986e-01,6.024375511547357398e-01,-1.170209474187025034e-01,-8.592809916185081276e-01,2.460333725166317376e-01,-7.261124371413641039e-03,-4.198648467785564553e-01,3.179964991481902814e-01,-7.671574595942828312e-01,-4.503630538691996699e-02,-8.004004312502549512e-01,-2.502325805732135144e-01,-1.420935332521006400e-01,3.411978838999796260e-01,-3.109425042394360350e-01,5.114316530169266128e-01,8.483649978784136847e-01,7.713132015963833910e-01,-4.155187062255940589e-01,5.579902781706466142e-01,3.623013319969461965e-01,3.855559532196222716e-01,-1.995349636264510396e-01,-7.668739687808674432e-01,-1.321770086032338920e-01,1.099953227417123786e-01,-9.533712820207186356e-01,-8.214362245569570842e-01,-6.565812932887756803e-01,-3.928732928920490863e-01,2.771349968228915550e-01,8.359117417234324110e-02,5.378968653385153287e-01,-5.982098713954325797e-01,-7.186380628738553433e-01,4.759356846635282717e-02,-9.722436936249109207e-01,2.294261692079860582e-01,-7.220674416398676909e-01,-8.360450455790311430e-01,-3.562005195980371131e-01,9.029923343702569438e-01,8.450461430511950478e-02,-3.137919435343450303e-01,1.200773727537324531e-01,4.113564488404905517e-01,3.043459802449632878e-01,7.167486784691848856e-01,4.357293569490957030e-01,6.932085066194831890e-01,2.549611410779824561e-01,3.239971958248879513e-01,-2.313618943823774199e-01,-6.134609388606527824e-01,2.520526790295200548e-01,7.854831935457898817e-01,-2.635521783219376690e-01,1.780541961281285612e-01,-5.576979316276359233e-01,7.368098646890824943e-01,7.830004053175690926e-01,3.899946565941400656e-01,9.197145545598316430e-01,-4.339323556719160702e-01,3.262052995237440522e-01,8.261418312550074250e-02,2.919745724671181097e-01,7.954333490931887463e-01,-5.057242632557190642e-01,-5.890289769949882404e-01,8.230009968374244478e-01,-1.561358957569167760e-01,-3.027440704071850119e-02,9.565584513490529850e-02,-4.315584707580438217e-01,7.537996625172962428e-01,-4.820984283937509995e-01,9.725177391279937744e-01,-8.204814140095315622e-01,-5.747405729389648554e-01,4.300016045418215138e-01,-8.775743226623090587e-01,6.741731525972483041e-01,-5.155634608975344646e-01,6.375854310047971429e-01,7.884796390992582227e-02,-8.527904792670829570e-01,9.606978589341474972e-01,1.964470967383100675e-01,6.943159289372223819e-01,4.620276294441177378e-01,-1.662730814876076380e-01,6.711190965760281957e-01,9.686023292929324402e-01,9.707628216075776528e-01,5.404699880271311985e-01,-9.553051531595896373e-02,-8.309728301069859713e-01,-3.836781294366435890e-01,2.555584411782946819e-01,-8.132858827819310354e-01,-3.234285659789787881e-01,-7.531655828197932889e-01,4.956468023393807432e-01,7.421866538142631864e-01,-6.447988582334610030e-02,-2.569905030921900146e-01,-4.895469055936461089e-01,-9.760626660862331549e-01,4.297041268157215099e-01,-1.995912594613798163e-01,2.196277673979102063e-01,8.598333302494250152e-02,8.997539473027629797e-02,1.605226166196743465e-01,5.742840212189175286e-01,7.725118457133470784e-01,5.338602937043722685e-01,6.027019957334166511e-01,-9.591785365762367510e-01,-4.241760640631686563e-01,-2.462150171244395780e-01,9.061814269934390098e-02,9.808068152381897997e-01,7.333066962786182197e-01,-2.903382931961170921e-01,9.395110720420801753e-01,-5.866012035653868084e-01,-4.927145444428921994e-01,-4.421292330756170230e-01,-8.888990316983972351e-01,-7.922775028926440366e-02,-3.806576078424087073e-01,-8.560035161142979243e-01,-5.153000334631184787e-01,3.073545321455842250e-01,-2.202934093793084136e-01,6.233801867642555505e-01,8.705617851134150875e-01,6.909411370306438593e-01,6.554838800486477712e-01,-2.972615269797451720e-01,-7.637159841854276321e-01,5.699471378438566438e-01,6.450297163968711223e-01,8.408592539777441921e-01,7.976705345675453307e-01,-9.968689848044754998e-01,8.852819852903833775e-01,3.043865995976908212e-01,3.638858444415067339e-01,-1.242931103349989019e-01,-2.696301085107592477e-01,-7.658293171694212365e-02,-6.891457254259043541e-01,-5.232883870227590384e-01,-9.162048670691087526e-01,-2.246783202429616377e-01,-3.478647801006786167e-01,7.769420199334969857e-01,-8.604055490108496462e-01,2.229898990396594893e-01,-6.989414361127509467e-01,9.551465709105256829e-01,3.897084721345614455e-01,4.976673118715068678e-01,-5.656094648347246515e-04,-6.707505849004706810e-01,-5.438135883256293157e-01,6.150032603661813591e-01,6.353409068145682292e-01,7.553002671213214780e-01,7.169192712715136695e-01,-5.741706990820589773e-01,1.794671970269670902e-01,-7.808936488308418911e-01,-3.090156907609395778e-02,-4.037873961300887937e-01,8.103229521400627799e-01,-4.557669545555724788e-01,9.004500095271475990e-01,5.720438417421352256e-02,-9.794706430989302826e-01,-8.042796234170881409e-01,5.196620393550509531e-01,4.951241676701007011e-02,3.970042139180451346e-01,-3.680023878457430730e-02,5.725850041376986388e-01,2.013227484084676444e-01,-2.681709363076735242e-01,-8.719604883446293586e-01,1.280337327547844406e-01,-5.344852644663938834e-01,3.535726536239734794e-03,5.078652677957434802e-01,9.942721474669423687e-01,-5.622579585706163341e-01,-8.354970716987287771e-01,5.940292062765361036e-01,-6.446897259835394633e-01,-3.084094699327564748e-01,8.011418580074646245e-01,3.814791374225179332e-01,1.915004539167591835e-01,-8.731935732132701800e-01,2.382939457797175753e-01,-8.337912301094524414e-01,-3.244911011156002556e-01,-7.529438108090378279e-01,-9.866550876127040681e-02,-3.511894573608978498e-01,-6.556343015526490126e-01,6.721361546692466993e-01,-2.282408624807666098e-01,3.486035296087892643e-01,-1.919524396852149428e-01,8.706314894784420444e-01,3.851180368591925474e-01,3.547235356867204925e-01,-9.391269191286596429e-01,8.729484188159123415e-01,-2.473562366735683749e-01,-4.400852245411316366e-01,3.925739331838939417e-01,3.790639765438765241e-01,-7.605716371588705504e-01,3.785742353674179661e-01,6.725697762020000914e-01,7.739850254261350371e-02,5.841352961493521123e-01,-4.284010271014386251e-01,-1.546308444977194940e-01,-7.815923635699303929e-02,6.901582981071368028e-01,3.179352864460477379e-02,9.209531411814604329e-01,9.988555646800330035e-01,-7.886658039511434959e-01,-8.117110661893457424e-01,-7.694972937377156930e-01,1.815381832948254892e-01,9.196177025666408822e-01,-9.424622796298930405e-01,3.182137786064869189e-01,-6.303880066205361787e-01,-2.115362564362708309e-01,7.522137189118036638e-01,-8.308331973387911296e-01,6.948609553067732758e-01,-7.545475277801547698e-01,-6.943722404965438910e-01,-3.352120728832850838e-01,5.043974540363594938e-01,-1.228046498952500704e-01,-3.274453209785249119e-01,6.130892114744119353e-02,1.765084723232256125e-01,1.297831406420181695e-02,-3.701384519578871379e-01,4.490517399645428398e-01,-4.807118360931977308e-01,2.220721561313348524e-01,2.637811556802560076e-01,-6.388262353201606958e-01,1.107795350041815841e-01,-5.015206091546170475e-02,6.924102604694869489e-01,-4.304984350097529333e-01,9.141700596654734889e-01,8.744254821331066685e-01,-5.999444274170286917e-01,-3.251326771431553575e-01,3.657212426048011000e-01,-9.339341499216076148e-01,2.723365239802636451e-01,-7.017113841665584273e-01,-4.538754730897334722e-01,5.049998142458981265e-01,9.234404283570888383e-01,1.452689435551956232e-01,6.255028658788449603e-01,-3.907289575080063471e-01,2.676796106656383900e-01,-6.965876474452920020e-01,-5.045667099944143308e-01,-9.302089417738000909e-01,4.382955993362728786e-01,-7.681738768586987565e-01,-5.949307461769107741e-01,-2.519835739472933156e-01,-7.813471259180376771e-01,-6.712125574591255583e-01,-6.939594764621174194e-01,3.146759375089377975e-02,-2.364662373883680557e-01,-4.092092602112072375e-01,-2.608018687104439182e-01,3.019894041720401212e-01,-6.514633215724199289e-01,-9.827059382254743625e-01,9.342380933130592924e-01,-3.218819551982540217e-01,-3.769972567525449181e-01,2.526073608351821487e-01,-8.230218405056953790e-01,-5.536697221521017509e-01,-5.294065620965106023e-01,5.942830744464410175e-01,-7.694291113638955792e-01,2.217001445499744428e-01,3.399543817206318597e-01,-3.661203563247810155e-01,-7.002916394073400996e-02,2.989026096194557502e-01,4.660275092015039866e-01,-3.147259377518659140e-01,6.549064124582021362e-01,-2.735334048271530483e-01,-2.649822368196122491e-01,8.358048041702702546e-01,4.729466345821842221e-01,3.664906308125347456e-01,-8.940193019189680568e-01,6.166470596245660074e-01,3.585819772144291373e-01,-6.111288281753713969e-01,8.806006886243281651e-01,-2.159483639974736080e-01,9.231169684201789849e-02,-8.973611568172473740e-01,3.602738368073900022e-01,7.340594571800665991e-01,-1.864556810307586576e-01,-1.969361830255716983e-01,-6.613912526837903982e-01,-4.110186084329985889e-01,-3.641449834530987584e-01,2.420339605381747194e-01,-1.371681329635066893e-01,8.543853598073664068e-01,9.920236556300433550e-01,-8.222503122838461520e-01,-8.310308750227474173e-01,-5.628685943639694100e-01,2.530142916731686897e-01,4.852111631234424238e-01,8.821585978656317772e-01,-8.744623983431373260e-01,-7.260955349689582894e-01,-9.803929682555986291e-01,-2.981383895231300429e-01,-3.208246572434088617e-01,-8.230371748915928931e-01,-7.817078741013023802e-01,7.183040063612297077e-01,3.691382559382230810e-02,-6.518092356877086546e-01,2.248719111318205899e-01,9.286595339764441848e-01,4.985357589837886017e-01,5.937373534705379929e-02,6.206137571616446857e-01,7.507894026076097904e-02,-9.334113532647889677e-01,9.269182282281221985e-01,-6.475527882739334773e-01,-9.546713066308444295e-01,5.632612401903116517e-01,-4.049390906238744536e-01,2.270464765421365827e-01,-5.088499090944563763e-01,2.045444323451685031e-01,-8.733766970742795621e-02,9.316966218036220049e-01,-8.200310941542500176e-01,-9.489080939651131086e-01,-8.487243702486904628e-02,2.681743472024866182e-01,-5.820364621264164651e-01,-8.933429128335167446e-01,4.633913299080055781e-01,-8.241026133575285462e-01,1.965723843568146501e-01,2.575519408824594736e-02,-3.455395654128731175e-01,-6.312966606797384417e-01,1.929511317859522457e-01,4.910565505351040527e-01,-5.959089524300482249e-02,-3.178629845061598513e-01,-7.630549758123829074e-01,-5.526971392486340617e-01,2.917168205798756908e-01,6.663901360760285386e-02,-1.057590283209881160e-01,8.621423707793213209e-01,4.086077607769403874e-01,-5.966438507698161864e-01,9.356084843038359189e-01,-8.611854256064285229e-01,-8.090183810610107606e-02,9.085249170116177497e-01,1.539972396482337524e-01,-3.749697105593302049e-01,7.767268579727045763e-01,4.576089048961327066e-01,-5.532025322254424671e-01,6.812138802708832541e-01,-8.056585876388563383e-01,-7.985520553552870604e-01,-2.463601675756456333e-01,3.088476996029279054e-01,4.477414560175728697e-01,-4.828994690987845062e-01,8.102537269453033986e-01,2.006750408876517289e-01,9.265329696340418586e-02,-1.368460105471195065e-01,3.657921047326936348e-01,-3.154489438688866110e-01,5.910213354907792871e-01,-4.594205235530461617e-02,-2.040287513224164628e-01,-6.301352737372272195e-01,-5.800436490660693112e-01,5.447749393592637990e-01,1.684815070992002617e-01,-9.185394352362138415e-01,3.667291050509410288e-01,-5.276526973002103604e-01,-2.589285166723023779e-01,7.585097638489440852e-01,-8.795067280692355771e-01,-1.768052632682114989e-01,6.832979710628109826e-01,-6.650914302519030930e-01,3.824141367739103577e-03,-5.173646229492921966e-01
-2.543901636387012610e-01,5.002063058034933452e-01,-2.437322869013944793e-01,4.273475937982286199e-01,9.483905694129193265e-01,4.524314265102782895e-01,-5.263574255048738409e-02,8.951611188951784370e-02,-2.386136944273122007e-01,-9.673594679614927472e-01,7.490914994794928283e-01,-7.318074818188302633e-01,3.387087499167752425e-01,-7.752840935067396577e-01,-5.801797705032764041e-01,-2.190707078826774346e-01,-6.777938892983274011e-01,-7.482682833082170415e-01,-6.081975064517035623e-01,-8.539064064295301959e-01,-8.923437376848752933e-03,-9.434515616337555421e-01,2.738200306114191851e-01,-9.318166637563926047e-01,7.812593268924195034e-01,-7.818695482512106887e-01,-9.069329736235665074e-01,-3.884336358100967668e-01,2.551669593033581429e-01,2.377686600308552903e-02,5.467037584516255544e-01,8.138617223203050699e-01,3.312226361370975147e-01,-7.076160361251182529e-01,2.596146847755044229e-01,-6.390946708062772430e-02,4.443458371626455850e-01,-5.315141228200250811e-01,6.855135152059799175e-02,1.069172186088762910e-01,1.097482541412547336e-01,6.311659849976677394e-01,6.132585583345243618e-01,9.226757322738967648e-01,2.964045538617259279e-01,2.570042168585602860e-01,-4.807729980039198714e-01,-1.224679312984644081e-01,4.029595196727845385e-01,-2.666316050001480975e-01,9.308104457046277869e-01,-3.024254974840788757e-01,-5.257630895376809166e-01,7.453644099632852349e-01,-3.904181917851781147e-01,2.551751613924081452e-01,-8.838117891432339945e-01,9.190022254103983324e-01,-2.068792449791285459e-01,-5.610289554065319706e-01,-3.073860049433079222e-01,-9.225911167295472448e-02,-1.928056916949311417e-01,-7.011855983170486306e-01,-7.398443095978953776e-01,6.755725937345691268e-01,-8.363215383506935607e-01,-6.587297651575743096e-01,8.636691966749547866e-01,-8.255613430979885647e-01,5.226889650080083216e-01,4.048301909279416466e-01,-1.812212996901246820e-01,9.989096946746427452e-01,-3.366463717598515704e-01,-7.266068586638524396e-01,-6.400416682313782024e-01,-9.228271692412178817e-01,9.015685149602237214e-01,-6.306234418158341848e-01,-4.084777950885356557e-01,8.385962367563233599e-02,-7.195747187315512106e-01,9.491193153708916697e-01,-9.498138136119227415e-01,9.092539391269313098e-01,-3.659924586429587068e-01,-7.904140943675255215e-01,6.343944152647914558e-01,1.097910772213884084e-01,-2.343200779899314024e-01,7.665391944930796120e-01,-2.444995508967091058e-01,-2.327332509814560579e-01,-2.894568121004304495e-01,8.961273066629773520e-01,1.392654484060520392e-01,-5.224851628925594182e-01,-3.864607214015612358e-01,-1.982943043951242712e-01,4.703107207315360694e-01,5.803710405201860656e-01,-7.365977201626379145e-01,8.999755964993215729e-01,1.589984517236681383e-01,-1.072544980009977750e-01,6.238154920540310844e-01,-1.589833853948958153e-01,-6.219792873938171512e-02,6.674187707089734856e-01,8.738341359220054283e-01,-6.552201164712586623e-01,-5.033478190742503022e-01,7.885068448882803782e-01,-6.326561547580998868e-01,2.319645963914861719e-01,-9.694894833694387426e-01,-2.360188364568118202e-01,-5.481068062926092166e-01,2.745558072005382377e-01,-6.401069387657306597e-01,-7.534215374760655504e-01,9.788174404115017602e-01,7.768461401125661414e-01,4.898943623088619082e-01,-6.857582070811495401e-01,-2.940562627147912944e-01,5.718357209633996296e-01,-3.326702387465745314e-01,-8.561357301427328093e-01,-7.596209939318073756e-01,2.732280499006536911e-02,-6.074241828329409731e-01,4.576641626939655372e-01,3.704296774087344479e-01,-9.340112525232077134e-01,1.060751813784913677e-01,-1.673702986636587398e-01,5.493759450332742489e-01,1.505296184663838521e-01,-7.909845020420457340e-01,2.409653358287773273e-01,-3.615078521059535421e-01,-7.666697649099024625e-01,8.225550559997338862e-01,-9.378412693668414235e-01,-8.479291601335462447e-01,3.081128547700731080e-01,3.670382915143043934e-01,3.019376025546683384e-01,1.670905091814053334e-01,-7.899027151818400760e-01,7.524487359790210661e-02,4.648466844212204019e-01,-3.016722631496663865e-01,2.655713210164106219e-01,4.472215513444629531e-01,6.710362577639662485e-01,4.262775171886391823e-02,-8.403495448449913585e-01,-4.676601063958385485e-01,-6.524480906213044051e-02,4.575694891052967672e-01,-2.989433528908443383e-01,-2.220236320290216656e-02,-7.734947204195592452e-01,2.817965177229034279e-01,-7.768757732352779000e-01,-7.500432628993586315e-01,-8.886722011732902660e-01,-3.260294637702449982e-01,-6.034368899840245604e-01,5.076376696647044717e-01,6.862263514307235246e-01,-6.894336125711686414e-01,-6.284600242092229783e-01,-6.420155654897038433e-01,-3.540253494590878680e-01,-1.887956712574053175e-01,-7.773227301737540840e-01,5.586050884042343956e-01,6.105772126863255878e-01,8.939410994606237226e-01,-1.357584477339340012e-01,-1.864297645818928650e-01,-2.075195533655238289e-01,2.528949406567402858e-01,-4.338081562663491653e-01,6.980387588954746203e-01,-3.192647678888153179e-02,8.907586545723279459e-01,-3.248653036019982787e-01,-7.319781114138421696e-01,6.423437420235121875e-01,-5.148986484191420132e-01,-4.918436980792512681e-01,-9.576935544244121745e-01,2.572035715273507384e-01,9.766144844403373826e-01,9.050153748559315314e-01,-9.120184214043993709e-01,7.843323512281503707e-01,1.937615696254664788e-01,2.130112762695178796e-01,1.858044502787579155e-01,-5.328011187047030361e-01,7.354252934413442189e-01,8.642249353871493678e-02,1.640898314725333929e-01,4.178263821498365282e-01,-7.598295733623754433e-01,-2.037680856362867055e-01,-6.739216781660598357e-03,-5.264786942597429187e-01,-9.528871004432395431e-01,-6.679589925996199939e-01,-5.249153665517503065e-01,6.650252504728048075e-01,9.492837322490773611e-01,1.010803081113425400e-01,-4.640708568163237069e-01,-3.004544289531572709e-01,6.372836330028026630e-01,4.380875278477813772e-02,-6.662123387762873827e-01,-3.640631483119161627e-01,7.328266729511381805e-02,-4.527075011939065141e-01,-1.505184178588336863e-02,3.740692879256178327e-01,8.010837557581141910e-01,3.461749773881315773e-01,-5.739840669786625549e-01,4.426765364707077044e-01,3.921723065676592235e-01,2.352115369295004477e-01,-1.569292417154080077e-01,6.340730768613642709e-01,1.015222262789562402e-01,-1.233701217947527906e-01,6.143585649976137653e-01,-7.781061532355645349e-01,6.527244076542831897e-01,-8.792719344886230637e-01,-7.066862456756615174e-01,-2.296904823245889959e-01,7.465945037341989998e-01,-8.376960046514475566e-01,8.709826561738973627e-01,-7.970830392148413601e-01,7.505617795770285205e-01,-6.382009978614449075e-01,-5.868808538933977248e-01,-5.668595154102392536e-02,3.966701146593257787e-01,-3.805278635696229816e-01,-4.736517415878175319e-01,-2.373247956789601432e-01,8.065960284876233510e-01,3.761961253954973494e-01,-3.355086636005744083e-01,-5.325534633635385928e-01,2.103312174416407665e-01,-4.804260690739864392e-01,5.182974210334415632e-01,-5.345486140405490000e-02,-3.586306384103624678e-01,7.793351629292991634e-01,-6.498777625505288702e-01,2.145098217081744529e-01,7.995607914583542364e-01,-7.909149164206831506e-02,-9.976658903380950516e-01,1.705772162663429792e-01,-8.828353347448560928e-01,-4.702273744631245700e-01,-6.313209181849134266e-01,8.331975329556326471e-02,7.302097525732201833e-01,3.433606669484507989e-01,-7.629939939889098799e-01,1.736182963292676462e-01,-1.292152120168338636e-01,-4.021736300890191296e-01,1.440133423445777716e-01,7.718156031315315246e-01,-5.336918826541160454e-01,-7.378038663399014152e-02,7.005211203476604531e-01,8.550012512320998015e-01,8.684388969667823366e-01,1.880104094139386783e-01,1.645600415535946881e-01,-5.433063401528095415e-01,2.118511920436381424e-01,-2.392962001311821907e-01,3.962600852580410726e-01,-3.008905035084838975e-01,2.197162384367935470e-02,3.529026881396625237e-01,-5.657520185093362075e-01,-3.051716503149392579e-01,5.628765923385667946e-01,7.251484095666408392e-01,-6.754629902924529361e-01,-8.136337913578474135e-01,-6.804339899753774068e-01,3.992107181147280803e-01,4.911765835054952151e-02,-7.648702968978966510e-01,-5.360218693613906238e-01,6.994774854278890119e-01,-5.452856560044131440e-01,-7.510622188595308391e-01,7.373593549483536957e-02,2.688397067631501658e-01,4.216665499775674730e-01,-2.706170239076292061e-01,9.576999117060288613e-01,-3.454803957988932250e-01,-9.442407274439037490e-01,-5.588746804140282132e-01,6.623903987946599958e-01,-6.905789522525523916e-01,-4.510694461081686257e-01,4.649814311312648885e-01,-3.253051768275095901e-01,-3.558722062144301784e-02,-9.206905417959001525e-01,-1.271522270053613290e-01,4.537511690314445234e-01,7.827320784479222526e-01,-8.548505985432857113e-01,2.296630908310410418e-02,-7.667356939930131121e-01,-7.572429664993087783e-01,-7.853692410337681507e-01,-5.348013408439713512e-01,8.482077305646233967e-01,-5.572966617982969550e-01,-3.449603981800156843e-02,6.292280223489105095e-01,9.743213002404098599e-01,-8.188328525737500474e-01,1.398786006605379495e-01,-7.695463610306457758e-01,6.242993056953941716e-02,3.412465194599555440e-01,-1.959094118579851052e-01,-3.781429141403057081e-01,-1.539875540480926397e-01,1.723932034266133506e-01,3.722907766134656571e-01,-6.486891465022702752e-01,-5.089320889328416975e-01,1.694818034180814725e-01,8.049495024351673855e-01,2.134263061445431930e-01,9.042009759608484742e-01,-2.076654528443218906e-01,9.769748408478015067e-01,1.403616840446297864e-01,-8.913005180627480151e-01,-7.826509334499852644e-01,9.386677118422662724e-01,-7.515207009971665020e-01,4.252108158781806591e-01,-7.094091343950037487e-01,9.794489884344553809e-01,-9.805175908032851551e-01,-8.423050930189475427e-02,-7.764257304089126066e-01,8.535563915956045911e-01,-2.043518971075456436e-01,8.827688463519881568e-01,9.384326890348720918e-01,5.274738929631642842e-02,9.834211400370944656e-01,2.791406058919946309e-01,7.584031036355568522e-01,7.817854411177591611e-01,7.802929729893849364e-01,2.739795060365304291e-01,-5.341945302526993622e-01,3.112432575803999457e-01,9.571270649304967071e-01,4.699678058274412984e-01,-2.905639689343959553e-01,2.489709011464082133e-01,-5.975534288590317322e-01,-7.050474589455645036e-03,-2.575371494972252262e-01,-3.799048168170151007e-01,-5.446684402757877574e-01,6.321909027550164373e-01,1.840021082980537459e-01,-1.561561272684582925e-02,9.381796667243142984e-01,3.186068302528234364e-01,3.484275552538791398e-01,2.912223516632321818e-01,7.820425936009605117e-01,9.851414848318178485e-01,-5.648949904883941719e-02,9.791774874578208498e-01,2.196463235080649001e-01,-4.105459630194125964e-01,-6.901696020875418558e-01,5.898214782434576531e-01,-7.063492591166663503e-01,-7.755426854656545244e-01,5.964285238121785210e-02,-2.922911127164825595e-01,6.975825517968176070e-01,3.443252002476101387e-02,6.555993019312231773e-01,4.329664980387565310e-01,5.231815256018429450e-01,-2.549392402320740381e-01,-1.389915419155277887e-01,9.939823985736826462e-01,-9.670819158708011676e-01,5.470817800571907696e-01,-3.736105487903749744e-01,-4.086532500811703716e-01,5.360920176457921738e-01,-9.017145923477456471e-01,-5.723537145938947246e-01,3.391539275475242143e-01,7.993033328437035845e-01,-2.099082621328528520e-01,1.472956525947059225e-01,-7.692803128812911728e-01,-3.459002063544063255e-01,-2.588018856044774774e-01,9.522922107941960146e-01,-1.470930386629131781e-01,8.718881286268626019e-01,7.327791062373220088e-01,-8.187136402294047377e-01,-2.017343608882739836e-01,9.499695021041465459e-01,5.593467023257914228e-01,1.842783774025828769e-02,6.292574306768243808e-01,-7.266734534766331466e-01,-5.537328721770572448e-01,-6.013401934031556983e-01,9.339687717335102279e-01,-5.911942574856818844e-01,5.275457611047810191e-01,-7.274236331733764382e-01,-8.427653130545241789e-01,-1.179540000954003853e-01,6.626175493891041102e-01,-4.225266223372989294e-01,3.709925604278230260e-02,-2.198861044233592910e-01,4.466326648718974557e-01,-3.044056165866916852e-01,-3.937881600516665026e-01,6.976267787065261183e-01,4.546903537419151320e-01,-9.209783340334772861e-01,8.386027730076910380e-01,7.618309859753988889e-01,-7.841223427771529808e-01,-6.074062333437698635e-01,9.392848656442199795e-01,1.364847458400989810e-01,8.069261454843557058e-01,6.304340985732284075e-01,-5.097183506771502115e-01,-9.128459467989592513e-01,8.205165854070106679e-03,-7.599115712775297293e-01,-5.338717237672524485e-01,1.830979622702544052e-01,6.135748678344552509e-01,-6.705889955859528628e-01,1.752072135612445514e-01,-5.053768573480887927e-01,-1.469270238351988722e-01,7.274291211681425118e-01,9.109216776173724162e-01,-4.999350447768889927e-01,6.670334828947940276e-01,9.920199143035181022e-01,8.032659827409405207e-01,1.471255379396368412e-01,1.274518576888554189e-01,1.958403088340692211e-01,7.033047399298866242e-01,-2.218578810931067791e-01,1.565309778250198181e-01,-3.291352081674749908e-01,-6.883325997509782690e-01,-8.851803302354201985e-01,4.885484630775108195e-01,2.740741668475151771e-01,-5.124777753108390455e-01,1.446949494615856202e-01,-7.862936026574666171e-01,4.216795186248715327e-02,2.543463387790350638e-01,7.443396182557329155e-01,-7.831927314362526760e-01,-9.453178029144324590e-01,2.492420364259272658e-01,5.898483203481125203e-01,-3.852080245477232934e-01
-9.068289841125060091e-01,1.747645096505616724e-01,-5.973255704575533009e-01,-8.358599355330768033e-01,-9.182547130224387733e-01,-3.750582461559350267e-01,5.905820256495776244e-01,-5.744955821647176331e-01,9.736561051540656986e-02,-5.806527784531730768e-02,8.501692484415488416e-01,-6.570662235922628547e-01,7.361576472516847547e-01,9.867519966050674052e-01,8.532162336607519437e-01,-6.875912680116939013e-01,-9.925878623029449344e-01,-8.016087330938101996e-01,-5.050030830819942640e-01,-3.197550221575531926e-01,-9.122848713716278368e-01,5.161974318795893302e-01,2.668701407493349609e-01,9.246105331220365597e-01,4.831885063851672490e-01,-6.475738343118537799e-01,9.535880447053202147e-01,6.433731633581795117e-01,-5.758439295748126741e-01,-4.082004643820849044e-01,9.411585455190227267e-02,-2.748114569775220728e-01,-1.899592984704474297e-01,-9.867622404113547407e-01,-8.456008421856565649e-01,-1.149876128959004401e-01,-5.874537441593704612e-01,-7.459523286626310590e-01,-6.208759574317079810e-02,-5.431860344080436942e-01,-9.761065947117882891e-01,-4.511832373689104170e-01,-6.570129414268421897e-02,-4.616195368058859660e-01,-7.814469922400864021e-01,-3.646240661168960451e-02,2.435328460188421473e-01,-7.108433333169458246e-01,-9.778198222911401727e-01,8.944524764879827616e-01,2.577660406613445088e-01,8.352222590301879857e-01,-4.425180678760635700e-01,3.246407653212914357e-01,-7.082106658273574773e-01,7.441987864048861256e-01,-3.850112236489938722e-01,2.075956548393915191e-01,-2.270855337448676181e-01,6.712493535345056550e-01,-7.070216645134561606e-01,4.049566397479065216e-01,3.008344825809512457e-01,-5.638001628728527281e-01,-7.187265974448967532e-01,-6.470063662134060145e-01,3.364329829601078181e-01,9.387730322866572052e-01,-2.221731957847044026e-01,1.626641552831687709e-01,-4.187087914627498630e-01,3.503792823271032475e-01,-5.939618536060551346e-01,7.194760577625880504e-01,-4.082723507169701005e-01,4.393702668504537862e-02,2.491431165204724060e-02,-8.894984582850188337e-01,6.188832020737257134e-01,-3.103022371255169110e-01,-5.640846249515254485e-01,-3.701225213262106517e-01,8.602255576156515593e-01,4.436878813796953924e-01,9.651632140513949354e-01,-1.696521759736629997e-02,5.345234183087647084e-01,-7.601052090327815591e-01,-5.641451643128034821e-01,-2.498144330293786131e-02,-7.148458643019591774e-01,-9.551036488432705918e-01,5.576159872661782257e-01,2.799612995919791292e-01,4.467207003448981917e-01,2.449138201697018957e-01,-5.539455296196122980e-01,-8.889331552615553633e-02,6.090101676768538974e-01,2.234385418356304442e-01,3.577913040394328087e-02,-1.382700700296313201e-01,9.946937707871958412e-02,2.513044993731636811e-01,-8.868727856595280956e-01,-8.253588685350573551e-01,-2.039119477587849616e-01,-1.032218253419584786e-01,-4.423552796082259875e-02,-4.092469380010472779e-01,6.338942276252973462e-01,8.442104523086765289e-01,4.360451325834320824e-01,-1.566988458286171504e-01,-9.792090275746608841e-01,5.016148610629875826e-01,9.071179569490166461e-01,-6.235853380046425531e-01,-2.894846620021137781e-02,9.845790389163019407e-01,2.032327877310184383e-01,-5.897597875283786539e-01,-6.622758683509255562e-01,1.375621696841824448e-01,-5.134230538470565541e-01,2.983521673326234858e-01,-6.434350991031708711e-01,-7.861261006371779159e-01,-2.044077095903442665e-01,-1.631996778975515205e-01,-9.897280168116765475e-01,5.788357836183855021e-01,6.744131787101261821e-01,-2.084681101210609511e-01,1.735694874133421606e-01,-8.328520504709729932e-01,3.217332600866426029e-01,1.392994909805702897e-01,-9.753541967734915552e-01,3.802193272949976333e-01,-6.124357409874684466e-01,7.896173830818918882e-01,3.376375083687431777e-01,-1.399753145094522755e-01,7.204346859928862923e-01,5.591159380590597916e-01,-4.315571291326184000e-01,8.782658688077891185e-01,-6.800167878887001249e-01,8.877655815955568519e-01,-9.996860664304009214e-01,-3.176531513579690658e-01,4.795318187103472241e-01,-2.680781625644715338e-02,9.884082005149735783e-01,9.126889682868936319e-05,4.041255495048912127e-01,-7.527265718696251051e-01,-4.001056265839456616e-01,-1.673981878521908218e-01,-6.472002970414658662e-02,-2.305639292376742699e-01,3.742613466139659839e-01,-7.660902177383656086e-01,4.266614584918947406e-01,-7.110716966625296731e-01,8.735705344515127813e-01,2.181135666837542841e-01,7.114999192642365022e-01,7.573550660583386884e-01,1.042002995785240582e-01,7.397716393946400792e-01,1.995997978311023768e-01,-6.901736286378099550e-01,2.871915106833428100e-01,9.319850587578165646e-01,4.731138411921201326e-01,-6.236577908474068288e-02,3.793084073360304398e-01,-1.499523130816930450e-01,8.934862604938866859e-01,8.387245531906424301e-01,-6.971044893422870259e-02,-1.257275695355158096e-01,-1.562346030812267750e-01,-1.188162892890856637e-01,6.323407717733815769e-02,-2.774344681047802297e-01,-5.412013227229768297e-01,6.550047259472845385e-01,-5.446031923719253376e-01,-9.893404167034874908e-01,-4.147553204366380974e-01,5.332844358504046367e-01,4.122927236484441038e-01,8.238488676528921140e-01,5.219144730770913787e-01,8.235596334464282409e-01,3.052925911395343046e-03,8.080403310127304284e-01,-8.588188993874816823e-01,2.478395910663271362e-01,-5.590943993156246572e-01,-1.666371566412682415e-01,-6.928527271498733375e-01,8.250854220745132972e-01,-6.384114595605867581e-01,-8.574712153582626506e-01,1.364991470578573729e-01,-6.637001822209896706e-02,-4.753750987844127529e-01,8.638695964080750356e-01,-5.067483224600447533e-01,-9.431430353529836053e-01,7.510031148467206652e-01,-4.101984452646476598e-01,-5.174828391939783057e-01,8.646726675866059919e-01,-6.860312376645610888e-01,-9.553491806264168273e-01,-9.808789481385365994e-01,-4.325503959729858350e-01,8.433083958272320491e-01,7.800082380118380510e-01,-4.958646882235886455e-01,-2.775590998651770724e-01,9.541641163663220349e-01,9.924541639370927371e-01,2.131360901179926159e-01,1.257969098853110868e-01,-3.983710320018334361e-01,-7.483889906173161188e-01,-9.351624934110341902e-01,-3.397102995272067716e-01,1.968460838848268557e-01,-3.074230781586965722e-01,-1.708477547059015500e-01,-1.337664219192586657e-01,-8.806435429443245644e-01,2.768007557497578763e-01,9.137595455488638496e-01,7.559526126266437052e-01,-2.100390229276025145e-01,-2.188933955925467245e-01,-7.786791717844778749e-01,5.911412538011896478e-01,-2.263317310094206392e-01,-2.569242523660277278e-01,-7.025030358488091320e-01,9.341225627333720194e-01,5.833648597105263178e-01,5.790570137400823381e-01,-8.678937999293424577e-01,-2.239946370003628451e-01,5.880125887954089636e-01,8.916718815746211835e-01,8.865547659212992260e-01,-8.734864440465857360e-02,8.192182510885508417e-01,7.586759128421191045e-01,-2.190201770050187458e-02,-2.749278343732744490e-01,-7.813022110688627730e-01,-5.355390158489523600e-01,-3.296267481581184877e-01,3.560452975708445211e-01,4.311197137381936328e-01,-6.727401128197083580e-01,-7.095673524633036022e-01,-5.112441168494735733e-01,1.027414778446645270e-02,8.251386688412508663e-01,2.803637335117845075e-01,7.252299081647402001e-01,-2.575576328582327990e-01,6.019440910175485326e-01,-1.416733623773863138e-01,-3.507940244916861738e-01,-3.444765436429014782e-01,-1.934422970459636626e-01,9.354390497382077951e-01,2.694600770379714794e-01,4.731661110559813865e-01,-9.514824758258373372e-01,4.921599522553122275e-01,-1.722846888154897504e-01,-3.349230512149352079e-01,9.474068692486298238e-01,3.222725008867157181e-01,-6.603807294381631721e-01,-9.007907104236332341e-01,-7.389910776541075421e-02,4.431495869985562462e-03,-9.250341857179825711e-01,-8.107879214915679755e-01,4.199254690557232550e-01,-4.839379688487477904e-01,-7.310858597954019711e-01,1.444482599342268025e-01,-8.362547388523584591e-01,-7.027574994539462772e-01,5.388224895689140981e-01,2.881537131446929023e-01,9.295315588591436251e-01,3.171160255041712006e-02,4.249971719178532448e-01,3.241615504781653612e-01,7.825238888895867939e-01,-8.585341668216387445e-01,5.241553856327664240e-01,5.157881409807454354e-01,-1.643871261710572740e-01,8.039716400196426083e-01,-4.305318037116790952e-01,9.812439493292300918e-01,-5.800311825038729774e-01,-7.080724368395078239e-01,2.873830493496136729e-01,5.468072513506372356e-01,-1.195969814054183705e-01,9.689731759213525697e-01,-9.814022503767725336e-01,3.854593800236947448e-02,9.924523853791871186e-01,6.092460532124819306e-01,8.138755266109860553e-01,9.240450575003340550e-01,-6.593870166725436244e-01,-2.959601544239354731e-01,-1.216198700759728163e-01,-2.470402473684628342e-01,-5.963392588039583275e-01,-8.510759244163250414e-02,-3.773471484581523705e-01,-1.487917162841251306e-01,6.555356220678292267e-01,-8.981943888065841985e-01,5.419255982845219005e-02,-1.276589134345519627e-01,1.287269874767273392e-01,9.711906722527903213e-01,4.215283983569783066e-01,-4.421285409202644345e-01,-6.999224983400998967e-01,-8.244539616272473781e-01,5.829938974916346606e-01,-3.698732625723402667e-01,-7.673322786657117422e-01,-6.567647481265275200e-01,-4.606197096238881517e-01,1.027689736844760865e-01,8.863629961175194250e-02,-1.460009825258466731e-01,-5.348348413547305835e-01,6.907433103350738568e-01,7.604457513722725492e-01,-6.221461813702875571e-02,-8.435279527498208418e-01,9.870070838951876535e-01,-6.548581127261092760e-01,8.977038710325524473e-01,-9.503836088704072926e-01,-6.877630154320879541e-01,-6.719069278589668848e-01,9.410461557054586867e-01,-7.307056512569594098e-01,8.274536000863715879e-01,-9.079073599243129289e-01,-5.775983232569557035e-01,2.523139485539986886e-03,4.883002244512288925e-01,-8.232471951617422734e-01,8.460947911527353371e-01,6.788732441727405309e-01,2.775330258132776562e-01,3.268461331817337223e-01,3.433957733046065774e-01,1.678753704112683209e-01,-2.978352801412575274e-02,6.220189216188713732e-03,5.571736914433880195e-01,-4.227298049394388468e-01,1.802301504296558721e-01,-5.984518778284205753e-01,-4.661667919536980481e-02,-2.693163373109500047e-01,2.436646589815615049e-01,9.207914492358899583e-01,2.708425809352361102e-01,5.861125026280943062e-02,5.839035591763386268e-01,8.770220993324634451e-01,-6.156289583550335065e-01,7.775454560381793445e-02,1.793049293397951799e-02,-3.984819001990473342e-01,1.285477957514750136e-01,1.523537421851640060e-02,1.737984631872734331e-01,6.749312943914274054e-01,-2.145963033566402889e-01,-6.193291051815189574e-01,-7.163928317471975060e-02,-4.875813650368118202e-01,8.916155568064398906e-01,-7.683738899418379731e-01,-3.941105067677304064e-01,5.661119884522530787e-01,-8.575422971606688760e-01,1.668156483887069108e-01,-3.458933938898072769e-01,-6.859480075107673436e-01,9.668827591312221248e-01,-7.806206598864386115e-02,6.821028563520531440e-01,2.040953963586183695e-01,-2.450041094352764792e-01,3.732863062542787214e-01,5.365269318364188633e-01,-8.573769713607651832e-01,-5.685646001620723450e-02,6.102612365466287825e-01,-2.847527948885346660e-01,9.636259453903783800e-01,3.925720754744925212e-01,9.192831587811695071e-01,-3.959639549971338268e-01,-2.341134950110093371e-01,6.776619096183832403e-01,4.396689138761062376e-01,2.097338369941461056e-01,6.892228564391139622e-01,-7.262221267565880378e-01,1.623260404659880030e-01,-5.152474792504490031e-01,-5.886277959114226688e-01,3.465229545613642825e-01,4.236555582002795584e-01,-8.090269149156670281e-01,6.129237828290352574e-01,-4.987522016581932283e-01,2.243496957465615851e-02,3.437957527607932717e-01,7.310504345214791089e-01,5.908682133834899375e-01,2.379410080762286994e-01,6.618160041469758337e-01,-8.390823389984193303e-01,9.727835939057027925e-01,2.230359661302468710e-01,5.011515848986280997e-01,-4.482495827742739025e-01,3.539123793930212813e-01,-9.933620139569760976e-01,4.842837229736889904e-01,5.103569771645987130e-01,6.115279451781191478e-01,-6.716295517711736718e-01,9.908255010347978564e-02,6.351243134897094356e-01,-6.336840943947978921e-01,3.326762704134782478e-01,-9.336133064291534112e-01,-2.278009787378883211e-01,5.267822017026412285e-01,3.701045117422969155e-01,9.545588821623809395e-01,2.217295030482298313e-01,6.766306380947380017e-01,1.086147495655838402e-01,9.173209309880442364e-01,-4.671613940809623555e-01,-4.760736893129827729e-01,-2.803811448336124834e-01,-5.460043584804328276e-01,3.412170535940077798e-01,9.748189958527518628e-02,8.135080258664127983e-01,-3.350676118247589153e-01,-6.975523539781687266e-01,9.449169372510968223e-01,-7.210785276249883635e-01,6.146633726532099717e-02,5.583464366610199070e-01,8.831090991768565379e-01,-5.840104872469698005e-01,8.880501684462271950e-01,-8.411708665330843715e-01,-8.931798909038962675e-01,4.484926047681641603e-01,-4.708020255815860144e-01,-9.897326763747503753e-01,6.125687290456705014e-01,-1.492446920046260339e-01,4.358494215655019932e-01,6.221666824084537417e-01,9.479005491031129438e-01,2.180728058383817336e-01,4.196794120562894609e-02,-5.992802866080103597e-01,-1.791636190822276653e-01,-2.070162715168524792e-01,1.438647566103083142e-01,-7.118740829672168813e-01,5.278587986726405168e-01,2.035598908341183788e-01,6.982687785449767093e-01,-2.346717589022629946e-01,7.252676141068903348e-01,2.411817426683867949e-01,8.957358534914919845e-01
4.387770574887132624e-01,-5.554978739772944429e-01,4.056128220593384626e-01,3.752934620732765320e-02,4.376628477415495100e-01,-2.624664996971802777e-01,-9.105537636626245268e-01,6.322121646310513432e-01,-1.787244367355796115e-01,6.060345585835901216e-01,-5.328903879079849304e-01,3.389333523264739245e-01,7.158079126906741196e-01,-4.122735889999241121e-01,-2.763080950488785992e-01,-7.149318489875139404e-01,-2.020922337489818033e-01,-8.977441231516490872e-01,-2.125052097809497220e-01,-3.293225830205928628e-01,-6.267284252299665237e-01,6.580903612912208933e-01,2.028860669310606490e-01,-3.899415691065308276e-01,8.220697636239736317e-02,-5.844168056223689733e-01,1.972529393709163137e-02,4.528045191217234255e-01,-3.469467660190068137e-01,-9.419023551711803721e-01,-2.858528084255672064e-01,2.171717193792884748e-01,3.518449356585788834e-01,9.560538988415130390e-01,1.541652276949716516e-01,1.676721791301586661e-01,-6.253689393758601334e-01,-9.244467607264527098e-01,6.065396612812945509e-01,9.689634190210829612e-01,1.458008165558623836e-01,7.039897867643566398e-01,8.261799556830556890e-01,-7.156802561275996677e-01,7.427850356544399846e-01,-9.490354785260105563e-01,4.754789277262670005e-04,-2.997268717994835407e-01,2.204623754983625339e-01,2.996974080547655794e-01,5.123521651673558219e-01,-5.847785200300549269e-01,-2.894757998719361680e-01,-8.173388709632752880e-01,3.601653051984178289e-01,-5.938288759889118751e-01,-4.352165720593145770e-02,8.992306858811897063e-01,5.093750742460426695e-01,9.466624500327281977e-01,-3.353429298838090933e-01,9.536519142899595458e-01,-9.608071749307923737e-01,-7.016744252680010563e-01,4.205312460122437312e-01,-8.308352212828173933e-02,4.558833100376918357e-01,1.674772153779092165e-01,4.910101112683117330e-01,6.289563318692353855e-01,-5.473906017705830740e-01,-9.391080103520458300e-01,-6.018490327730731115e-01,9.476987092195310325e-01,-4.901380882673804784e-01,-6.221942553636597983e-01,9.704055657184260664e-01,7.147801488126722669e-01,4.208677275974751497e-01,9.064122425095666458e-01,-2.694288301585607767e-02,3.858950746223258066e-02,-4.367125607916989005e-01,-5.023916346958048340e-01,4.669414382607076086e-02,3.163120737356249212e-01,9.465105850508259699e-01,-4.116310157071019216e-01,4.536252766190705665e-02,1.871138643410273361e-01,6.644454558516985632e-01,6.358424972267110453e-01,1.108721159695351260e-01,6.745177941668430988e-01,7.085023691125208467e-01,5.673616560790679664e-01,7.928255328522626488e-01,6.438090362866640826e-01,-3.896359000797852690e-01,-9.814691390080803046e-01,4.848702588347963971e-01,1.161567471261506501e-01,3.533851100669964662e-01,1.382350290364988410e-01,-1.284004722596167880e-01,-3.502513757015561224e-01,8.169050424606032479e-01,2.341604105862111485e-01,7.674382928718214147e-01,-3.976998719673023319e-01,-3.473955802933402781e-01,8.150945425715585557e-01,-1.113576283766295888e-01,1.113920840862928918e-01,8.745841265076826909e-01,6.591885522085187965e-01,-6.218027766717154625e-01,-9.185208732966462231e-01,-4.828700472899111751e-01,-7.778219564783565021e-01,3.324783046088384819e-01,-7.581955034855494824e-02,-9.281392102507081132e-01,8.033216223885104590e-01,-9.090765980059747342e-01,-1.632176281603446022e-01,8.707185041488466615e-01,-9.629618879632221295e-01,8.508423571764909266e-01,-9.357212112036945584e-01,-5.542671477190713736e-01,-7.597957367100153236e-01,3.896694690902401392e-01,-2.798987927086821759e-01,7.442709050897579059e-01,2.870120322144084635e-01,6.278363434858719172e-01,-3.896302415103765071e-01,-6.882693283016236840e-01,6.572725019611412867e-01,4.465105897077816244e-01,-2.699125015310677722e-01,-7.610933752956373644e-01,2.255225342739307359e-01,-6.208424681065211059e-01,4.942896834982931642e-01,-5.020048629290513320e-01,-9.504262570037971258e-01,-6.698175285422950376e-01,-4.884089086788358514e-01,-5.463494788410596659e-01,7.101402515331630694e-01,-7.194107900847216408e-01,-3.931892692060577899e-01,6.395086135549152839e-01,3.790354893968793104e-01,8.149958779541951470e-01,-3.210074883973519921e-01,3.208688489639212327e-02,8.824607882813597648e-01,-2.208126575850037909e-01,-1.087146485124999423e-01,4.241747915414817993e-01,-9.793703620777989283e-01,-7.237928719793874643e-01,-1.440400839744770956e-01,9.090229652490577905e-01,6.544518219716860541e-02,1.482986303731521904e-01,8.314318155109273745e-01,-8.980061495743560940e-01,-2.729946999085126613e-01,2.470086935924045712e-02,-1.931317289330581333e-01,5.127611876708918492e-01,-7.123393283712577961e-01,-3.022279079875416774e-01,-1.405548055991452938e-01,-6.510591296227000724e-01,8.012310062835215074e-01,4.564161700577172853e-01,4.987683035259001807e-01,-2.308544904345308513e-01,2.399283072252870463e-01,-3.170179848638001174e-01,6.777021803544914791e-01,9.793691783672150430e-01,-3.381511795862279790e-02,-5.013145378723757872e-01,7.806508686449237233e-01,-5.138002368254527275e-01,-9.737459645371956407e-01,-5.226911008292933758e-02,7.525991117262892383e-01,-7.705196197847120620e-01,9.829294572524868157e-01,8.567215905184381031e-01,-4.072373423968423389e-01,7.947298355207531584e-01,7.898423562545010546e-01,6.728404458435259805e-01,-1.197858844153822933e-01,7.471284140028223719e-01,-9.022235390203969807e-01,8.827318210613827043e-01,-7.706054981939157722e-01,-8.929477299361867626e-01,-4.827933822344819825e-01,-2.387102141864447247e-02,2.410112369306166291e-01,-3.029870056228263220e-01,7.463314710368679217e-01,2.768005220702408065e-01,7.757310250026607790e-01,-3.951374387475592442e-01,-8.391903061448716672e-01,3.483186645663692849e-01,8.771644153543547429e-01,-6.214354167018968367e-01,2.492892917841893485e-01,-5.395105627177892993e-01,-6.668273609215492614e-01,-6.030254028783597064e-01,-2.447268079265052521e-02,1.993219098279284118e-01,2.587400977585195272e-01,-5.314691968958378254e-01,-7.373504740017265968e-01,4.811240934852001327e-01,-5.773097054486047153e-01,4.707342174387875722e-01,2.541692428864271158e-01,-1.579123542947826753e-01,7.354521172440424692e-01,-5.961669225703875030e-01,4.409043611580024113e-02,-2.633576994338512889e-01,-1.109191930709080565e-01,-3.446329723325607941e-01,2.311131049160272677e-01,-1.204467101928186901e-01,8.748199945661722099e-01,-9.621503770494950203e-01,-3.209399323518126179e-01,-8.201714245185379726e-01,1.613001611833977944e-02,8.157079382766380116e-01,6.794917443999092255e-01,6.605609838533607614e-02,6.349833916484829421e-01,-3.408037700233512712e-01,-9.488859209732691813e-01,-6.671070132414701481e-01,9.157576257669738373e-01,7.122183442331263548e-01,-6.847123010169553492e-01,8.747797446675196209e-01,-9.658884802035276884e-01,3.419164638956047053e-01,-7.980352789540733349e-01,9.661970487008418873e-01,7.300742243322019265e-01,4.544417209362576482e-02,-9.200091759423667526e-01,-1.612281680451657928e-01,6.770900925365908041e-01,4.861308401035639437e-01,4.442978536539385903e-01,6.222289868099933896e-01,5.230640429478770059e-01,-3.878936289465026444e-01,-2.338655097961126195e-01,-4.583121931810918426e-01,-9.787685415092389762e-01,5.887683399962455599e-01,5.885491057450547014e-01,-6.121041439690841912e-01,-3.956365435383788487e-01,-8.447468640524324890e-01,-5.316085634696263718e-01,-8.317075318581453880e-01,-3.418359417296183422e-01,-3.586095956184485317e-02,4.593111973590642272e-01,-8.817199748632884582e-01,7.601656871063455778e-01,-2.765417866738432706e-01,2.929925172614530893e-01,9.846351465193570185e-01,3.498376984313058546e-01,-7.376963208808942074e-01,2.670091188981026376e-01,2.571160265796699762e-01,3.675665982009370114e-01,-9.604114600551576508e-01,7.366351942831825816e-01,-9.089082592564986518e-01,8.880866802425063655e-01,9.232768110817457519e-01,9.155470307388797746e-01,-1.658115767170207397e-04,8.473247358842976862e-01,2.744079256151438564e-02,-4.108120799807429835e-02,-9.421654163604141763e-01,7.947762563496235666e-01,2.954868867469866434e-01,5.389086295970317575e-02,-1.284517059956011287e-01,7.839462295481932630e-01,-7.796854511905206842e-01,-9.478191994821554278e-01,-5.375013432624213827e-01,-4.268888656527142222e-02,-5.558621252647579780e-01,2.090865045156473645e-01,-2.148152826195517395e-01,-7.729791577430908944e-01,8.236552886316496069e-01,4.433438147354646919e-01,9.135855099382850231e-01,-7.681555170801562804e-01,-6.546763978686874763e-01,-2.912560108348361543e-01,-8.745861793087754063e-03,-7.565918315417201612e-01,9.977362413183425982e-01,-4.918296004823707185e-02,7.720661139947958274e-02,1.205819392151399050e-01,5.278143866829332342e-01,9.858631210082341445e-02,-9.869776938373968633e-01,9.755340731799492238e-01,2.481890185033890639e-01,7.659039184239092579e-01,9.951013576999873100e-01,3.220028472938370467e-01,7.462081227626997659e-01,-1.688566438863358873e-02,8.073815226800569178e-01,-4.026718115789129637e-01,2.097089674368765588e-02,-4.738530804896667337e-01,5.074034467319313846e-01,3.121532755164841966e-01,6.633511975077538425e-01,-2.328148596725508612e-01,1.317634462962737063e-01,2.428046753260126520e-02,5.269008421222962646e-01,8.478233453209257919e-02,2.779362891520240630e-01,-7.298434715857355926e-01,-2.224092890190061678e-01,1.838394425120193632e-01,-3.422539828964035746e-02,-8.595557300668292822e-01,-2.662184887714556525e-01,7.283548043417512607e-01,8.957550207971441969e-01,7.669542149023744759e-01,1.323755557183407816e-01,-8.324613253323526196e-01,-8.624764662723534148e-01,-6.482936085041134389e-01,-2.068522391465341947e-01,8.729713168707454729e-01,7.424923395653345581e-01,3.095274743092815140e-01,3.071388452653965317e-01,1.996263791588342440e-01,-2.699899396898130521e-01,6.612987981009799121e-02,-8.678263520541682971e-03,-1.004841509271007377e-01,-4.848015743889215190e-01,-9.906779667298126757e-01,6.129773308302521873e-01,7.239693909254252269e-01,3.152968765294951736e-01,-6.948381341137371825e-01,8.761240434326477144e-01,4.205940933057583098e-01,3.488442231407621885e-01,4.826513815053601331e-01,-8.557741363554490777e-01,4.457858731403354091e-01,-8.998350099184074802e-01,9.634107001991971675e-01,-1.565688818936999682e-01,8.151371471611835728e-01,1.146753234531854154e-01,-2.300031729886378162e-01,4.431123919240198550e-01,1.658787779304373433e-01,-4.200584805327149396e-01,8.338139636787128550e-01,7.636662300075890419e-01,-8.776194580172208548e-01,-3.490655028927645565e-01,-7.515886705026548764e-01,-1.744167750311558240e-01,8.391749189563246780e-01,3.053582544139492594e-01,-5.437086188436950351e-01,3.180375609145001392e-01,-9.675706172576038488e-01,-2.029641852482585995e-01,9.056836794418836600e-01,4.537439418568494087e-01,2.039744724394116082e-01,9.765309523593290741e-01,-4.586055317426042666e-01,-9.346317840553080014e-01,-2.052211199610201042e-01,-6.397182466720512384e-01,3.922589222520153074e-01,2.359347248497218608e-01,9.774677668052600410e-01,1.402773168487061461e-01,1.070897774953058490e-01,2.282127405502473450e-01,-8.728483246239385762e-01,-2.509542154288761928e-01,-4.561079167925903843e-01,-8.958840164183443644e-01,7.498682812757443417e-01,-6.460187122492520029e-01,-8.779362027405893665e-01,-5.270143088097768436e-01,-6.181075133331191962e-01,6.265214969117226529e-01,-2.521253620710321997e-01,9.688843057617850807e-01,-2.016370586551876065e-01,-2.607993725748302682e-01,-6.287602286519800021e-01,-6.072301028392590450e-02,-9.818212173024594147e-01,4.287863990021916760e-01,6.909327503558866657e-02,-5.225367317088587260e-01,4.061993838122641975e-02,-9.223653352418141882e-01,2.454207761189775294e-01,-5.760909624714686261e-01,5.643209866114575757e-01,-4.295678396095437002e-01,-1.132954602724629001e-01,-5.417105242825047684e-01,3.826421033469464827e-01,-7.568563520200535244e-01,3.294135351266284650e-01,7.976700662538546149e-01,1.813347036132111718e-03,-3.555018155474266028e-01,-6.382876079774668643e-01,5.633421313349492587e-01,-2.623019095325226924e-01,1.671147382143967908e-01,8.520139300796115700e-01,-1.485261966791627808e-01,-5.604838424339354530e-01,7.606276338040396379e-01,-4.564178201391989043e-01,-4.731844285881148249e-02,-2.598982080819192131e-01,7.228263508841625828e-01,-6.569570715912867453e-02,-2.142762086288910878e-02,4.746512654074848681e-01,2.242140872553966546e-01,-7.148814624307012755e-01,4.559902363855834473e-01,5.155723344050122670e-01,5.841948255438408344e-01,-1.026668786959685914e-01,-2.898855935489062507e-01,-2.845990835466543079e-01,3.307610906974766118e-01,-1.266018838729827956e-01,-3.468734612510155357e-01,6.810879971278920308e-01,7.089591167468520805e-01,5.947521475498984689e-01,-4.285088813085076165e-01,2.224700007068007857e-01,5.980004699850531846e-01,-1.994392617560143688e-01,-6.296968536735604305e-01,9.646817338920947726e-01,6.762326098547418729e-01,5.702457796514596167e-01,-6.161977090649176647e-01,-9.615579957289511759e-01,-5.722308093442237675e-01,7.745364572548569804e-01,1.213486867947560222e-01,-2.020197988067992945e-01,7.046063478591557683e-01,-5.323826115109884238e-01,4.431122163803015157e-01,3.548071923772747049e-01,8.797037066322410670e-01,1.172867503691197022e-01,-9.647356010150481831e-02,5.043251742899621526e-01,9.738918166059696846e-01,6.876789551799123990e-01,-1.323383531957593728e-01
-5.451754954957481643e-03,6.448681622185992168e-02,-3.755925257503822667e-01,4.011930322353990941e-01,5.862671029855682781e-01,8.946088308732295102e-01,-1.906475262713190899e-01,7.921572229745112992e-01,-4.751139445240527559e-01,2.338450914290463312e-01,-5.804377698360968507e-01,-7.061990201677894596e-01,-3.512001852428849324e-01,-4.748774114324134654e-01,8.215062666301549132e-01,3.301234870665554766e-01,7.679664381262725215e-01,1.482404029421025282e-01,-7.797870743628273482e-01,-3.936061658539549701e-01,3.689767751186081579e-01,5.209844299787087518e-01,5.230419675010115066e-01,3.932578142862542918e-03,-4.862519880694390895e-01,-8.745599184176980345e-02,-9.433756870236486014e-01,6.428644460182338094e-02,3.672226589325723323e-01,-5.417792734944342214e-01,-4.649011308684148913e-01,-3.410722948633478357e-01,4.431060831032746505e-01,2.117102443418188429e-01,8.714584514703398455e-01,-7.092609334614239369e-01,-8.476174543731894717e-01,-3.637767979649115246e-01,4.827134476424379539e-01,1.690569019046522237e-01,8.682820051143033124e-01,8.722810276641795868e-01,4.751643773816295879e-01,8.733788588092425975e-01,8.360720763126743282e-01,5.376442532500272931e-01,7.026761087034797404e-01,-4.023624299744905652e-01,-4.053648978484289955e-01,5.321101377168903079e-01,6.048862253472099271e-01,8.436262998108170486e-01,-6.651699391249668025e-01,2.927727123895579320e-01,-2.231234205106305268e-01,8.381550485584579047e-01,5.212083278912293949e-01,-2.832784267432372771e-01,1.028767749326856829e-01,2.248749719705323835e-01,-1.126727460517960022e-01,-2.040470196486258714e-01,5.802989208284597966e-01,-7.935628564931808127e-01,-9.742555777812986761e-01,-5.233239251379826484e-01,7.388067746309070483e-01,1.044466756806928728e-02,3.166823381598228293e-01,3.183814070476996549e-02,6.517876437604461781e-01,-4.485585286561836194e-01,-5.186599288669988539e-01,-4.782101047678353860e-03,2.508572049972599416e-01,-9.825943695605270367e-01,-1.600591421604609377e-01,7.970798123977953509e-01,-8.328545920509013989e-01,-3.769405926121415784e-01,8.969079358741006980e-02,-5.140348141777716373e-01,-9.483582308782518844e-01,5.748361017926206795e-01,4.254460343992167992e-01,9.901253482629387426e-01,2.312348854674073639e-01,-5.828756038462796774e-01,7.793823594396646071e-01,-6.319663311827014573e-02,-4.203407675606115057e-01,2.784785380261013410e-01,-8.112207570036518434e-02,-6.994778657147867618e-01,-5.367835946540500114e-01,2.398480165599720659e-01,-9.703632284474918990e-01,7.646307138620249688e-01,-2.089747116118568782e-01,-3.115020426432594802e-01,9.054403404837385594e-01,-4.870129297875085417e-01,3.710165774598635502e-01,-7.133015048395708879e-01,-6.967475848418994699e-01,-3.133528051922916391e-01,-7.970891089659628559e-01,-6.425933171049116321e-01,-2.944205960991407300e-01,3.819893812900997943e-01,-5.787618890906269797e-01,-6.486445853437945441e-01,3.052164996670617136e-01,4.778178309032875548e-01,-4.142339708299836443e-01,5.360094305138771720e-01,7.027188186540839210e-01,8.226182573292317723e-01,8.960229835203303850e-01,-8.111725980257802338e-01,6.940097525329065320e-01,-8.621369560017567296e-03,-5.485664786542081561e-01,-7.452096496303042272e-01,4.783721879970291302e-01,7.381242642240112284e-01,2.591372962624679532e-01,7.565704859023756335e-01,3.065070640564262483e-01,-4.016896973225936307e-03,-4.475452014252528365e-01,3.252900566067650212e-01,5.762484904302495048e-01,-8.294605785020884303e-01,7.408848173897728540e-01,5.082312145858874919e-01,-9.533668541957389664e-01,-7.682998074925412313e-01,1.708570776535789371e-02,8.072404444930996181e-01,-1.774221320697806636e-01,5.360049073370465322e-01,9.433120212477064115e-02,1.420106334246647728e-01,-6.892776978013404054e-01,-9.333671098163053292e-01,9.087855617329867464e-01,-8.471336815434904466e-02,3.086534203023891809e-01,-6.238194911108257967e-01,9.672069929812940892e-01,-5.522032591207302055e-01,6.693949271868503414e-01,6.783502897818972643e-01,2.316297307795169569e-01,8.736165586177587761e-01,8.100953205411846880e-02,-6.359811493186459108e-01,-4.636320648390802046e-01,5.428681258888908845e-01,7.994173221193741075e-01,3.738036311489751490e-02,-6.370904479045975677e-01,-7.120982648923493974e-01,7.445252508583937168e-01,-4.256744015486206845e-01,6.950530357991399066e-01,-8.337681565964530916e-01,-4.372408553378791529e-01,4.201685700664927192e-01,5.716816549930341385e-01,-4.595322624456453231e-01,6.747900720050431511e-01,-5.118851848303261898e-01,3.462087315970852064e-01,-4.999222285183195780e-01,-4.594249905636499931e-01,4.277871057895127338e-01,-7.555895354663668684e-01,-5.526158997477859103e-01,-4.460817311613943792e-01,1.276717887176299360e-01,7.188677425672007626e-01,6.341787474837019545e-01,-5.653743703925044883e-01,1.003866355403217059e-01,5.213680990725360065e-01,-1.680501939097567288e-01,9.316258045981179459e-01,-1.152153569931867183e-02,6.047463003632101985e-01,5.600074652558018062e-01,5.595928573616182344e-01,5.639137928441844139e-01,-1.983443241388181677e-01,5.761900816620112442e-01,6.418757764998624937e-01,4.517911130582046852e-01,-7.397467494295473234e-02,5.471373416199598605e-01,-3.561599882819784235e-01,-4.464138418736256497e-01,4.463528773698764440e-01,-3.618228940061802845e-01,9.464215496652530479e-01,-4.609786782553217943e-01,-6.656395014351874639e-01,9.320359370962953971e-01,4.721020247689112770e-01,-7.046223311435366732e-01,-6.398793154415691742e-01,-2.784605650000238075e-01,-6.403277389293692279e-01,-1.537108790543872672e-01,-7.801513568549227340e-02,-5.907791096876296999e-01,3.254892380484316616e-01,5.031943340559866806e-01,9.203013533102588628e-02,4.042949016196042966e-01,-1.748194370395660391e-01,8.129352562469374099e-01,9.763808024838208643e-01,2.249521556871476591e-01,7.174429556255341733e-01,7.307243355014902964e-01,-4.526899060581057177e-01,5.674203895463689751e-01,-9.722560463191807223e-01,7.761936656612286045e-01,3.145531454493334378e-01,8.264113937759322015e-01,1.275760978152575276e-01,9.803631190376054239e-01,3.239912840495468571e-01,7.701961596574030677e-01,3.655828724544156194e-01,1.371558277492224316e-02,-4.745817030960080007e-01,-5.000923952326735700e-01,3.629367654486880673e-02,-6.313877040835604859e-01,-1.300827802864506777e-01,-2.046718784894841769e-01,-5.740196033950670795e-01,-6.502074191786113566e-01,-1.959219994765370731e-01,-2.645441639024538882e-01,2.127511660271949323e-01,1.127003825590955632e-01,-7.200290488266991584e-01,5.101139967734619196e-01,3.785225224890299833e-02,5.154262828343557368e-02,7.851817939653469303e-01,7.466353156068961106e-02,-5.079815604769243320e-01,-8.346037600931651701e-01,-3.170249154903714839e-01,-6.194894166116209772e-02,-4.582296755727613968e-01,1.355243507635494338e-01,-2.040278268835106767e-01,-2.421132889223210627e-01,9.544127529884760541e-01,-8.614403180844976138e-01,8.364601780703740941e-01,9.242587174887666457e-01,5.283975635136487492e-01,-6.930530316428898385e-02,-2.711531778982951280e-01,9.075053699432316101e-01,-1.447452851116814709e-01,5.841742549009070196e-01,-1.307074813107100830e-01,5.208978884741827242e-01,1.562531729912184919e-01,8.298395686803593241e-02,-6.532980760722501001e-01,9.044613922546858031e-01,-4.719468613300176196e-01,3.075877593056115366e-03,5.475892713611796303e-01,-6.171893457245443138e-01,1.709651950998712366e-01,-2.989586490197436164e-01,3.715045049415104383e-01,-9.677383610792618107e-01,5.346451465681135717e-01,4.520832774351968286e-02,-8.783028729908792798e-01,1.095908805631218980e-01,-9.706017357424281400e-01,-7.481867763022634898e-01,-8.115454782394832325e-03,-8.063186584141837088e-01,-5.781546186501207441e-01,7.449762075680025353e-01,-9.248710534581471299e-01,-8.846216302952266686e-01,-3.432711874441954913e-01,1.080663115193136736e-01,-1.524892800893235534e-01,-9.580873491642823980e-01,-3.111783503629614311e-01,-3.778825956926453733e-01,4.186672175439714039e-01,-6.030133710371032851e-01,5.201225666045075080e-01,-1.243573755016431498e-01,-4.304213201113433196e-01,-1.191219400286178121e-01,3.976457087224379849e-01,6.105559346996727310e-01,4.164826436459309056e-01,8.335769197550456644e-01,-4.614137742463796377e-01,8.629842067116983984e-01,6.691622230024787399e-01,-3.095095586023328682e-01,5.718336164467622273e-01,1.490182852872747599e-01,5.661817055088484985e-01,6.732171972829577022e-01,2.727786495227417229e-01,-6.000807283704483464e-01,-7.423658699140336381e-01,9.599509244697668198e-01,-5.853054822283993985e-01,-4.126905653051144429e-01,8.386927626411684322e-01,1.195948141164844408e-01,-2.061769525634837841e-01,9.473289982598641634e-01,-9.287108923945290861e-01,8.794346954083982482e-01,-7.104686709846193271e-02,-9.110445379945781852e-01,-8.768609358970816947e-01,-9.978522595509445869e-01,5.459341804668065290e-01,-2.238835350582228378e-01,-4.560447889168223190e-01,6.242764391564662452e-01,-1.921681260725718876e-01,9.877837961520121723e-01,-6.199551531228972845e-01,-9.432663041471367471e-01,9.853548695319540585e-01,-1.939975642340951711e-01,-4.070067655692026776e-01,-1.475853028849622717e-01,-1.422121309532815014e-01,-5.252876305963565251e-01,4.363116284954438595e-01,5.458229928894091643e-01,2.195906863146748489e-01,6.965283786923673892e-01,-7.069198130305298644e-01,-6.747555542352117186e-01,7.846816598006197685e-01,5.835590344752411562e-01,-9.173164481088368349e-01,3.576017360770571141e-02,-4.335784233140383553e-02,-7.605028638090548521e-01,4.935099456996028255e-01,2.911377406863567274e-01,1.749618399300446603e-01,4.706723260262843933e-01,6.863287852074739792e-01,-5.225395569937407725e-01,-1.593716449029645155e-01,4.710635798696641285e-01,-8.754179023804306015e-01,1.536233561703866934e-01,6.938076759426470286e-01,2.191483650689521612e-01,3.526812584615104940e-01,-5.650621875428561702e-02,-4.728693467290517316e-01,4.573816290722551581e-01,2.520228233488084335e-01,4.179270966630826423e-01,-5.973087077551350044e-01,4.193479838193827636e-01,-8.943514623099100280e-01,2.099797986121286764e-01,3.204219574125798942e-01,9.278271480547954919e-01,-8.283090710539100510e-01,-6.901561226195940257e-01,-5.399648615922432171e-01,-6.592435958353993763e-01,2.395954512830913985e-01,2.154974952992105841e-01,7.776322006685096322e-02,7.418219083698210925e-01,2.391273304667792532e-01,2.648300456334332087e-01,7.444160354635347143e-02,-5.338066219249699706e-01,-3.508298263534285755e-01,9.359956584018310766e-01,4.984020887530795640e-01,3.563825122550213220e-01,-2.005471739825003541e-01,2.243177600404090422e-01,4.226268983713447613e-01,9.203081557424281911e-01,-8.334345296641392231e-01,-2.250391939111577311e-01,-3.419685831331840675e-01,1.506236831434242529e-01,7.770452737277562527e-02,5.013180034691139264e-01,8.254700231374882957e-01,8.930316762668486508e-01,6.726196772178135719e-01,7.029681122999416054e-01,-7.729161947701380653e-01,-5.189619335348655271e-01,4.511974517441185717e-01,8.709444666292034398e-01,-4.971395052366371914e-01,1.451424028202976946e-01,3.776837070005980013e-01,7.607843346136704266e-02,-3.090176793588206294e-01,8.022613037646811884e-01,-1.916531372205785289e-01,1.712815295913708569e-01,-2.163248196909385301e-01,8.137934751661065613e-01,-7.819535715301599854e-01,-9.345100333521196845e-01,4.902900557704370499e-01,2.223967316698097219e-01,2.285982948338878828e-01,9.329454294584123009e-01,4.988076543745755820e-01,-1.012408723964922791e-01,-2.541397677103615638e-01,8.429536909321163618e-01,-8.417309437631310676e-01,-6.073124155290552384e-01,-2.129374135358721720e-01,9.621022506302349120e-01,-8.433543629727527913e-01,5.696054276045539044e-01,-5.280002339406451028e-01,-3.914974289077655656e-01,9.527747804271144982e-01,6.177200667472833029e-01,-7.772725937757913872e-01,2.561950675640913833e-01,8.734956821177811692e-01,-9.762469971795271206e-01,3.823829253263155703e-01,6.419561579121839667e-01,4.111931265132871549e-01,7.775161792542804040e-01,7.986615969664068171e-01,5.192620137855459284e-01,-5.124042877033039289e-01,-1.550886693826029851e-03,2.189671237827939820e-01,8.099088957384579235e-01,-6.721768891347404962e-01,-3.580946030033068661e-01,-5.020984486036997874e-01,3.819295360404035278e-01,-8.763988916312572819e-01,1.918717004661697756e-01,-1.914574614584473866e-01,1.227725892414265885e-01,7.460709577916223301e-02,-9.823260723517368564e-01,-6.095661198844132267e-01,-7.458712827599711659e-01,-5.694692564403796009e-01,7.528509598566707206e-01,-9.793559785597500955e-01,7.699215464569278966e-01,9.349889593348298389e-01,9.249567181815419037e-01,9.463745130786440640e-01,-8.522353307189168836e-01,7.015875169612512119e-01,8.707211769151220748e-01,6.073615828262013405e-01,-9.816192380988429944e-01,9.693088257151488696e-01,4.271069725850698551e-02,-8.776902894708656921e-01,9.050901860262148269e-01,-9.834297445099783319e-01,4.921596648810351304e-01,5.468778268577694224e-01,9.925825445945531955e-01,8.833366533467058579e-01,-7.503532160092577508e-01,3.808208542502561356e-01,2.062073524275622183e-01,-5.787742835547284859e-01,8.384792210067840701e-01,-2.374834553673333959e-01,-9.613841017809117151e-01,8.250186668809353918e-01,-9.163513678815679020e-01,-2.991630535980822070e-01
7.428956820953483975e-01,-4.996457612082592092e-01,-8.547304608770793788e-01,5.419285431067375480e-01,3.724378637656819424e-01,-3.844712802018203646e-01,3.206670289096592019e-01,8.906589122035553086e-01,3.986156329348402028e-01,6.400636261693658513e-01,4.690135926905558694e-01,-5.180578398120692096e-01,-1.278544091180167930e-01,1.666122161307458105e-01,-6.921902489199305286e-01,-3.498740905303457382e-01,-8.646776638921728209e-01,-8.477831093825135556e-01,-4.984947078546055343e-01,-9.913345990487540949e-01,-5.549555102823620079e-01,-3.617206351363972394e-01,-8.304976057422056579e-01,9.021169252438415720e-01,-7.995945915982781704e-01,-3.084100479849530632e-02,8.361675046968385372e-01,9.703538702996551413e-01,-5.784332766239567297e-02,-6.072048684472383662e-02,6.919908870543807211e-01,3.127981764327941172e-01,5.439664476681107530e-01,-5.178059100405694171e-01,-5.576870510718254792e-01,7.165623376845517978e-01,-3.034937502501061646e-01,-1.172352682563485016e-01,8.577747728404583327e-01,-6.268289457140285847e-01,-3.098983556231949543e-01,-4.213328851722288326e-01,-4.738563891527378114e-01,-5.665848658382568459e-01,-1.268719806168395192e-01,-1.822808098086863282e-01,7.172899356971739193e-01,4.170553932416686815e-01,-2.974338680265365964e-01,-7.256739380830320441e-01,6.982354653802541611e-01,5.916838373967376885e-01,6.726336462356939938e-01,7.374962053099874959e-01,-5.529842451873704379e-01,-2.169348328995067410e-01,6.080004520288904146e-01,-6.038307596631005136e-01,4.611835593686450241e-01,6.657841049184979321e-01,-4.171014797857381939e-01,-5.584909260617474391e-01,7.810748132270184385e-01,1.589275816258613749e-01,9.212907272598978015e-01,-2.405759347394458292e-01,-7.474082190868611697e-01,-1.745474818206855794e-01,-2.702783148064322183e-01,9.617842057763223429e-02,7.400449877304973167e-01,-5.740502875520983039e-01,-4.169083295262043243e-01,-9.701630469765576414e-01,7.587417806352914074e-01,7.421499258429093970e-01,-6.223356111651500155e-01,-6.021100751257613126e-01,-1.821882832339366265e-01,1.743188140035284162e-01,5.810203795463976251e-01,-1.972614752759735759e-02,1.129744169769679035e-01,6.827290671985732917e-01,4.164150797836215223e-01,1.252417163645239973e-01,1.862557736022200372e-01,8.199068752799901771e-01,-7.621965269272922283e-01,3.223575910499762442e-01,-1.394219344083767742e-01,6.600866289188356273e-01,-4.699307627653767638e-02,8.050973519260576361e-02,1.164722189718150891e-01,-7.727916705131958608e-01,-5.686977749558430606e-01,6.517615457066121554e-01,-7.769117599457890933e-01,-4.354612280528807888e-01,7.248535671110801770e-01,-4.460079215189878266e-01,-6.043843430825419638e-01,5.392394481911089166e-01,9.058492565615043970e-03,9.564137330882029886e-01,-4.408285221849286284e-01,5.615195900799309081e-01,1.655714133582744108e-01,-9.404479779020790131e-01,-6.471550909906051974e-01,-2.780084824519603037e-01,7.002855569282612214e-01,-7.744300509826512746e-01,4.207946102329515603e-02,5.068018873241074695e-01,2.083729025657079514e-01,3.918523378063040741e-01,-7.303396270005634294e-01,-8.574676303160280177e-01,-1.812180745704145279e-01,4.901138586801838115e-01,2.332019597397402833e-01,-4.447998019969838790e-01,-3.694564485695961409e-01,-5.897486520606762816e-01,-3.098965103094452611e-01,4.700581753554819442e-02,2.215779986819719216e-01,-4.277496639852380600e-01,1.939027090720018831e-01,5.322488771793695284e-01,-8.841067604683116032e-01,9.996020459252881185e-01,2.385245956085923213e-01,-2.592452371384173504e-01,-8.491637223861853156e-01,-1.875038964585358237e-01,3.094651908512426886e-01,3.946451814770852162e-01,-2.843331856119605261e-01,3.327322533934282123e-01,-6.520202979458844528e-01,1.827809471103812589e-01,-4.983934990981970237e-01,-8.818209062876912752e-01,3.803383518194273782e-01,3.807196564735129130e-01,-4.714377041438639337e-01,-9.108896515899306268e-01,5.807384252797270774e-01,3.105799682050519941e-02,-9.832360014192768061e-01,2.729984953288768224e-01,-9.968622037567659300e-01,-3.312526016651175520e-01,8.834213460572359899e-01,-9.546667467212222036e-01,-5.540836354857866519e-01,-9.701895504025783712e-01,-9.317957475644207399e-01,3.780124148037131149e-01,9.624005245592859303e-01,-7.011580110701370883e-01,8.148268295628083857e-01,-9.461960916369658303e-01,-8.248099757847662250e-01,-8.906761398307649902e-01,-3.491893153936195815e-01,2.303411877687778497e-01,-5.978293360766315789e-01,-4.489280111221328196e-01,2.737513667956810726e-01,-4.943388585576877214e-01,-7.773260111408857309e-01,3.811903564586192200e-02,8.049857135519470352e-01,-2.346268741071875219e-01,-1.849009273320023714e-03,-9.688619242842028134e-01,7.317976751005449143e-02,3.835639947868722532e-01,-5.637552982997281470e-01,5.710520753514396475e-01,2.867738364524997086e-01,-6.352642908713782566e-01,5.356044296421660911e-02,-7.873623211477931427e-02,-6.307255196280356913e-01,3.078958615271871202e-01,-2.044643753616736392e-01,5.198141949837868925e-01,1.140015199929900191e-02,1.834492720727961268e-01,8.428837225552362478e-01,-1.012549927612333839e-01,-1.889666787929006608e-01,8.336320581351712722e-01,-7.058898582828820878e-01,-9.304750693877875678e-01,5.921262370957431909e-01,-4.593190627315208996e-01,-8.892999510149879328e-01,-9.911553053646095235e-02,-5.050342728095322808e-01,2.947235356752186397e-01,2.858111490395177645e-01,9.708827767727966629e-01,-5.531640854049438838e-01,-8.240968586386989703e-01,-8.079226976660258686e-02,8.682596988691986262e-01,-9.083496847595123880e-01,-2.165199128095745829e-01,6.745611443716598155e-01,-1.100635331374973103e-01,9.055731423615168696e-01,-9.093795077051393116e-01,-4.915728397112266168e-01,-7.920502492308370002e-01,7.728997296657205140e-01,9.555061005418116205e-01,2.627443718705513298e-01,-1.969444020060442391e-01,3.157869844199387432e-01,5.369543544459227657e-01,7.428502803190938364e-01,6.195102078586481320e-02,7.086667944678821662e-01,-1.412815995409143904e-02,7.862782576271039048e-01,-6.483093450778232292e-01,-6.221256101036869435e-01,4.170472899923731713e-01,2.798958772962105157e-01,7.996430264118389308e-01,-2.158672814790267847e-01,9.495791886704416651e-01,-7.596187425378894131e-01,4.695546888466316515e-01,8.858316935648483659e-01,3.176165243871412192e-01,-3.755358142567505331e-01,6.456684629051668844e-01,-8.696835819550476077e-02,-1.323909680171478642e-01,8.210033252536180770e-02,-2.031070262844391350e-01,-9.288073809508713696e-02,-3.128886731387808262e-01,9.865711249079434086e-01,-7.349233955358509540e-01,-1.218280759110771105e-01,-9.218720172741960983e-01,-1.742285404997624687e-01,8.781784735195337088e-01,-3.982560132704104916e-01,3.300314851664420956e-01,3.038054252265967592e-01,9.678404861002389836e-01,-3.381226369500241469e-01,-4.776441641033743468e-01,-9.674627577883501348e-03,-7.329682625432718535e-01,-4.522149232007818820e-01,4.424617235271721682e-01,-3.255212714550179687e-01,3.014435001279859305e-01,6.683431870545015752e-01,3.232137572834071770e-01,-3.539868278458392359e-01,1.424708504549921373e-01,9.101849776027376437e-01,8.569963208400487309e-01,1.862098650464546756e-01,-1.014671118484471724e-01,-8.683658416124719892e-01,-3.623030325995869605e-01,-4.232656018254558061e-01,-1.557700853434154098e-01,3.874136513189980202e-01,4.302660677390832134e-01,-5.998668231623687230e-01,-4.634834202679831150e-01,-4.355562516714659577e-02,9.985575773977428682e-01,-1.130237173366228087e-01,3.545213193916493116e-02,5.144703815615511711e-02,-6.606343293669023620e-01,-1.274435970928055883e-01,-1.579809443517625200e-01,7.109784788997745020e-01,6.918237871682574314e-01,-6.065413474325039855e-01,2.492531263519746909e-01,1.449419357622981075e-01,2.212144182031246242e-01,1.359386978742035956e-01,-9.673400233191740138e-01,9.726716935095634786e-02,-9.734898659524261755e-02,-1.486753947178141577e-01,7.211292297294376041e-01,-3.356969627759291419e-01,4.787740508787418636e-01,-8.306039703752013947e-01,-4.223576195247974452e-01,3.329721640939257710e-01,3.441225983418029766e-01,9.838276347975929426e-01,4.939316458499534157e-01,8.338675530603494312e-01,9.534312719106543543e-01,-8.235543982642540284e-01,8.086332261062131321e-01,8.268243097198649805e-01,8.006646797093177614e-01,-4.125878691441086654e-01,5.813040544992994496e-01,3.308976607005456039e-01,7.467267193209988774e-01,2.221235652034944663e-01,-8.225711206949407606e-01,-5.231513625060825179e-01,6.190980502913232542e-01,-9.145371941359077272e-01,5.031447037510826670e-01,-5.044215123883922791e-01,3.620309789871354322e-01,4.145398613815148847e-01,-5.996683071545445554e-01,-4.930627727140022426e-02,-3.986069101933514824e-01,-8.356674438675991690e-01,8.341657269026306887e-01,7.403048900985017555e-01,3.767535364566961809e-01,-5.487301444211677426e-01,-8.713748870682569425e-01,5.867773287615718480e-01,5.434910233998078155e-01,6.533633853329591235e-01,5.557812899067082757e-01,5.412896730796787903e-01,1.620853162328196040e-01,1.119563260873637778e-01,-6.506430278275014967e-01,8.438976354582140849e-02,9.793402686405131563e-01,-6.087507303134395142e-01,-1.188407197446968155e-01,9.190738056857488125e-01,-7.594007725407976306e-01,6.968772675347974233e-02,5.340331278625839451e-01,2.967450714216881558e-01,-3.236003911146321244e-01,7.812159905303319718e-01,4.753950793825066357e-01,9.382070187028915820e-01,-6.025408613637087685e-01,-8.137103333948849659e-01,5.857004635812880222e-01,-6.232239309376966796e-01,-3.735159900158570023e-01,4.603988618647363862e-01,-1.820369680579935756e-01,8.605934967280609582e-01,-9.375482493043757470e-01,3.230341222705589432e-01,-5.790634356249133585e-01,-6.140661949489748667e-02,-6.474946860114787484e-01,9.140627647893943830e-02,-3.767106185351651870e-01,-1.514776908517903586e-01,2.511811912192755125e-01,-2.972542876853050409e-01,3.864072947733896563e-02,-9.434554180781478117e-01,-5.735674484341323209e-01,1.717625864301819683e-01,-3.782560232137226475e-01,-6.705743169484182920e-01,3.579677211892793864e-01,-9.745516934735081183e-01,2.429961822533275029e-01,-3.994515133166369192e-01,-2.916096873187669081e-01,-1.009518616916927763e-01,7.608627148211083435e-01,2.627690160744575731e-01,9.092419008016102699e-01,-4.607233260469009162e-01,-5.086603391931692197e-01,-6.962070210542623538e-01,-4.809070385722621355e-01,3.223787249930210042e-01,-9.411865545178957904e-01,-4.808598960441939352e-01,-1.474294078722232226e-01,8.259427844113315098e-01,-8.781008362787903199e-01,-3.374092336401125769e-02,-7.885056439349891200e-01,5.469633926989464490e-01,-5.079459252420608362e-01,-8.512823690863711157e-01,-6.831937597554877950e-01,-8.179956960597373206e-01,-6.600248227327110140e-01,3.971579719298637401e-02,-5.997874809044093647e-01,-2.906667729667289368e-01,-9.825439948065294304e-01,1.799570486572922220e-02,3.035453327565051929e-01,7.751603161701250411e-01,-4.084964611291718173e-01,9.809517985660193284e-01,9.800956611869641177e-01,-5.757618413916238964e-01,2.841319473514323790e-01,8.804607243945731243e-01,-9.937407278557283119e-01,-5.837098186381814990e-01,5.702052538707370610e-01,7.790651487201264436e-01,6.732258483605524368e-01,-6.175193036662713908e-01,5.309542980605648499e-02,5.635307964651455892e-01,5.331989573921253056e-02,-6.317142596631230012e-01,-6.190762886316765190e-01,-3.872306223907855949e-01,1.204463064665698274e-01,-6.138375502069497447e-01,-9.922098742977301100e-01,-7.791387685118948969e-01,2.171365116586404520e-01,6.211729020934831924e-01,-4.317150931746989162e-01,-8.626673876117961492e-02,-1.899749063267499316e-01,7.708258780351978645e-01,-3.205237818112885440e-02,-3.397211254349112308e-01,4.243082903549297291e-01,4.025181794836904699e-03,-5.756751626847770309e-01,4.551540623436106658e-01,-2.326739566239016954e-01,-7.030797171693760061e-01,9.316424164703903665e-01,-2.034036636851451196e-01,-1.385496441885722130e-01,-1.147856526437810998e-01,9.485093811033686872e-01,-7.546090249836245878e-01,5.994013094125519858e-01,-6.441103446299553115e-01,5.043787676957000032e-01,-3.627991455782660912e-01,-9.852719675481252937e-01,6.229463709564834334e-02,-7.951388120551250438e-01,-9.388123688374152565e-01,-5.704238026237308246e-01,-7.061734360839592994e-02,-6.120961345391104924e-01,-8.869119297633289156e-02,8.370463689398476292e-01,1.902157658031250198e-01,-5.318432560632000428e-01,8.276952859913905280e-01,-3.774452369459042611e-01,-4.839772572857084509e-02,-5.390200618794207532e-01,2.099884798901201777e-01,3.461425566593552827e-01,5.607786174141794477e-01,-3.328030904290797398e-01,4.717670285002453223e-01,-1.906417057137765048e-01,2.939138370745249529e-01,8.023205331564781106e-01,-5.850170981107726265e-01,2.129322240396426535e-01,3.814708149741385390e-01,-9.655037287659470335e-01,-5.406592600046229435e-01,8.992595501876435304e-03,2.552261394461344257e-01,-1.105162093923761774e-01,8.017215513726244636e-01,-6.546674924231742354e-01,-7.455238374634631793e-01,3.572791917788244453e-01,-2.802091947577677322e-01,9.850824682619980788e-01,-5.375856294799929991e-01,7.696436277756053546e-01,7.545766307731848199e-01,7.347306177621376611e-01,-7.251998657041559826e-02,3.665477500938413291e-01,-7.840492617797382158e-01,-3.149182924883075496e-01,-6.547339870318270583e-01
-3.628779531362623101e-01,5.208273006604076105e-01,-3.490167486010427034e-01,6.663098549874958421e-01,6.932109357302129737e-01,-1.501531626527066732e-01,-5.548913735894539512e-01,-4.657557527553913834e-01,4.708826616524249831e-01,-3.820652997801887163e-01,1.022041280515349065e-01,8.643509308764485422e-01,-2.653437864121189760e-01,-5.748684853674946860e-01,-7.018884208702614869e-01,5.139140044631890225e-01,-9.329262723574419658e-01,-1.000408778406419175e-01,1.725770953858822288e-01,-7.956347503839865665e-01,-5.031876111602373580e-01,-1.314392017902310805e-01,4.661503094539573566e-01,-4.913176335446385878e-01,8.634366637293862112e-01,-1.287406922243753971e-01,4.668664054900646954e-01,-9.804743002581899070e-02,-3.648951100094134370e-01,-7.405487599720811387e-01,7.853190231733800930e-01,8.635466066073369529e-01,-7.608178176551418925e-01,7.570413908322997099e-01,9.876459941685665767e-01,6.754700133863763556e-01,3.550337312364138520e-01,-3.634059435046919639e-01,6.832384792017400788e-01,-1.007522205864175430e-01,6.650857349536566376e-01,5.852329651163828972e-01,2.771288763290359336e-01,-4.605337420791326686e-01,-1.168380545386676350e-01,-9.291933799959037898e-01,8.104291626529200876e-01,1.427837218430534627e-01,-6.472990497236515983e-01,8.101503524249768773e-02,7.270461989139715975e-01,-6.301183016305408335e-01,-4.990590779107326180e-01,-6.389273393988759153e-01,-3.816549077401260592e-01,5.814423421151292404e-01,8.265384375377798909e-01,6.506614717334839593e-02,-9.391939671811453394e-01,4.885529617778895939e-01,3.909774010041378034e-01,6.178162365932569067e-01,-2.041732132687991141e-01,1.464492866452197228e-01,6.047824465170031916e-01,6.975981312234951215e-01,2.979901373390335673e-01,4.367642645221637143e-01,8.565251498320708770e-03,8.249077333292135217e-01,6.753287859236373203e-01,-8.998527295148200933e-01,-7.846037930328968457e-01,1.888864112691804042e-01,2.877095972016181502e-01,-4.496821244369787474e-01,-9.064164998157783204e-01,-7.289248940332272442e-01,7.889793071187184426e-01,-3.409107910133058472e-01,-5.617320261733755871e-01,8.370600090755069000e-02,2.715787698398081096e-01,7.093002855682972729e-02,-3.553716248413579248e-01,-1.682270275176531993e-01,-8.883140016971337038e-01,4.737385115975275007e-01,-5.932277225842990109e-01,-8.377912567400438437e-01,-7.452946120756166470e-01,-7.474620973692728265e-01,-8.115383840918298786e-01,8.862690217930450087e-01,2.251949276885527318e-01,7.924899615474054748e-01,-5.420667419607090309e-01,-3.940967369618898486e-01,-8.659262061880400596e-01,9.654591457001592270e-01,7.854830649361814743e-01,-5.467880889079883566e-01,8.969455194090596439e-01,-4.869032149806196141e-02,3.009230526587737264e-01,1.201171200701421915e-01,-1.130884077610792016e-01,-9.571901282785983955e-01,-5.246249944914973540e-01,-6.463718310353778751e-01,6.359042031293108410e-01,9.109980166434773485e-01,3.986066880465997664e-01,-7.453193754833611351e-01,-7.023745705719078858e-01,5.254985893671167974e-01,2.738648186963912878e-01,9.795676198618135100e-01,4.524708508147072261e-01,-7.142915518039402167e-01,5.060479205771176714e-01,7.501944973182164134e-01,9.041994103020845053e-01,-1.580688715597611260e-01,-9.216541511845863788e-01,-8.487187583052294704e-01,9.536124062844563154e-01,-8.875738111427146082e-01,3.121176928925677441e-01,3.990529088671157520e-01,2.437103511158232941e-02,-3.905719542979761427e-01,-8.721063466391212327e-01,-9.233799611111795924e-01,8.744344566424581133e-01,1.422482594409931744e-01,5.583282956506363526e-01,-1.086307383681581612e-01,6.549127136315959774e-01,1.170776714334317292e-01,-8.081269011492547838e-02,2.887865451115997351e-01,5.383096394153082942e-01,8.137012657430858775e-01,7.808777264862143408e-01,-3.311700203341710891e-02,1.375395942922714131e-02,2.688984161915430882e-01,-8.014578155453112585e-01,-2.133926689775862695e-01,8.553768115822676377e-01,6.813971936986518152e-01,6.994725824447258766e-01,-6.669168425481626361e-01,2.901337989800735762e-01,-2.661702382596164290e-02,-9.715939933927654204e-01,7.496466633911805788e-01,-5.241993166392722170e-01,3.795851187568446417e-01,2.015609175158927791e-02,-4.796545522622478464e-01,2.126762862300212997e-01,6.405207824570499087e-01,-3.515297145871244117e-02,4.470564356232911152e-01,1.870230047506351301e-01,3.099746071626686694e-01,-7.544263117582169498e-01,-9.056462403603749989e-01,-4.961103479328212718e-01,-4.498414407151676842e-01,2.995077231878293111e-01,1.526162301912514230e-01,6.173807862258228196e-01,-3.213551574919832343e-01,9.278619147048184912e-01,9.129832880140533735e-01,1.329812784601703546e-01,-4.363726416992958490e-01,3.058243390969619946e-01,-8.830513291055543945e-01,-4.552272343979071878e-01,-1.667721500373036403e-01,-4.492873801584144067e-01,4.954321020708401524e-01,-1.977835001168832540e-01,-5.170154287265831261e-01,4.881843524018412983e-02,-1.023040559494211715e-01,-2.084501556163466107e-01,3.175061549277412298e-02,-2.352297110943353253e-01,3.906439771789608217e-01,-7.031725322315325322e-01,-1.905334147827056346e-01,-8.863856233532706186e-02,-2.505668476839234549e-01,6.999020624996298290e-01,-6.844057845841438059e-01,7.671677703964978612e-01,9.452054039112700590e-01,5.298478543188868406e-02,9.277390114685496458e-02,-4.047104196017935474e-01,5.388061870298485045e-01,-4.197244124010942046e-01,2.718270019270911386e-01,-5.749922918548935336e-01,9.000408526828989828e-03,-9.432823857379499799e-01,4.942412326075566464e-01,3.205501486556769364e-01,2.448906622278052003e-02,-5.511223049002189622e-01,-9.298907132837141987e-01,1.956500106055286126e-01,-8.459275984893136480e-01,6.390212476471949232e-01,-2.431180632361880922e-01,-2.524346238939324111e-02,7.565998087089036428e-01,-3.542196782864797111e-01,-9.803109038959179067e-02,-2.907570400707529812e-01,7.239026728267380362e-01,-7.864978012855440292e-01,-9.340378749675304348e-01,-9.957537351603520381e-01,7.098031696807876462e-03,5.145955481142679977e-01,-4.260223517127766923e-01,6.042909779096535816e-01,-1.076641455276501347e-01,-3.897433062196480891e-01,-6.135901253486659712e-01,7.095551917349818272e-01,5.722991557470916701e-01,7.494672611838310017e-01,9.371270272496982079e-01,-8.202468333913488507e-01,-1.249935009625654514e-01,8.783286068174006589e-01,-8.986903802023702426e-01,5.830457947662837093e-01,4.017060646857181783e-01,8.765503457705497992e-01,-6.260523873674807005e-01,6.649784826129525594e-01,8.652390488913230815e-01,1.071650528184922013e-01,-4.357348290207065933e-01,2.800604291984954974e-01,5.081673431461394275e-01,1.004835595529357528e-01,4.859942352043715719e-01,3.971224371120111729e-01,2.214931443941796085e-01,1.426258037240109300e-01,-5.613139922252325942e-01,-8.906567704625473203e-01,5.674224180127526163e-01,-1.461390621260529599e-01,5.887138773050031720e-02,7.947345008946026246e-01,-2.072181220801585545e-03,-3.742314123031214579e-01,2.591278607756634100e-01,-8.451205649979831591e-02,6.586716799910566356e-02,5.839918607692086150e-01,2.774276558400023962e-02,9.878780724899863808e-01,9.131166678146082072e-01,-7.464518180308231665e-01,1.329733826854057610e-01,-1.580042232521047590e-03,-2.440942576873180447e-01,2.941250470376234327e-01,-8.912426407587816790e-01,9.724012675791204874e-01,2.945174334156155371e-01,5.071086311163554017e-01,5.191404265386002637e-01,-7.526582237251778773e-01,2.757121256081998539e-01,-8.756786087436011501e-01,9.918244140735923420e-01,-6.254988465761097682e-01,2.362484474449784433e-01,9.394031361746103537e-01,-2.829356955566120768e-01,-6.511489864350026302e-01,6.276680383687888165e-02,5.262026028750605988e-01,-2.879309792164034820e-01,7.906985621925221031e-01,-3.610090588079024054e-01,-8.018536420985542534e-01,5.743040576447159262e-01,-9.996361045803049405e-01,9.125002339531765871e-01,-9.470735289366349896e-02,3.865934969080644630e-04,3.992938555575819559e-01,8.933339293145937665e-01,-7.608162359148656906e-01,6.935557840958064268e-01,2.840469702562797849e-01,9.101282544177256018e-01,2.299196808105127277e-01,-6.525750422818762941e-02,5.032754551022321499e-01,6.539392007116155980e-01,-1.017049665694085697e-01,-1.123295709972632270e-02,-7.741601792487080580e-01,7.696573359941639714e-01,1.652412231634219908e-01,8.176925332425605264e-01,2.645337158992572268e-02,7.351301116494736165e-01,-3.116376523281783051e-01,-2.877172214834734509e-01,-1.906920140008551701e-01,-5.911863667832910341e-02,-5.590697152665508041e-01,-1.114708579538144229e-01,2.718978970126190720e-01,3.661079533886605897e-01,-4.670411199951988168e-01,8.270568204389527889e-01,7.042439550399378634e-01,-8.515307126509392976e-03,-4.892177145078701606e-01,-5.170611186255046066e-02,5.806365332783488542e-01,1.299798021223612654e-01,1.257400378528629736e-01,-3.425322463607646251e-01,-7.926246931661194983e-01,-9.858437782744056133e-02,-7.907864115322533749e-01,-5.278433651633245294e-01,-7.362150802290292617e-01,-8.030000248913754524e-01,5.954786021226766701e-01,-9.799500076175012842e-01,-1.097147269981912227e-01,-6.740134982960744869e-01,-8.340850942191062323e-02,6.690182345051893797e-01,-3.424527437274853259e-02,-2.301165013413934146e-01,-1.285449048530904470e-01,-1.724832058560873127e-01,1.968365447285826408e-01,-2.629287418819209465e-01,-8.017622350480507754e-01,1.229248864660611035e-01,9.459873857779889095e-01,3.712240175004321574e-01,-4.328241861720524275e-01,-9.878563762681057403e-01,7.011199377415310297e-01,-5.211662929895660712e-01,-5.543274722218451966e-01,-6.472921495929642166e-01,-9.090654114324220325e-01,-7.178209530352569478e-01,-4.823418477243449076e-01,-1.760258015459090775e-01,-9.544968691147204254e-01,1.502550212896725315e-02,-4.863287606909830751e-01,-1.701468233087705395e-01,-6.749454658193803080e-01,-5.057211621467933710e-02,7.741307674634505531e-01,8.039467172722709609e-01,1.686697339990548550e-01,4.351840059368140001e-01,8.249297278522359500e-01,4.055844062368329506e-01,-9.749749524877782125e-01,-5.790425530051074299e-01,-1.106599204361500138e-01,-2.253325349567892114e-02,-5.141841956727414287e-01,9.182257194633184350e-01,-4.049607631227062909e-01,2.859731640634081695e-01,-1.337831111933496520e-01,7.235111422696072214e-01,-3.139276683557917780e-01,7.733920623459360488e-01,-2.189103412805886162e-01,7.576757644204268338e-02,6.945638583659277110e-01,3.135946050857713607e-01,-6.504812877486837452e-01,-4.125514769151190642e-01,3.648550200427864293e-02,-3.421474273995807058e-01,1.666678442647723524e-01,-2.382642617035345411e-01,-2.135862774436154965e-01,2.379678518113068908e-01,6.892348112590678255e-01,-1.481868952324059963e-01,7.964621498326803772e-01,8.636318726481776453e-01,-1.056207468129132659e-01,7.423555894286225643e-01,-9.011926462567607654e-01,3.073848805914313753e-01,-8.647744062574108659e-01,-7.815023337730629960e-01,3.724329286736811073e-01,-1.554280827023698242e-01,7.480660315748097755e-01,2.163871552852535962e-01,1.901916977533595621e-01,9.727751249095056840e-01,2.312580310354681867e-01,-5.551861747464774677e-01,-6.916616643329048797e-01,-3.183195968503474971e-01,6.562178317378578596e-01,-9.041622873773974556e-01,-3.186668105977721321e-01,-6.368354887969951417e-01,-2.205387934098050062e-01,1.464625924498208775e-01,-2.658104346132943996e-01,6.412004914798742627e-02,8.205587933123543731e-01,7.059030969752490003e-01,8.324058335661089769e-01,3.184886473231524073e-01,-2.140569114436636777e-01,8.788036291585608062e-01,4.406303172071741048e-01,7.728983379407088350e-01,7.680170179002917541e-01,-2.408880028444554955e-01,9.151279097248367078e-01,3.969149622850089432e-01,-7.886635777122613655e-01,-6.231999805604797604e-01,-1.661069280711486018e-01,-7.065316850665793735e-01,-5.243847456031468512e-01,-4.085642426004507111e-01,5.081874967434058671e-02,-9.995252610540206195e-01,7.764425829195757967e-01,4.922548717443760991e-01,-9.259244965916599845e-01,9.341618849409124570e-01,1.832830054306066880e-01,6.785889276350118848e-01,7.745736800480301776e-01,-2.485212624424650019e-01,-7.459639372119187817e-01,3.262235787050328795e-01,-2.811100374979899064e-01,-6.310910992014476806e-01,-5.664478392674422436e-01,-2.579156309155898330e-01,7.780277425842576644e-01,5.848990866384917720e-01,6.395753070959991904e-01,7.114623362893103264e-01,5.304561861653406263e-01,-5.620345968853371899e-01,9.353486559333751282e-01,-2.241482124598080106e-01,8.283542581623988266e-01,-3.747365609393044084e-01,-7.432125864275035410e-01,-9.794055052431054342e-01,1.600275518061261837e-01,7.807437567756101426e-01,4.551775151608062897e-01,3.863297680327615891e-01,9.875943289011540616e-01,-9.922482522812353656e-02,-7.658786984197420988e-01,8.118297107758919440e-01,1.856941682360046739e-02,9.149735984752699336e-01,9.460408130895433532e-01,3.753784914833879771e-01,8.661394109802231789e-01,3.598958634831713743e-01,-5.031073011917360782e-01,-5.021332991046902894e-01,-4.439885276820481064e-01,-3.790936915411762254e-01,-5.597164498150372092e-01,4.496419347565842051e-01,-3.302232490646351826e-01,-3.305754051646359049e-01,-1.232031831214149137e-01,-1.257864458426634635e-01,-5.810771941766701421e-01,-8.645070145238010761e-01,6.761893605390566497e-01,-9.309399455599497442e-01,-1.970150586046642838e-02
