6.687468050473939218e-01,8.153155354807117838e-01,-7.712195251719832223e-01,-8.209220792921806398e-01,5.648480128774830966e-01,-2.464177765048399249e-01,2.447278134695500262e-01,7.468485387581376145e-01,-2.755234106887405332e-01,-2.788230500627193464e-01,-2.094548830036696563e-01,2.258138605388350373e-01,-8.085077892656250542e-01,-3.659275609353328518e-01,-4.035718198152704050e-01,-3.411789558907047382e-01,2.039422704359825922e-01,-9.677065664939664691e-01,7.086032904080517003e-01,5.879955443508503299e-01,-3.321148775208614401e-01,4.402001392199892948e-01,-4.358435303397814042e-01,8.129306751099388828e-01,9.996274750616100935e-01,3.021921608856807939e-01,1.727390649179594839e-01,-2.982152463462102443e-02,2.036789670924843143e-01,9.414120796028890847e-01,3.929954111813347972e-01,-6.687298588379021469e-01,8.297997683386637569e-02,2.268316402070862381e-01,-8.194888441421495084e-01,-1.041596379616429369e+00,-3.895335310182747035e-01,8.773827060683512258e-01,4.716267194321329681e-01,-4.981303112891028451e-01,2.091567660182008515e-01,7.631119996943764860e-01,-5.180541149101797194e-01,-7.584448031917891964e-01,-2.154117500912395011e-01,5.067161963737980557e-01,-4.202597434521999631e-01,-7.565097591192824211e-01,6.255062862681713964e-01,-1.072734398061406802e-01,-9.630117162693453414e-01,-8.429603677716890342e-01,4.496072307732196793e-01,-1.431845657816044892e-01,-6.678242354352892374e-01,3.589157173972397641e-01,4.807436091711349002e-01,4.376843563953177196e-01,-4.092204250388906672e-01,-5.726603577060144223e-01,-6.731350696923774635e-01,4.125890238003094845e-01,-3.977899757180303197e-01,2.626431473994201779e-02,-3.190816367525284858e-01,-7.664968869876147561e-01,1.403478919359973376e-01,3.916609183011467987e-01,2.842584136459258004e-01,-5.016699382852133349e-01,-3.433818768578102837e-02,5.710505083908304913e-01,-1.516728725218942642e-01,6.324285773489836116e-01,6.476528166179903456e-01,-8.765140774218779240e-01,9.091621383621290020e-01,6.883712460524341603e-01,3.910725689841601516e-01,-4.178378341387602446e-01,-6.114841520223772697e-01,-8.595439960171841198e-01,-2.345412262803391323e-01,-5.119801111725229559e-01,4.198082684182247726e-01,-7.875370560951692189e-01,-4.184758163795214148e-01,-7.502498552906747831e-01,3.360346000762399199e-01,-7.736544432233296575e-01,-5.122902788733024737e-01,-4.871466210656601875e-02,9.373629266029376295e-01,-7.762938554656223511e-01,2.928181602535579464e-01,-7.304972360197263814e-01,-7.001526089348425463e-01,-5.247259657266911681e-01,3.155861906611253653e-01,-8.495127590114998073e-01,6.416688057303310266e-01,-3.018978863336626781e-02,6.243628123860335277e-01,2.939767940491427312e-01,6.249246924322551244e-01,-5.676062268824275669e-01,-8.083989746314813596e-01,2.652740823492870104e-01,2.209637754270958043e-01,-2.857233894271870578e-01,3.819229365506689455e-01,3.374724924300814832e-01,9.336113426997623144e-01,-5.317913157806718472e-01,-2.974872057727325769e-01,5.079083338557914828e-01,6.481591300455187277e-01,-7.815258343626675375e-01,-6.524849758981096093e-01,7.505974862745064084e-03,-3.455443068200172441e-01,4.568915510936075175e-01,5.305368409682081898e-01,4.393859156767444540e-01,9.092847581285982139e-01,-4.093855886867137639e-01,-3.650389533546532506e-01,6.003300584579209787e-01,1.683237312501786875e-01,8.113224296411024605e-01,-5.866728202020637939e-01,7.150633502606393854e-01,3.333506944399606819e-01,2.305086301802976301e-01,8.381101242328409251e-01,8.958901514250665610e-01,-5.345402711037470223e-01,-7.377785542023440613e-01,-2.255073936330893036e-01,5.159131041248686822e-01,9.467125391237697363e-01,-8.682148164719957206e-01,3.704767215009038273e-01,9.338242858797211055e-01,8.391641895032239118e-01,5.047078873241525043e-01,2.670291494899632023e-01,2.923751255123639980e-01,-2.460731548324095741e-01,-1.717975394408534362e-01,4.900217572498428709e-01,-3.806028966085242549e-02,1.003538491712976821e+00,5.954028153991156591e-01,-5.127296457354291181e-01,-3.593583330534896869e-01,3.833781277945583765e-01,8.185216389850664687e-01,1.014805133246983848e+00,8.271381239161191834e-01,-2.110276366827101291e-01,9.517326145701491269e-01,-2.667484447439701367e-01,8.471845859738194595e-02,-9.014825599270555045e-01,-2.813160902238419706e-02,1.201645837127117700e-01,7.948923099595883723e-01,-5.478815095251811096e-01,9.588522276065030159e-01,-3.155834494013189939e-01,-3.302389563416786161e-02,6.856192207174161002e-01,-8.296042309753883792e-01,-2.443446197358350742e-03,1.703921764386099880e-01,2.645834536624815936e-01,-7.160400611704199614e-01,5.386439389369800379e-01,2.779847277790588045e-01,7.856150770154671781e-01,9.075985926128805614e-01,-9.907190833255731244e-01,8.067408254951036195e-01,-2.971501643280602956e-01,6.351220331330580393e-01,-8.585537056804730394e-02,4.745606215833511610e-01,-3.609153384403693265e-01,2.565325497450389736e-01,-1.059461284252400173e-02,-9.899045377897081055e-02,-5.135320551581511461e-01,8.468068330200260174e-01,-5.720934311200052136e-01,-8.916883916520570441e-01,8.584821283644776813e-01,4.279735442564297498e-01,-4.059274805891256444e-01,8.977190534714022396e-01,-2.052272901966725460e-01,7.608606599033965745e-01,-2.305521379353120126e-01,-6.128577782711561728e-01,-2.226992991101441055e-01,1.523391711654739911e-01,5.140166276215266672e-01,8.342266929901290817e-01,-5.209330343975372424e-01,-9.011224868468197258e-01,-5.011919978102109541e-01,6.878985856277827216e-01,2.249753417297574443e-01,6.858938942950386641e-01,9.548200084730215642e-02,-2.511671997976073767e-01,-4.298061967826025676e-01,-1.531829725588426394e-01,1.037720876444348829e-02,5.164352148058616310e-01,9.625266048106507766e-01,7.297650909804602737e-01,-1.944705504435308707e-01,-5.305587608653338227e-01,-8.239689213354933761e-01,-2.139879127367548262e-01,2.494617440886607307e-01,-8.937259033311814038e-01,-6.737212999742954456e-02,5.938518905733591868e-01,-6.762282017681228163e-01,-8.036615018036422642e-01,-4.952773596704505565e-01,5.008398488252616687e-01,-8.442109548927844154e-01,1.191438013563871773e-01,5.952447112745135049e-01,-6.261927170544906440e-01,-8.576360687767967672e-01,7.422279022632551904e-01,-6.983176016667548280e-01,5.164562844071578507e-01,5.244254898668299081e-01,-4.526509325025182551e-01,6.387713759051947271e-01,-8.734445495577193297e-01,-1.045400800088947868e+00,-1.888826656889231181e-01,-6.390596627113184214e-01,-9.945576452360221920e-01,2.224767316847311160e-01,-1.784657947652388554e-01,-7.264209872206073282e-02,-9.301867768772661416e-01,-2.582512155005028398e-01,2.009977200948315224e-01,3.822297769873381212e-01,6.451293765990099294e-01,-5.590692618510743200e-02,-1.003517898024659738e+00,-3.088134680002453392e-01,-4.527980809434757892e-01,-6.252185829794600913e-01,9.510103155018591048e-01,4.535780224173182051e-01,2.813312304825813515e-01,-5.099111983915365354e-01,8.738589896076275343e-01,-6.899928530852911246e-02,7.930386965322595572e-01,-7.234206806329366302e-01,2.642754664319614255e-01,-6.432022825856978931e-01,-8.832128738173125049e-01,1.025940059953499989e-01,-9.425289769365872983e-02,1.183305065811521145e-01,9.116805856035036237e-01,-3.398526134848787184e-01,2.324516055746429222e-01,7.650566523671670227e-01,2.794758779981922070e-02,1.488638597422165255e-01,8.211973619052524986e-01,-6.020507646612489605e-01,-4.712034674927805256e-01,-2.292220037144630795e-01,2.401962221358021621e-01,-9.889879110163694864e-02,-5.534989650907262693e-01,4.749554928452171532e-01,5.651553542445856282e-01,3.959173606519926780e-01,-3.197364912854674390e-01,-5.678661512442600978e-01,-2.203748491752061389e-01,-7.740744719494647708e-01,2.704467104053380755e-01,6.230250736206301987e-01,2.021567602323898760e-01,-6.834526405580036990e-01,-3.364728566023101886e-01,-1.532880144040612014e-01,-4.992832909175753953e-01,-6.198056527346128552e-01,2.460165271079453042e-01,-2.735230685989397670e-01,2.755192878656171143e-02,1.516518999111607091e-01,2.127272837649085979e-01,8.229090482995627953e-01,-3.221590160587227691e-01,-1.034438052489637050e+00,4.513141679853243660e-01,2.261824278610851391e-01,-6.755475197357562189e-01,2.558563927509834857e-01,6.678246953382260820e-01,1.556951266991103977e-01,-7.064651118605095315e-01,7.045220442732519350e-01,7.579290305322082533e-02,1.440100964851226129e-01,-6.469836994022476473e-02,6.177996423916417568e-01,9.121575096543853567e-01,-5.154952478439898123e-01,-5.873649504613362993e-01,-7.933458576262533146e-01,6.969231027780812271e-01,7.754449372705781718e-01,-8.795135188609557453e-01,-2.721868748533190496e-01,4.135443030328967984e-01,4.518108158718642797e-01,-4.070948006804588765e-02,-3.110335294328475664e-01,-9.478489515271000532e-02,-7.540221544141302579e-02,-6.620354734055564627e-01,-2.489678554061413585e-01,-9.467990088543747351e-01,3.499540625769785585e-02,-1.681668191993951345e-01,8.536197635693242025e-02,-9.114357762842588695e-01,-2.781736544707714143e-01,-9.094867238897025308e-01,-6.374070434934590024e-01,-2.795440494878153603e-01,-7.555825340390177614e-01,4.109042865114277965e-01,2.518228875161853536e-02,-5.358709055602549620e-01,-9.661090062008839685e-02,6.382963454268295589e-01,-7.274975057920025912e-02,-5.465349694963668181e-01,-6.642415366583680481e-01,2.357685696846654189e-01,-7.514445300778380687e-01,-5.477215376003860547e-02,8.693659916121047049e-01,4.017282040495934181e-01,-7.010241331382367491e-01,2.438317439807509979e-01,-6.801594715368095567e-01,3.221118571072740244e-01,5.068563203273639406e-01,-7.068250465983069164e-01,-6.827571402360596564e-02,-2.146491555615570868e-01,9.037149527087083856e-01,-9.871184589181620783e-01,-1.032156206367265572e+00,-1.818342214556692427e-01,9.169937024401596526e-01,6.882097766950717732e-01,-6.764085115276139426e-01,-1.436371319296549792e-02,-9.205515651173666880e-01,-1.717653331580471510e-01,-9.648627238880465307e-02,-6.479313082060842444e-01,8.811447581259950201e-01,-3.033364659209963898e-01,2.915848831215491210e-01,-7.327273958613860216e-01,2.887809160762697669e-01,6.752097134355647956e-01,-4.647843588165297968e-01,8.492040165538601304e-01,1.030451736660460520e-02,3.931118791221508424e-01,9.130060697782307888e-02,-7.558122981958186049e-02,-3.621239744718608433e-01,-8.599386960747115172e-01,9.114807991587831060e-01,6.247107436146382975e-01,2.794670782375181517e-01,-3.060331562188278731e-01,1.204251164922211514e-01,-4.319552870892627849e-01,-1.291537495074122632e-01,-8.208710255163081948e-01,7.057387730087874012e-01,-9.549115835828301257e-01,-4.428171903128425707e-02,2.837921301059371237e-01,7.334364222329969873e-01,8.693696044127833256e-01,-8.377625420471037643e-01,-6.730159917042977114e-01,1.016025491174012307e+00,-7.132946809565627877e-01,-4.787641708448771571e-01,-4.853468214226356325e-01,8.009030295602358462e-01,3.283041467264114499e-01,-4.824458838137434258e-01,-9.216185934822647141e-01,1.500420370954196336e-01,-1.096243636833176688e-01,7.647971515511491347e-01,-3.264970163330600111e-02,4.972020440236796235e-01,-1.558460244827084284e-01,3.563459323669040946e-01,2.010573316057635007e-01,-8.507964499122306901e-01,1.084718782418738967e-02,-8.122322277919151734e-01,-5.079011374060022899e-01,4.319584965357167183e-01,-3.168164641208206511e-01,1.902036341342249748e-01,-6.552698344883890746e-02,-8.798237667817490060e-01,-5.496191380794808179e-01,-6.891491318471552052e-01,9.102448268549493404e-01,6.459175030881932900e-01,3.289553441404800826e-02,-4.986386435650825288e-01,2.799773849610647791e-01,-3.674583570722795844e-01,2.339625775380904937e-01,7.357031233334203613e-01,-9.765681652677475899e-01,2.530952064017201741e-01,8.861618334396087482e-01,-6.184724455197294218e-02,-4.139768903336333294e-01,4.484163576131445228e-01,-1.960354066910071844e-02,-8.936918255571713043e-01,5.090584272490245032e-01,-1.182740117201928065e-01,-2.642960830501587810e-01,-1.927275926960844987e-01,4.723963156505641137e-01,-6.903233608182433034e-01,-1.580087941988820785e-02,-5.871380530349342708e-01,-1.096665382977306674e-01,-7.240131584695067568e-01,3.199763278992894810e-01,-4.266646098183374258e-01,6.257199518301677088e-01,5.849556609213099057e-01,-1.095249465974372088e-01,-7.775317240029209209e-01,6.754149103890879635e-01,-8.463139587917667406e-01,4.997488160260374901e-01,-4.299100349452448233e-01,-7.691358253007594126e-01,-8.907641649695093866e-01,-4.590412058474890311e-01,-6.268859871245366921e-01,2.638733922385609887e-01,1.275461811102157617e-01,-7.058508500332097424e-02,-7.366985564979258161e-01,7.672450581172493012e-01,-4.448987430701540902e-01,4.700997616908666465e-01,7.922905824192546520e-01,8.674447609150592875e-01,8.520110112526956270e-01,7.170662759201376080e-01,1.845842094842669798e-02,1.551413111029961989e-01,5.165562195385683952e-02,2.656486732139133888e-01,-8.203378098161241416e-01,6.170822767700291367e-01,-2.700536081260911797e-02,7.105104957558222578e-02,-2.295562124129207071e-01,-6.324511018037363153e-01,6.256285699605659278e-01,2.041131490640889501e-01,8.400962795825787088e-01,-8.910600163373640081e-02,7.821708908737623478e-01,-3.275925398537629651e-01,3.167292345763906419e-02,-5.603917413422395549e-02,-6.696029156582665731e-01
-9.001174703937077082e-01,3.727659172325294423e-01,1.344770425798376412e-01,-8.064810945406373222e-01,4.192046126435427511e-01,7.641976555641216695e-01,4.587196457489179924e-01,7.349675279051474108e-01,-4.797840060607128088e-01,4.939021178099594622e-01,-8.464464998367108306e-01,-9.569733314789070633e-01,9.854981235638499149e-01,5.426836234039730256e-01,3.774706335092072873e-01,-1.320313937634419732e-01,-8.002458251141806311e-01,-8.611507120337985599e-02,-3.625089360372065195e-01,6.457352227160270686e-02,4.810227506013244891e-01,4.294006378296365556e-01,9.180215818964855279e-01,-2.526768359980674505e-01,-1.357291094205236026e-01,-1.487876065161782835e-01,-9.452830943170106304e-01,-6.795265914913199701e-02,-4.244231614165485666e-01,-7.561165311614626017e-01,1.319827023594190296e-01,-1.507898950160867779e-01,4.230752109371921366e-01,4.633479296202459019e-01,-5.107638526558184733e-01,4.431818461161183414e-02,6.550980797943054545e-01,3.745670652686702851e-01,-7.171288652635059435e-01,-5.925899922632438255e-01,-8.072415817097114976e-01,1.288986733406146667e-01,8.587299263350220979e-01,8.863968033095859234e-01,5.922089502500803571e-01,6.511310142077328944e-01,7.645997196551566066e-01,4.174588694663946553e-01,8.685452833871057932e-01,-6.371588215451412518e-01,-5.093613241153348570e-01,7.497220406011740890e-01,6.450718914556041739e-01,-5.506364846952866987e-01,9.225205733349935988e-01,-3.822143862400448899e-01,1.019303517293788514e-01,9.019634883166887107e-01,-6.492048286923744749e-02,7.597062773542460901e-02,-3.423761534216670510e-01,1.001327071521915801e+00,-4.371382854375386318e-01,-8.546799125062057856e-01,-4.087480011682810277e-01,2.843692147374254908e-01,-9.325793168113674092e-01,8.736538187320009863e-01,-4.078565205242022373e-01,9.304497483925663337e-01,-4.945016359158612151e-01,1.333979351605773384e-02,5.432382289795257835e-01,-7.827532270428817496e-01,3.107695160127311729e-01,-1.151835016092006697e-01,7.693155537387623699e-01,3.501605586557416938e-01,5.900334375412031873e-01,5.753550109670738655e-01,-1.580430917269660118e-01,7.401637137577102843e-01,-6.264140836516038924e-01,9.048868183359995987e-01,8.501696294748704863e-02,6.455403654645069933e-01,4.488320130534296792e-01,-5.242423621597440686e-01,-4.431232573618082982e-01,1.663082267036419259e-01,7.641272411650102958e-01,9.079820467106785031e-01,-4.313450832244493660e-01,1.198826435824154046e-01,3.848994540937711317e-02,-4.219925890284412923e-02,7.905545764466394010e-01,6.387039613709811769e-01,7.687719251587064040e-01,1.128643123776907203e-01,7.980027136671851151e-01,3.363842386821124797e-01,8.291512663404364547e-01,8.239672532043386122e-01,8.710315335254575908e-01,7.563940797790484893e-01,4.471815163976597951e-01,1.345915710314262992e-01,-2.285776213785587763e-01,-9.987588479010399700e-01,4.586608442425171295e-01,-1.028237910147350442e+00,3.794065606636443100e-02,-5.371173000205826664e-01,-5.804838022690375077e-01,-5.835608220063049911e-01,-1.622664325313710187e-01,-3.571020517598726962e-01,-7.741340851226725661e-01,7.828465231472794272e-01,3.439456798477274480e-01,9.189892700085088295e-01,7.859737513063811409e-01,4.805969642318956292e-01,7.760795087678766802e-01,-6.358733762596368022e-01,5.330046981935390171e-01,-1.717625714245162583e-01,6.176493481123539880e-02,-8.642029450721405714e-01,-5.128254857637996045e-01,3.113040445480143026e-01,4.650727399906398607e-01,6.647409578951302134e-01,2.029384026245412420e-01,2.183658449410684765e-01,-4.506431722750893210e-01,-3.687939795023873479e-01,3.624271668585517525e-01,3.923656074872304278e-01,-1.392350289687477316e-01,9.324401316228037029e-01,-7.292092752367970165e-01,5.330052921675390021e-01,-5.406465513068564599e-01,2.515595157512723890e-01,8.667731738992217050e-01,-4.485763409696955639e-01,-3.358667503497193563e-01,1.505344642004292355e-01,3.686159765632352481e-01,-7.817522498198827829e-01,7.217011184461047391e-01,-4.236481237190864446e-01,-3.424847473791777230e-01,2.164243424537221627e-01,3.821804675400778395e-01,2.295167751737052786e-01,9.365184312098576713e-01,-1.819225416739312373e-01,6.807072080106043588e-01,-3.056471552733090458e-01,-7.039353066811691040e-01,7.814043150673798399e-01,-5.093337634444662365e-01,-3.021998559111713778e-01,4.630866987683648905e-01,9.199899710323765634e-01,3.167541522303936596e-01,1.550550530208807121e-01,-3.728038828138748317e-01,-7.871815881113650715e-01,6.536535977835046252e-01,-7.483007572633475490e-01,-9.245542779722184523e-01,-4.775909584512167960e-01,-8.750587217938972096e-01,-1.669946050515466185e-01,1.927160963013938300e-01,3.910857445187618797e-01,-3.443102294117346140e-01,3.750756021857006850e-01,-5.732974932258371181e-01,-2.103902083203687268e-01,-1.296121799280711140e-01,-8.858724923881914348e-01,2.121175335334488446e-02,-3.249087697564109201e-01,-5.258756895253356017e-02,5.077351890608504670e-01,1.034375740702168978e+00,-8.527250009708244871e-01,1.344930709940007907e-01,8.209265484954156866e-01,7.363161625170132341e-02,1.013720530377919954e-01,3.159832100066213845e-01,-5.281450065496023916e-01,7.556903281475665368e-01,-6.920557161872330498e-01,-1.540019215714890852e-02,-7.517446298998780030e-01,-5.178682352527347321e-01,-7.013600194787793229e-02,-3.645154826813187254e-01,-8.428040914793627492e-01,4.890157581463454584e-01,-3.762099180320093161e-01,-7.251213076785932854e-01,8.344946590098498707e-01,-8.413184527627254328e-02,-8.390892794743221028e-01,1.108450058503157309e-01,-8.070844767462160840e-01,-8.124071954828127051e-01,6.071211446937757605e-01,5.764039651212612414e-01,7.518302427637244545e-01,-3.250858312881900469e-02,1.420350389650656964e-01,7.101727036959034622e-01,-8.774011060879615131e-01,-4.843127510576385880e-02,3.161795777157480614e-01,-7.838234599150259996e-01,8.323558310725907017e-01,-4.796038089023583195e-01,-3.683884377335376326e-01,1.782159270941020002e-01,9.958482938837686094e-01,8.933079161004828239e-02,-5.679224416859979946e-02,7.957646986472620698e-01,-4.427404366265479396e-01,-3.494824681845716818e-01,8.362309491446316967e-01,2.054967464030858226e-01,1.335292845476433038e-02,2.954975623578810426e-02,8.597082474042461175e-01,6.441778325697384844e-01,-3.413371798836819515e-01,-2.715979941366131745e-01,-5.271169190462468013e-01,8.687408901902856639e-01,5.859287030574971133e-01,1.029316421588370556e+00,7.066287285471467561e-01,5.424524876232218462e-01,4.975742131098515597e-01,-7.376404347944337525e-02,5.415159311742286929e-01,-5.112604115528343041e-01,3.291232950468238050e-01,-3.647992304403601671e-01,-1.890730477837020140e-01,-3.855015692153878071e-01,-6.918800231567235892e-01,2.709917825166247018e-01,-8.371539123149728256e-01,6.867680786203460563e-01,-3.732660750408278716e-01,2.859345301695089270e-01,-8.655873992732595612e-01,6.014698725872229534e-01,-2.243162496074224410e-01,4.525102258435653169e-01,-8.154640281055252071e-01,1.388419115415877869e-01,4.346807647756265047e-01,4.637802640524955888e-03,6.426821799434971894e-01,-6.487358018622451095e-01,-9.597431645149974155e-01,-3.630761909113263131e-01,-6.449219554209714156e-01,7.065716217687512124e-01,-9.169157583032868652e-01,-4.207088164922913043e-01,3.716419180324768701e-01,8.896398329469628052e-01,-2.192830202087889535e-01,-3.934855830023898937e-01,9.711090684752348157e-01,-2.523407384161475142e-01,1.568117501625746618e-02,-8.808329876878326914e-01,6.424728634109024838e-01,-4.694669128873997788e-01,3.785267174077324714e-01,-3.055686149842036792e-01,6.234845358193683573e-01,-9.099409727316424279e-01,-1.435549118648200284e-01,-1.839378009606789655e-01,3.522402095568198943e-01,-6.068691212637254973e-01,-5.228845768276207950e-01,7.089267080534976673e-01,-4.166970049447129010e-01,-3.821229478777072308e-01,2.784121559543541458e-01,7.926331942271751529e-01,7.167878990732559075e-01,-4.726493747735390771e-01,1.777134961984686012e-01,-7.787846697462861290e-01,-1.096958595462196456e-01,4.602056568172221973e-01,-4.893604743576094873e-01,9.067281913227975831e-01,1.364729342259571043e-01,-8.419324964812676670e-01,-4.158543218492845028e-01,7.003220814110640013e-01,-4.466398143029622902e-01,5.532176128450224661e-01,5.305234350807220833e-01,-2.582535577051490727e-01,-4.581098625272679303e-01,4.529419104360900006e-01,5.306428688225144352e-01,1.078476981486548719e-01,-2.363555818291713517e-01,6.978342936948451758e-01,-7.938552545935615434e-01,-8.745675543830694343e-01,-9.817095365634459503e-01,3.234165237514552427e-01,2.230984036293252037e-01,-9.801990819573122016e-01,4.836582895082197076e-01,8.209787119501588126e-01,9.481541899960831410e-01,9.388892331249764078e-01,-5.832200374471578908e-01,7.769611054692415752e-01,-2.388221028664593848e-01,2.374549577118144350e-01,-1.670788905022092263e-01,7.599384954096619245e-03,-6.601355064630335390e-01,-7.168769941541981439e-01,-7.376969108347093407e-01,-5.800844256232110530e-01,6.906527382179528107e-01,-4.612510596364793325e-01,-5.977172900795049149e-01,-2.404325632745017982e-01,-8.573411307942772064e-01,7.518820108588680773e-01,-8.133527657491671503e-01,-5.996966420476030485e-02,-8.185075298242565633e-01,5.619058756957576867e-02,5.036182154304572750e-02,2.817933015303165090e-01,4.120386103044060278e-01,-2.692208235186652754e-01,3.965627370952828357e-01,-9.990869556570382004e-01,-8.873692634377883248e-01,-1.172644784027176701e-01,1.761388383615141440e-01,1.888968712809420136e-01,-6.166807791397673627e-02,-3.160572485939843745e-01,1.919918448054551419e-01,4.064802524924707727e-01,9.426229027797021764e-01,3.682497123187866150e-01,4.572786046589888964e-01,-5.810851728650785475e-01,8.885807604700158846e-01,3.632744136570876803e-01,1.000734554105785934e+00,-3.774024309753770123e-01,-9.465691246558298744e-01,-3.179561409975901753e-01,1.715068217850325982e-01,8.856164080027441043e-01,4.074965230902741209e-01,1.520855281950316273e-01,4.522238998480212491e-01,-2.005301722447033475e-01,4.228163781128119192e-01,-7.892043846026575160e-01,-6.504177287104087046e-01,5.496270439970203370e-01,2.863854880799117653e-01,8.488103197759288010e-01,-5.019864153419314468e-01,6.347915458066107908e-01,7.584145118118821305e-01,8.107636168465660598e-01,5.767614198973638473e-01,8.638221534724713768e-01,-6.778411494140664795e-01,-2.701634502356834236e-02,-1.012963615729304045e+00,4.723273050358300917e-01,-1.694054176076622842e-01,-4.479180011794473004e-02,-8.642689545520596539e-01,8.731841472203492049e-01,6.645019862005496769e-02,4.049819044866208584e-01,-2.392209977014372602e-01,-1.149177966456218919e-01,7.380670450881895439e-01,5.035922147882672117e-01,5.508340276027160476e-01,5.823251715533646067e-01,3.988186187254504356e-01,2.106852187483605476e-01,2.592577332221990272e-01,9.366084859378493999e-01,-4.371988972703596543e-01,-9.299274303471374292e-01,5.137793928970508794e-01,3.967629363301010681e-01,-7.909479894718373094e-01,-1.302701587433376385e-01,9.163986101209556923e-01,9.974731398270594296e-01,-9.370718362346684982e-01,-8.949178886456257143e-01,5.277283818233219348e-01,-1.017551164969323491e-02,5.132911502349192245e-01,-6.944592266927295254e-01,-4.078813709123640940e-01,-5.237894169896487595e-01,1.046399125151080273e-01,-2.122271679467652161e-01,1.016514889869031046e+00,-7.404274779028919840e-01,7.875587725360803093e-01,-6.353427886233018462e-01,6.569528561309937453e-01,-8.132886307143114557e-01,-1.631595347950662023e-01,7.998613259138619425e-01,5.233048871776173616e-01,8.114891393302082756e-01,7.982693770783114706e-01,5.075954160246922697e-01,8.262743235033519484e-01,4.099343219249111381e-01,-1.605797532779616385e-02,-1.633785328892066457e-01,-2.248379471651693051e-01,-9.243644364899509247e-01,-7.343898012964344968e-01,9.283191765939452500e-01,-3.638628740702601772e-03,9.375191555340697258e-01,9.111828422798814442e-01,4.498870477717349936e-01,6.470833697132756246e-01,2.786835311315525310e-01,8.817808406611384875e-01,8.119219557561144773e-01,1.228735894881032575e-01,7.963833154866218900e-01,1.749104879783614230e-01,5.871831273958143527e-01,-9.552789948730698588e-02,2.301727729436441328e-01,-5.111143339130245211e-01,2.768227728555390510e-02,2.240658995542351151e-01,-7.971009871157874738e-01,6.538743319180487790e-01,1.017500172406065884e-01,7.586994694607239742e-01,-7.031425427543159801e-01,1.030913240436870937e-01,3.076673492348508399e-02,9.601963826592513351e-01,9.814297881576152793e-01,-5.090795948449988728e-01,-4.998113722246566581e-01,-8.280376647964288184e-01,-8.876027189607745838e-01,-7.213722220297226206e-01,-8.574974528739821578e-01,-7.859445380955412119e-01,-4.470408264111162544e-01,-5.600071235404865261e-02,-1.868129541087673595e-01,5.694855653829201669e-01,4.759856976191181310e-01,6.807319278466315016e-01,3.909763263529578148e-02,1.798004578966965195e-01,-9.288232350625775791e-01,-6.583803534631864005e-03,-7.989629142588197119e-01,3.423992074576399092e-01,-5.708579383850572730e-01,-8.954817727535971938e-01,-9.456423975436505369e-01,8.251189276301710285e-01,-8.706640252621968834e-01,-8.003155152912420078e-01,4.141420794488998025e-01,9.343326761764548793e-01,7.775750185615492027e-01,-3.333605597609953231e-01,1.671102521088775883e-01
5.482865944353552262e-02,-7.903795006104392673e-01,2.060987647202163764e-01,-4.361824617197874732e-01,2.065157735394620719e-01,-3.335339775491015235e-01,5.167925513210269717e-01,-8.739625768988142918e-01,4.960955621721199055e-02,5.544686146625436018e-01,7.344153763970120985e-02,5.680210303207984257e-01,8.875519472506190541e-03,-2.552081273098890657e-01,7.453346483213837415e-01,-5.596113907672812804e-01,-2.449203049628009277e-01,8.173158262287646414e-01,-9.841005149442143551e-01,-4.051189141697042473e-01,-7.006675178749234290e-01,1.393811704987601707e-01,-6.809633562482916291e-01,-4.972528015201876372e-01,9.307148468233704675e-01,-3.037512324925428775e-01,9.024857382245050630e-01,-2.214476162574818274e-01,-7.213597747139599559e-01,-5.117737958307060769e-02,8.724931206967564412e-01,4.843789223821051704e-01,3.935220829275703491e-01,-7.858003734224320302e-01,-6.643515487132184427e-01,-1.953066031072034636e-01,-3.521235028765489633e-02,5.918226565831596897e-01,-6.735196984202059811e-01,-2.707375424630567573e-01,6.868954687774792012e-01,4.089910412440984633e-01,-1.396618050966826341e-01,-1.934270960577932352e-01,4.286667514382632160e-01,3.299528968377283822e-01,9.882483093197766966e-01,-4.243724411713183930e-01,5.575186266055514039e-01,5.786045938301743741e-01,-5.670057542151442087e-01,-8.771755720923455346e-01,-6.218734252576182397e-01,-8.124553000779584366e-02,4.781597414373144339e-01,7.153986643344497631e-01,-2.972873063434899876e-01,7.303968090673420566e-01,-6.757207400654914320e-01,4.438949689509406604e-01,-4.412522469035571326e-01,-1.928869056253894043e-01,3.599225001638128862e-01,8.188997746903594610e-01,3.288789417242785063e-01,-2.174732069156865358e-02,-4.479101526069166339e-01,5.960238641976662866e-01,-3.838896341839407311e-01,5.835599461025844370e-01,-3.504040722646390993e-01,-3.425770662697096708e-02,3.825259497530300035e-01,2.106210788775846610e-01,2.439837288056267151e-01,-7.389032585179561297e-01,-2.049346607828962108e-01,-7.242986889710497644e-01,-7.903863803172317404e-01,-5.920005861713796280e-01,5.593928098092695311e-01,6.351433820034447786e-01,-5.897412766770510073e-01,8.843298412509504880e-01,1.049425396808377903e-01,-1.249146535021241344e-01,-2.843319609014917024e-02,3.903226915574552480e-01,4.038037718670415277e-01,-1.014218627302139852e+00,-7.862246441656592921e-01,-7.260193362539033579e-01,3.873350233119124408e-01,-7.040062948746446392e-02,4.271754260554950222e-01,4.877741105343200156e-01,8.984912621381199171e-01,-6.043326729052476143e-01,-7.761324328499473735e-01,9.224311148730532928e-01,-6.996158328467192433e-01,-5.936092480747799938e-01,-9.083885907907573998e-01,5.599623766754994181e-01,8.027480255111507645e-01,-8.883701763714267896e-01,-1.769529388909176215e-01,-5.826618142457208327e-01,-8.719494074936614547e-01,2.986123661858021139e-01,-1.771491116805408161e-01,9.535281122576317880e-01,-1.245742907839378910e-01,3.707111305303648074e-01,-9.414643065419721069e-01,-2.631812405388579412e-01,-6.986982578368734487e-01,-1.646318755841139903e-01,2.133913794275038855e-01,-1.590900617429254482e-01,-4.955408680159504864e-01,5.736862214438829266e-01,-4.652896431656766141e-01,2.055507927665889967e-01,-3.585262783506804607e-01,-5.206100583681934069e-01,5.925463443633617322e-01,-2.213745574291537122e-01,-1.976509225669916825e-01,9.985163753648753637e-01,-9.150305466734277582e-01,-6.585440711788304036e-02,-7.774563027554790562e-01,2.394560761701466090e-01,8.869619300141253770e-01,1.536473931138976068e-01,-5.916523226683812614e-02,4.523239233097685608e-01,2.622794351797870238e-01,6.469918427286832641e-01,1.590231176000475588e-01,-4.173203273239786681e-01,-5.585846987436994260e-01,-6.366984559286646972e-01,5.759468251917357895e-01,-6.509880053879306683e-01,6.519728820596061292e-01,3.735936265025986969e-01,3.778997375442292861e-01,1.508170276446986480e-01,-5.458185746041646080e-01,-8.337376646499976562e-01,-9.567699998176504295e-01,-1.664599384541347038e-01,3.201950118744993912e-01,-5.042467943110268136e-01,-3.038358817364450459e-01,-8.892784342584415525e-01,3.788887118180551128e-01,-8.690450684767803136e-01,3.189491431099540919e-01,-6.680737397762319396e-02,-5.124320322753794787e-01,3.132885956752750611e-01,-8.917891762836156477e-01,2.891184094503679303e-01,2.185868161547327090e-02,-7.440167685236701578e-01,6.298930324356656341e-01,1.443856375313786466e-01,1.536046572972429858e-01,-6.513056344183794089e-01,-7.368039350222782558e-01,-3.166216243983307858e-04,8.579705198199610860e-01,-2.223653237103286606e-01,3.188522736680726166e-01,7.717614180778957778e-01,6.313008410565970063e-01,4.906597623704480604e-01,-7.415610243572394733e-01,-1.715899234941529738e-01,9.328380399890262575e-02,1.508102733999167229e-02,-4.568641797846587083e-02,9.824122625996726255e-01,8.649562154461821750e-01,-7.957155829066480113e-01,8.819696708779540817e-01,-4.202474291760464054e-01,8.349093219577490288e-01,-8.388896697038051853e-01,-8.980225320870637296e-01,-3.701905854462061995e-01,3.355909022819262288e-01,-2.075329351129219166e-02,6.079381234621341612e-01,-4.830533539142150556e-01,1.927611928938298969e-01,-9.326571638944554099e-01,3.955035580166859077e-01,-5.281578842558091180e-01,-9.733098069022307897e-01,4.985202754650468471e-01,-4.764860141743959554e-01,3.580428265804651011e-01,1.003712132269177548e+00,-3.750644333709403644e-01,-3.940071337449516098e-01,-5.467687845801018076e-01,8.638229658273488543e-01,-5.591396402120465264e-02,-7.599341257825232843e-01,-2.835054108735817757e-01,3.335098677585309201e-01,2.442980505780110168e-01,-2.736895651390272022e-01,3.155602443907583599e-01,-4.086746790104635596e-01,5.154520180459271073e-01,-7.806061804028242845e-02,-1.645402809733727545e-01,9.574545160813803246e-01,-5.077611733064082977e-02,3.411892125254267771e-01,1.316272501452512567e-01,5.462279654277313323e-01,-7.083858207389100992e-01,9.991862178590629195e-01,-5.273601762421210870e-02,-1.646327576322862696e-01,-3.627404508903056546e-01,3.044496703506619495e-01,-5.296218331529051193e-01,-2.437225313778379476e-01,6.992537133178909903e-01,-8.628203140178977160e-01,7.774811385014983589e-01,-1.789994030183892637e-01,3.252032945049577739e-01,1.058370132595817664e-01,-3.164644887897547637e-02,5.790722927921951868e-01,-9.239263467190250712e-01,8.764370972855375364e-01,8.406174010704051680e-01,9.410620767277334819e-02,-6.991085429319204847e-01,-1.635833345874754610e-02,-1.590189678751295632e-01,7.593085655704504555e-01,-8.502063665026935446e-01,-3.375091424136112406e-01,-8.074686598484955846e-01,-7.708444348027017057e-01,8.623930473168689437e-01,1.646146306800514159e-01,7.802254977897040700e-01,-3.632194417072252546e-01,-1.010049912383797821e+00,6.691455830738949340e-01,2.996026682322736057e-01,-9.747987914093177997e-01,6.118318771105639708e-01,4.946933632127688968e-02,7.185602209189022593e-01,-4.109478397164057495e-01,-1.628622620954711664e-01,-5.198420277591304650e-01,7.873907267148594347e-01,1.469819418594340843e-01,2.605527365247754523e-01,3.621716986184041892e-02,-6.220234571670140156e-01,8.732051861417918781e-01,-7.319258900175973359e-01,-2.189063680214761165e-01,8.450827262776139381e-01,-1.444290502174044588e-01,8.460592867094833824e-01,-5.888161275512382442e-01,-6.877635141957969545e-01,-1.045344556273595904e+00,-1.037192719525977136e+00,-7.706348727237188889e-01,-4.672883467904471178e-01,2.533384722695118940e-01,-7.654490611617127405e-01,-9.897621969794656582e-02,3.883548453342194340e-01,1.592604247514062266e-01,8.677233470847636188e-01,-8.686990521716911884e-01,5.661627733975672649e-01,-2.569720403429577305e-01,7.147625023192430982e-01,1.933621144417134730e-01,-8.295175209998935095e-01,-2.733232037049069252e-01,3.618291044565994374e-01,4.957308476485915993e-01,-9.201794877466702438e-01,-3.008436046695944222e-01,7.809116743943050887e-01,6.172361081730118881e-01,-8.646710900052925197e-01,2.234010908331811318e-01,-2.021291608509358517e-01,8.424423898260384735e-01,-2.901409079662349844e-01,1.206805671426140758e-01,-7.350010499078737936e-02,9.298007522177170747e-01,-4.698458399972149091e-01,4.970432344555076876e-01,7.576341394240896365e-01,-8.923773752052643893e-01,8.469960505166829190e-02,-3.201994366494972932e-01,8.022784928795557713e-01,-6.540385718350050226e-01,-2.992513638772568707e-01,1.441877107540477827e-02,-4.632897429609923456e-01,-5.745931419037529908e-01,-3.157011249256219676e-01,-6.802748163064247233e-01,2.952318094977475771e-01,-6.000273922951782080e-01,-8.825186928986435975e-01,-9.810315546050497604e-01,7.087575121147875468e-01,4.334996390660640353e-01,-5.856782009687273582e-01,9.592198319031169929e-01,8.907346189736374820e-01,-7.161829400450649974e-01,-6.763487061697994740e-01,7.405358304053307750e-01,3.547797710343791322e-01,8.986334601920460408e-01,8.247821554419111356e-01,-2.037492514032191240e-02,-1.217069733372505985e-01,-7.448361515929116661e-02,3.396517422847058487e-01,6.691340416286893911e-01,5.434800259265814004e-01,-1.532162746230165268e-02,6.312433283767937553e-02,-7.573664082469971914e-01,9.309161819251585701e-01,-9.503644007125143789e-01,8.580724422387795425e-01,9.715994830207429489e-01,-6.408133935013251570e-01,5.248566546731200377e-01,3.313931285754194156e-01,1.097595383961657012e-01,-1.625468407251767500e-01,-5.507781093856002341e-01,-3.160370711550564704e-01,6.852086328486498568e-01,4.142088238787153265e-01,5.036006161045597507e-01,-5.415846364220409936e-02,-3.239436779485720952e-01,2.804008278901527415e-02,1.486552579004294661e-01,5.406515872817442281e-01,-4.877279849497276887e-01,-6.776895595174047271e-01,-1.006014971274249437e+00,-8.500287903164938097e-01,-1.462824839017068390e-01,8.862449824236116047e-01,-5.549724508644883203e-01,-7.729029666232598572e-01,5.001815453558353664e-01,5.856311067042232477e-01,7.009561551286253023e-01,6.117169665658754862e-01,7.018057281098273315e-01,4.888024439795737863e-01,-4.521479075781754120e-01,-2.336162451122070216e-02,7.506398370073436022e-01,-1.389339330793258331e-01,-2.464569074273839921e-01,1.651890795885738727e-01,2.878753103974843741e-01,-8.214697732081738257e-02,7.082738719358723234e-01,5.168075340859181743e-01,6.452797399352434571e-01,8.927824968898028235e-01,-3.305491223823152080e-01,-4.662035283077849979e-01,-2.335348273406462061e-01,-2.211854094755003886e-01,2.401263641864539999e-01,-2.251289509420845991e-01,8.426590146050130237e-01,-3.228696252709568060e-01,-9.256206985653377961e-01,-1.353610651174510238e-01,8.471024587989480770e-01,-4.719350417383810226e-01,-6.004675981900663428e-01,-9.504589197399340161e-01,-8.426527809900519195e-01,2.728802271623962383e-01,8.194598628822050701e-01,2.651752964440771132e-01,4.611304443532789343e-01,8.459277520440275921e-01,-1.278931065107822285e-01,9.420775864701078639e-01,-8.246217148052271684e-01,5.232151684745358633e-01,4.895476752357336148e-01,-1.256320263092587097e-01,2.285142387265280683e-01,9.590234093950322780e-02,-7.362052113658476005e-01,1.016326456653664639e-01,-4.998575073686036263e-01,-6.024444660322096912e-01,3.048371024284313863e-02,-9.447074475360822676e-02,1.924576199503162388e-01,7.104197929669346934e-01,-4.198602071903766442e-01,-6.956556571696100866e-01,5.778191046350956706e-01,1.948514221742823349e-01,-3.189465902721141943e-01,-3.500907502289660189e-02,-7.246108018741667656e-02,9.649600904060886553e-01,9.295986390102363162e-01,-1.201884971722694678e-01,7.632071953601746728e-01,-5.394862705294515282e-01,4.080416475163389234e-01,3.492645792856999831e-01,3.428120558593292233e-01,2.794813572875597951e-01,8.826353797824543213e-01,-3.885762796917689443e-01,1.934612771640189521e-01,-1.230566915478164755e-02,3.225223361920163123e-01,-4.378142049736082897e-01,-1.641943880365394903e-01,-7.910413081110785338e-01,-1.133753358140962564e-01,7.223543385746944434e-01,-4.904404930400544371e-01,-3.545375100282235348e-01,-4.889133832346820308e-01,2.699316509085677440e-01,5.212124566189655361e-01,-3.370040637176657805e-01,1.231658618319943568e-02,2.389876019373054772e-01,-8.067905873236567160e-01,9.295176000524690840e-01,-5.607921137315909910e-01,-9.548518575861139057e-01,-7.343144544731380341e-01,-3.009448634486655005e-01,-6.234360132029959090e-01,2.437756567155900944e-01,-1.668336173446288428e-01,-5.692781454280190223e-01,3.387124943424622003e-01,-3.843102057618509870e-01,3.285964549814908153e-01,-8.722050674987467112e-01,-4.684806159974723161e-01,-1.944706591977582999e-01,2.854083380903156830e-01,5.853312006855500016e-01,3.312864072892431344e-01,4.297855623864459962e-01,7.918234169348953300e-01,4.978076486142271051e-01,7.913090069840635898e-01,2.510207152394171581e-01,5.768522566783933492e-01,6.162322601225925789e-01,2.993919871351601314e-01,-4.029890108216551553e-02,-7.485859978008947702e-02,4.261367440221832670e-01,5.808168212861639645e-01,-2.789875450671834844e-01,-5.900466997081283971e-01,-8.100330565563295115e-01,-8.005362389493915487e-02,-7.771221127721074096e-01,8.871231991029746577e-01,-7.024353977882666356e-02,-3.525773067706564068e-01,2.675035678335114728e-02,-7.757062561333353257e-01,-1.729552043261146088e-01,-2.513469558200254750e-01,6.744201217450538355e-01,-5.515902397985684713e-01
4.624371542011925795e-01,-5.098352850647137197e-02,3.781750327864381866e-02,2.895688851063784597e-01,2.619964864735786492e-01,-1.110754191831305436e-02,-8.056432529383091845e-01,-9.526303124815144185e-01,-2.566727440962338624e-01,1.392726993881230890e-01,-5.902858701355713222e-01,-8.514218243693946198e-01,1.411253752116355953e-01,-1.733157158075396553e-01,4.287581243123292918e-01,4.136580445691972474e-01,7.844256211644194954e-01,-1.295913051595220522e-01,1.026017034834417752e+00,8.401163442122234759e-01,1.357705825137700273e-01,-1.897895544173016161e-02,-4.327259167248623251e-01,-7.253475957951581732e-01,1.725765535158080566e-01,8.243314823302709538e-02,-1.845567056115860957e-02,9.083751249159629504e-01,5.097199778163657991e-01,7.014892997091684013e-01,4.529092065881991647e-01,1.196154774434964735e-01,9.946022628734274562e-01,9.952488780812335234e-02,-5.696133995059748933e-01,-9.779876353352030538e-01,6.954470716967225963e-01,4.984711977816448925e-01,1.902999767459060410e-01,7.900857111300366165e-02,-5.865800249254182752e-01,-2.146750282768396523e-01,4.809120658660434589e-01,5.870428767703291806e-01,-4.081577839108673222e-01,-5.815897019456810479e-01,-1.005753225625940495e-01,-7.002509451685531294e-01,-8.517337249788321518e-01,1.303755960995853225e-01,3.993989829628707411e-01,1.996084689924826627e-01,8.177836109167256895e-01,-6.958929982249629775e-01,-1.694431823087848288e-01,-2.970387050134510876e-01,-4.417700058576591871e-01,-7.191851879037812756e-01,-3.303376207959602961e-01,9.308248571360645540e-01,-3.040945346329761503e-02,5.029256979592446886e-01,-5.991570999511472984e-01,-5.053359859225529938e-02,1.721403009254338923e-01,-7.462735223905379023e-01,-5.523676081803708948e-01,-1.526608083369790370e-01,8.350928852069033903e-01,-1.697189870331553829e-01,5.163256451722961216e-02,-3.044187489145198933e-02,3.130819972527908446e-01,7.492649635564144761e-01,7.923810067752271591e-01,-7.552802219917378324e-01,8.942301684196269917e-01,9.596519832681744688e-01,4.174571444676483667e-02,1.470588899988595766e-01,3.582969396741252366e-01,-2.387432799451517373e-01,7.802474250661237676e-01,8.844897890117821015e-01,-2.515968536165892333e-01,8.983194316597480356e-01,9.021267415828064795e-01,-6.956825133837347686e-01,-1.958244301196034320e-01,-8.489497248434100252e-01,-4.237493730776679124e-01,8.137205684288562058e-01,-6.055636781393263224e-01,7.437720904931056920e-02,-5.358597446214720117e-01,-7.024093605199918100e-01,8.054755795241118621e-01,2.759896664866828830e-01,7.682936714496529929e-01,8.380929892641385548e-01,-2.480271948278496910e-02,5.177459190617340612e-01,-2.119545449138232340e-01,-3.419170950227692907e-01,-2.068838411973477898e-01,-9.771246005659376399e-01,2.806045986268049797e-01,-5.585758918881911228e-02,-5.502223663155408201e-02,-2.497032831919355211e-01,6.562861813586589044e-01,-8.435898255306234494e-01,8.651863852740263594e-01,-5.093298178584246827e-01,7.097813124555961695e-01,2.094712934157004491e-01,-2.162080380865238072e-01,6.334631596052474611e-01,-5.393734159030257880e-01,-5.877207189433626411e-01,-9.194578668231445651e-01,-9.286779705744137303e-02,8.227500429541314553e-01,7.841516292906882679e-01,9.376516988842756306e-02,4.565705230103350165e-01,9.390601041721164943e-01,8.983801581839199191e-01,-4.410184385295780607e-01,5.515162876745111076e-01,-1.813987270880865477e-01,6.119428745979287321e-01,4.208837749989731702e-01,6.247180615315746088e-01,-4.748047736184013434e-01,-7.929660872841663988e-01,2.993951275745099783e-01,1.320843290918063406e-01,-4.237466679358992128e-01,-8.383504655146281070e-01,-3.532312662035494433e-01,7.451526315022380942e-01,-3.452410679681526262e-01,2.323940931619636885e-01,-1.384380402745750138e-01,-3.651068161449992910e-01,-3.503432010435295063e-01,-8.985147246603759630e-01,-1.106079335446335521e-01,3.562422821243851345e-01,-5.998905635044929907e-01,6.418553587138730032e-01,-5.389343669918373880e-01,7.621852346320820981e-01,-2.137209152727360117e-01,-5.125887028216230545e-01,7.800988682405616270e-01,3.742669000855581851e-01,7.537412944579299223e-01,-3.553014285806812556e-01,7.877653670272054542e-01,3.807387404381801232e-01,-9.598675943461921767e-01,-1.606614703435226693e-02,3.478404747014947618e-01,-7.434164510978150675e-01,9.499078503208600033e-01,-5.788931388460663019e-01,1.012677640559185299e+00,-4.971708402147620443e-01,-1.688844547682429309e-01,4.848467850709252125e-01,8.423770915691216610e-01,-7.931866949234599451e-01,8.716071281966146778e-01,2.358880375197978940e-01,-8.811787356385877290e-01,3.410487512520251618e-01,-4.264849326981305921e-01,9.814414512497920962e-02,-4.098796388525841050e-02,2.472165976478015448e-01,5.901108278300371685e-02,1.374780071062048081e-01,8.133693345984778500e-02,-4.516788931028567489e-02,1.039401944891903851e+00,-1.682751390714976730e-02,-3.759969554998825458e-01,8.012292280085820950e-01,7.723525903585510832e-01,-5.735225338833807029e-01,7.383346076086794163e-01,-8.267519621538241825e-01,-5.306736313904767410e-01,9.329237317935427098e-01,-7.684337170174858345e-02,5.110958248437044160e-01,-5.452605607003228883e-02,2.212259471956902201e-01,-8.705832007107426884e-01,-4.715815982702296211e-02,6.473453164155466011e-01,2.120719048041655799e-02,8.994184206813639060e-01,3.638135896155549887e-01,-8.874997027593982679e-01,-7.208439645820666763e-01,-6.962759811690090173e-01,1.348402585965990594e-02,-5.295096883260261844e-01,8.975125235582147587e-01,2.749859567735778998e-01,-8.694403702966165826e-01,4.067399855908044315e-01,-6.055675553648517395e-01,1.617307091438112687e-01,8.815671409870954323e-01,-4.815078426520398303e-01,3.186756843639781955e-01,1.455669396437505869e-01,-6.534168537682549793e-01,1.617984658683254903e-02,7.399294752992842117e-01,-4.974615414039295636e-01,3.738659017798977996e-02,2.710234498644086276e-01,-5.727963496158371415e-01,6.857852218239228748e-01,8.690071591468450096e-01,-3.140292495807821549e-01,-7.770566453903320348e-01,-7.542721525281033124e-01,-9.362858960629764082e-01,-7.966928359080700794e-02,-1.102485243121406194e-01,-1.950170984644633843e-01,-1.691520944513346669e-01,3.152184797744493894e-01,-8.594463406281189766e-01,-1.867561081054625038e-01,-6.928978315290242884e-01,3.990960181347136260e-01,1.595625788654067845e-01,1.519627981342534240e-01,2.810594148854548835e-01,4.275858677237589361e-02,7.408190946668962162e-01,5.564968530368535893e-01,-2.648952948710314170e-01,-1.295762842506126278e-01,9.206953580790510072e-01,-8.691303035539563737e-01,7.838648109263881558e-01,4.419839274215474623e-01,9.353101639391381283e-01,-6.888156738049432404e-01,-2.356901095395481649e-01,-6.252028590271960784e-01,-3.217131918840276938e-01,-4.938960060919581618e-01,-6.262892486848923301e-01,-3.220949976972053430e-01,-6.098694257764375459e-01,6.790120718339835992e-01,-6.289767711113844473e-02,-9.317812119846895502e-01,-5.161934245375040531e-01,8.925426786914433253e-01,8.336515582600412255e-02,7.686900989086647984e-01,4.423041049520840540e-01,5.037397576711230007e-01,-8.848727821412962630e-03,-4.985033364793858279e-01,9.374606575029189592e-01,-4.466363610474766710e-01,7.834967194435353832e-01,7.421489609384613884e-01,-1.792058304152011616e-01,1.835786265514197935e-01,4.544321183238024253e-01,-7.342471497518789914e-01,-3.109457291441710680e-01,-2.258871182737739458e-01,4.578536042044253351e-01,6.731738491968549676e-01,5.354867461626247049e-01,-5.561513985376619340e-01,6.321142149507621433e-01,2.707807543826101226e-01,1.718125636872501472e-01,4.216833348806577897e-01,-7.819431387941795375e-01,4.269286818025391089e-02,-8.907012996279948247e-01,-9.670487009725323713e-01,1.945219049260200894e-01,-7.269891415102991417e-01,-5.686697543908775243e-01,-7.701762968641620577e-02,1.070519580467219761e-01,7.381063912697725105e-01,-1.734635860089446258e-01,2.883241249601187217e-01,-7.711097062696788962e-01,5.203831194161934182e-01,3.274422342231618210e-01,8.477118500711685600e-01,8.647782710207300647e-03,-5.465519645851897312e-01,1.886539305256190735e-02,-9.046082214856081549e-01,1.280459720189434381e-01,-9.066971645096608690e-01,-6.897829463982451115e-01,3.721205807485947759e-01,-6.705435010656796146e-01,9.846409406308157530e-01,2.690052977648617616e-01,-6.468900730218235529e-01,6.399146315040996624e-01,7.734737501166374235e-03,4.617922448538631097e-01,-9.057112670640715679e-01,9.257109232666563825e-01,-9.587881829837303638e-01,-6.469479541982118276e-01,-1.539359942252891134e-01,-5.390533192781192806e-01,-5.635376668890259566e-01,2.748805189852971953e-01,8.763013075013151854e-01,-1.013065444243534119e-01,-6.007414453914985408e-01,3.653125607536321651e-01,9.440347656766679973e-01,-3.017363289667051099e-02,9.500326251160804425e-01,-6.133223908829129600e-01,1.125083154644288957e-01,1.578009711331387066e-01,-3.999804562309799971e-01,-2.514625782666428111e-01,-7.375319870083584251e-01,2.273142801670328395e-01,5.918769657557740871e-01,4.867789159857366932e-01,1.207980413925647117e-01,-6.984876161474447009e-01,-9.271775994414235833e-02,6.637707791421477710e-01,-1.360006598416521051e-01,7.938814232297343176e-01,2.721543960854295729e-01,9.366172207614010814e-01,2.239039166628484234e-01,-3.326816277080190121e-01,4.590594565539016236e-01,3.858762281013830564e-01,1.579041791532646843e-01,-3.738753185209927610e-01,-3.513437306909176772e-01,-2.625910189714385501e-01,3.937390920035782060e-01,5.069352625828246195e-01,5.781971222428811119e-02,2.137578587676456764e-03,3.799879924454016011e-01,-3.762561217255030455e-01,6.582639564523619091e-01,-9.302786076414337746e-01,-7.931854992517066438e-02,-4.709573146786698583e-01,-1.015522564580910503e+00,-6.405699134100010239e-01,8.803211194494289238e-01,-8.789938567364110611e-01,8.848868650412634596e-01,5.433851200014389038e-01,2.022557837251950097e-01,-1.178015201155856867e-01,-3.812261626395837544e-01,2.312032745206584472e-01,-5.290680742020208438e-01,3.535930294128462603e-01,6.559395740505098438e-01,4.225149017352138325e-01,-1.908552536826243762e-01,-3.784019493842999959e-01,4.655595472979281446e-01,2.224855356467022038e-01,8.543701753668829779e-01,-1.781164077520068778e-01,2.482170244466314901e-01,6.053157660597636713e-01,-5.935517301010353325e-02,9.208231190196414229e-01,7.836699068791324052e-01,3.229268806863592745e-01,9.517908314203007425e-01,-1.067756451208282387e-01,-7.557315986074608638e-01,-5.891484113175248644e-02,9.580895401112278220e-01,-5.497094019608991244e-01,7.037834548626836773e-02,-9.754451554009944125e-01,8.449329346531296858e-01,-4.431352807150626960e-01,-6.708155121071758542e-02,5.828693325906258993e-01,7.114686057651654627e-01,-3.515364324082617675e-01,5.415284265362514393e-01,1.168573130021779462e-02,-1.205286923552339601e-01,-4.863156356599942498e-01,2.388767871694852940e-01,1.693367545642119887e-01,-8.508380640416024487e-02,6.072758810393424911e-01,-5.257512901792740223e-01,-9.223788620182745701e-01,-6.609110403882496598e-01,1.822233441036054669e-01,-5.175129159570195370e-01,7.625535679478113726e-01,-6.791205191690169451e-01,6.368474610256537327e-02,-5.987480823835125143e-01,2.037715485384922476e-01,5.375234480178325835e-01,3.679660671474722922e-02,-1.625748461336069262e-01,-8.749388775702883203e-01,-7.354883988805516193e-02,-3.424428762928513059e-01,-3.172835095239700531e-01,5.808615126231663206e-01,5.579096315188201149e-01,6.211115160925392287e-01,-8.448853114892255212e-01,1.814789730136562584e-01,6.386121348869481240e-01,-8.992723489105657331e-01,-4.277801667753061698e-01,4.839374443289594652e-01,-5.993259457508325339e-01,5.259384105647806062e-02,6.259263626143193315e-01,7.613354767486366637e-01,-8.184000644526224777e-01,-7.947398903368744216e-01,-6.431584210095985243e-01,1.965841993156879075e-01,8.218689087295458773e-01,7.184526225668897981e-01,3.953537185016822164e-01,-3.610867524522079486e-01,5.710498146552147603e-01,-5.177563615675568887e-01,1.495619311797834194e-01,6.521770909346159550e-01,9.433112147770738032e-01,-5.749413537914469519e-01,3.930500297753759531e-01,7.946429559105597784e-01,1.502160621621675407e-01,8.127593525972426347e-01,6.862788664809171824e-01,4.663537265120606956e-01,9.507995154082088396e-01,8.336290558441078469e-01,1.374636494467318115e-01,5.789828264198261243e-01,4.771158044668182829e-01,-4.435742340460535615e-01,6.135711447782190436e-02,5.209851479828239151e-01,8.106551308024418923e-01,9.656296916857546320e-01,8.468827804952516747e-01,3.869899320549555211e-01,-1.644844521792941938e-01,-6.105380741948193135e-01,-8.305018093233685894e-01,-1.501000376379222345e-01,9.993852340877150686e-01,3.928904989869283493e-01,8.778694863643886626e-01,-3.027178752194377709e-01,-1.266311517055440372e-01,1.800145301838411704e-01,-3.355767823814035933e-01,-4.881875262091374679e-01,4.719091908762837462e-03,9.621715288233252394e-01,8.825860073411712081e-01,8.635383371323472612e-02,3.642834779481538693e-02,-4.086742837016039687e-01,4.271158539569548940e-01,-1.103362203145249326e-02,-4.798615317629575938e-01,-7.991828225579208356e-01,-9.761568123166032285e-01,-9.320605994712884979e-01,-5.332927226841213120e-01,1.146133347894219695e-01,7.909492168269235401e-01
-2.977061615235339076e-01,-7.174170516538614928e-01,-1.675911046192866960e-01,8.609715693157503624e-01,-7.317628575559246284e-01,-2.858714468611099901e-01,-2.835975165978971146e-01,-5.450529194254715160e-01,4.988432651547420327e-01,-9.196883587976488750e-01,3.397104450846923362e-01,-7.407717740373845894e-01,-8.533144989372190015e-01,-5.716784606750954095e-02,-5.991768919950043459e-01,-7.306461417224217048e-01,-8.823961867706732812e-03,-3.179186519831364022e-01,-3.643725195869114142e-01,-1.570895803173729191e-02,9.162743593650681806e-01,9.361475226775695102e-01,-1.016378308159312932e-01,-9.609161056601071838e-02,2.033101823966172172e-01,-8.637366029580900717e-01,-6.674768248756981492e-01,8.051122043757291680e-01,-9.639669624281143046e-01,-1.001088297186677911e+00,3.390646267824590915e-02,8.483197797536229379e-01,-6.993065144196838334e-01,1.579011157346789929e-01,1.100203913661904759e-02,-2.175388664530776214e-02,-8.386103430466155251e-01,7.757354838692560595e-01,5.150265855224095413e-01,-7.848417374571217131e-01,-4.502687898360362984e-01,-5.509565390715991384e-01,-5.806930602616101611e-01,-1.104275420397809043e-01,-5.597524157681195156e-01,8.381358744581353104e-01,-3.796280789704051806e-01,4.242331218903443446e-01,1.773057617829227328e-01,-8.525762984142808421e-01,-9.181930441268696397e-01,-1.860528540670456921e-01,-3.834077872359660244e-01,1.923169886633889769e-01,9.052478992244166189e-01,7.346794145840119805e-01,4.313389620536945968e-01,1.160754716238577428e-01,4.177568635844145506e-01,1.012392168654895563e+00,-9.137462892756051946e-01,2.266875687825465890e-01,2.511014835650283161e-01,1.637812983942871226e-01,-5.139695694478236820e-01,9.605968817988702613e-01,6.437795002443436054e-01,-7.913485639794060056e-02,-6.407913649061420802e-01,-2.729576825244849347e-01,-8.702639527609658254e-02,4.795450653856785095e-02,7.024005879641835870e-01,6.830176299279107077e-01,3.981048225359945514e-01,8.399946758379753797e-01,-9.803566774385854554e-01,-8.946968874940656180e-01,-1.399413456299672120e-01,-3.282096866679575231e-01,-9.053933476489813836e-01,-3.616168898539807164e-01,-1.556489112835873767e-01,-3.191544181752274389e-01,-6.490410409539869585e-01,-3.529637194056698402e-01,3.566224551711640323e-01,-6.512030631940455283e-01,-4.437826826515584577e-01,-7.970518985841442694e-01,9.090048418807931130e-01,6.337351530025005231e-02,5.818851148484174285e-01,-7.255129955735383218e-01,1.833889307504600608e-01,-3.539043910930704251e-01,5.079341994433189678e-01,-8.817321845799197533e-01,2.990038748658275791e-01,7.817189841330252076e-02,6.452445953077200480e-01,7.094099705009231371e-01,3.676792373780659595e-01,-4.670452982653131579e-01,6.861627078203386132e-01,-8.034020407599992697e-02,-8.135735919261393168e-01,6.280987718628300298e-02,4.622340267467685004e-01,9.495737766498097976e-01,-4.176911319659476485e-01,3.048541114813506092e-01,1.776006639677270293e-02,-4.315871686231035897e-01,4.937649755077457847e-01,-3.996049622445987382e-01,6.631670799823350393e-01,8.425163109477324941e-01,3.600559292442231385e-01,-3.104908498878728579e-02,-2.431696849261060778e-01,-3.349661628528213808e-01,-2.611092455035902149e-01,-1.503014812714421802e-03,1.935574056591991277e-01,5.549026852904854756e-01,-8.237828350042505354e-01,-2.931400755751751297e-01,-6.639786211727021215e-01,4.508171482595974000e-01,-1.555662952113940622e-01,-3.099466352254400814e-01,-7.938222739810018025e-01,1.015597068271225645e+00,-2.847853716256293355e-01,3.447694204355947756e-01,-1.592671958201963278e-02,2.215628333138012010e-02,1.579912357092631003e-01,-7.777445995087604036e-01,1.454354760282185743e-01,-1.914272422940536678e-01,-6.358464504462453259e-01,1.640470708563245006e-01,9.806585159366814075e-01,1.008176533624496551e+00,3.409433169160654836e-02,8.016847310388169889e-01,1.079101120731985747e-01,8.322907383432535111e-01,-3.760875418892817290e-01,-8.624584318920684722e-02,9.689952451950455403e-01,6.892882896854503338e-02,-5.141112114229926533e-01,-5.203522665281316018e-01,4.326774657950209213e-01,3.931722420339117119e-01,-3.141395997756822323e-01,8.852862826247351880e-01,9.381276695334889171e-01,5.113771204006613003e-01,6.211381560423723247e-01,1.631556578024299375e-01,1.445592740037811574e-01,7.249472169207714645e-01,9.887115189599902099e-01,8.652260580833267545e-01,9.042592396773903030e-01,-3.406665513621827124e-01,-3.313742296761655326e-01,6.307638274061876382e-01,8.318094112602004708e-01,9.598041749099928133e-01,-2.112147424109528729e-02,-5.773995660734091429e-01,5.405738064486995675e-01,6.388874212955618359e-02,9.579349404526158462e-01,2.442588825842801348e-01,-6.133925034135043752e-01,8.541414729144549689e-01,6.583997199327977778e-01,-8.158923554076750184e-01,4.312977246729584047e-01,7.261495247303793033e-01,1.029504724698395712e+00,3.433707009492629747e-01,2.827520754262867475e-02,-7.808335683006207839e-01,4.972155918844413658e-01,7.888393465453117370e-01,-4.796379251477108641e-01,-5.786642552165803810e-01,2.704337884518068225e-01,3.936987721557402287e-01,-6.564794900810294598e-01,9.490955757683736671e-01,3.503309564933957954e-01,1.582369392899068417e-01,9.446899323076360933e-01,-9.321616046727536631e-01,-2.417440692313323203e-01,-7.686417036495198918e-01,-8.565190404508488120e-01,9.057249562700707690e-01,-1.035016071515258845e-01,7.496264327881502210e-01,-4.539786125950319162e-01,-9.374969115405712428e-01,8.532861433493215131e-01,3.642045314938601730e-01,4.147826617754504785e-01,3.805065705825662059e-01,-1.021184876783818751e+00,7.038695247474711092e-01,6.880421062379502017e-02,4.511463082517234713e-01,-7.577240201452718482e-01,-7.989847871371682508e-01,-1.375063996812655176e-01,7.553267142418832458e-01,5.617161628962401565e-01,5.767224173866227765e-01,9.524953745241464542e-01,6.681660086588043779e-01,-7.054167878160675365e-01,7.720984227417163615e-01,-1.347654814558314415e-02,6.581947256545396252e-01,-2.061993430114256176e-01,5.736877330181069379e-01,8.914137782795075737e-02,-9.504485230424044584e-01,-4.994465726082019663e-01,7.386668626015264749e-01,9.997365281522425651e-01,-3.186864450187946729e-01,6.332076004170690275e-01,-3.599879200236907328e-01,-9.163032615100706879e-01,-3.613109774582086708e-01,-6.412616006983891115e-01,-7.294946979710366097e-01,1.426117452061412272e-01,8.104888920591769574e-01,8.437429226593026188e-01,9.224688957003959189e-01,6.998736522431042717e-01,7.301514661376857784e-01,6.797033258013263080e-01,4.257628441688066645e-01,5.043426042402346932e-01,4.632412974901276709e-03,1.707059149725198011e-01,2.204832540761220427e-01,5.279063901750136178e-01,4.308744963062382527e-01,7.827746775726096562e-01,-1.003362198742137508e-02,8.612804741737939418e-01,7.788755487832152991e-01,-9.611236479912537156e-01,-2.683012583061104017e-01,9.467717994213886712e-02,2.254941010421207190e-02,-8.029790393284397254e-01,-1.467943325101344620e-01,-5.872598758329214963e-01,-9.357380935727345195e-01,9.651790713378458064e-02,-3.515060550764549929e-01,1.200916067668363618e-01,-2.217477387944709888e-01,-3.775623205006105043e-01,-6.674895851037693228e-01,-8.064792379001463063e-01,7.982584307404669843e-01,7.077579246731900975e-01,4.612017477669358989e-01,2.185341358550212387e-01,8.258546952268334129e-01,-1.865913854156261986e-01,-1.738833798236822936e-01,3.051992647519312374e-02,-6.645714479315126821e-01,2.167464453059172458e-01,2.392564624832846654e-01,-7.890591741605011977e-01,-6.098530893856975998e-01,6.336965717230432782e-01,7.258746012502111933e-01,-4.961089548427705803e-02,3.623419083794282014e-01,1.411104422136617575e-01,6.102492222935727018e-01,8.131109041554913652e-01,7.793495998632297139e-01,-1.095586540235030520e-01,7.356959984939465125e-01,-5.350773206544503502e-01,2.126760933742140314e-01,2.183746753178100741e-01,-7.573221347590325392e-01,3.771023001469484548e-01,-5.459731549089787972e-01,-7.963898166450847915e-01,2.998924379415890962e-01,-7.121984520342651281e-01,3.886323133562983312e-01,-7.224494514641981446e-01,4.994634584651712061e-01,4.662179745961640975e-01,-9.466333158324917452e-02,6.752255176013144400e-01,3.874121653972315560e-01,-1.211556156275451351e-01,2.237406493817949982e-01,-4.121560112171346324e-01,5.633272243823455039e-01,-1.662468188001605118e-01,8.431330203675816426e-01,-1.105982055805920655e-01,2.105680428914441238e-01,-1.889575669441497796e-01,1.954295761526081143e-01,-3.414032847180796248e-01,-2.562552900606406281e-01,6.598439012432920636e-01,4.489675733214739117e-01,-5.758613674686892114e-01,-5.844264191655800245e-01,8.509777028898271034e-01,5.368636851278342226e-01,-2.433306119936073653e-01,9.088019879761201070e-01,-5.269522108498274626e-01,-6.631922749059654398e-01,-9.758898024791209380e-01,-2.077240281855775861e-01,7.400375365651659654e-02,-3.310592124514152301e-01,7.321972984712608046e-01,-2.777111155754262706e-01,6.454194874796984616e-01,1.806971255992075587e-01,-2.321587247106795815e-01,-8.834352311231361554e-01,-5.396285285429011092e-01,2.816512927650292597e-01,-8.068902129335676632e-01,8.356773351105156733e-01,7.193706620330070356e-02,2.297601722027654281e-01,3.106770090194274636e-01,4.877972703755982797e-01,5.541718513211464359e-01,5.096087382962335433e-01,-4.670977270186263963e-01,5.711088634512961892e-01,1.700695999567310157e-01,8.934385094099546176e-01,-8.664973880131331407e-01,-3.783530875313544928e-01,-9.580084482190402984e-01,4.861450341867750713e-01,2.232337718084712597e-01,-9.957305496787488552e-02,-7.685720100516872932e-01,3.633112064877555003e-01,-4.431702947100118473e-01,-2.436363123849311918e-01,-1.359791792390322163e-01,5.942635418396873259e-01,-6.133986572781354729e-01,-8.375599711766719135e-01,-7.522174737036541048e-01,-1.818334080488456239e-01,1.404892373324768684e-01,7.979909641825400080e-01,8.836275789735087427e-01,3.673902105210178903e-01,1.564569659305643234e-01,4.737481309719135947e-01,-8.399599414321647917e-01,8.490119421359411112e-01,6.971549790619321341e-01,-6.327420620826277320e-01,-3.957088629182283213e-01,-8.359818525032934877e-01,7.410549014240163102e-01,-4.794622164343602666e-01,3.450092520045631717e-01,-5.731616949717494025e-01,-4.329122930196265262e-01,-5.725493186796055678e-01,-6.813307165612439986e-01,6.357183743823109356e-01,-1.336629732399467474e-01,4.841226325408714559e-01,7.987430012733250928e-01,5.148446693650670092e-01,3.440192645850920772e-01,-4.612362638557601646e-01,4.531156043150416091e-01,3.340448764965328610e-01,4.877753942360559813e-01,-7.703404487215732566e-01,-6.394183274147219320e-01,-3.596176615080143857e-01,-5.672286414075313754e-01,-5.350308342125909000e-01,-4.560891760437363329e-01,-1.330140807045230855e-01,-1.926448222170634439e-01,-9.581963894279437177e-01,9.306658839602095779e-02,-4.580735581202841633e-01,1.303825814955826001e-01,-1.203530279245286216e-01,-1.187745940071443240e-01,2.190873290290883679e-01,-7.446563763555023863e-02,-6.603621353599973265e-01,-4.073511884923282089e-01,-7.054939174779262245e-01,4.441824145312462946e-01,4.108208704667635769e-01,-9.026780905928714072e-01,9.852033334181639068e-01,-7.723916532544461422e-01,5.759252321419179310e-01,-1.742875371348220070e-01,5.012527130649329088e-01,-8.428796149386859060e-01,-3.351099703761336035e-01,7.430245326406510475e-01,-3.080590631796880641e-01,-9.301083320045797631e-01,8.885110912491863688e-01,-4.183135682650337972e-01,-2.087835613546482842e-03,1.373628490718317441e-01,7.833769740719966901e-01,2.894036255680171310e-01,-6.083860901353271844e-01,-6.986708882870652504e-01,-6.930405276174436136e-01,-1.518598617633414305e-01,3.324659639755066926e-02,3.113665850415503478e-01,5.202962753835476128e-01,8.496125808151694381e-01,9.295198883211374108e-01,-2.711007652058259332e-01,3.742354003099278015e-01,-5.064926307453910814e-01,-6.131344521340513776e-01,-7.696003884078216062e-02,-3.302593461612399195e-01,-6.397912173196352859e-01,9.749304157712833652e-01,-7.337351948235349974e-01,9.381122059431932225e-01,9.611199638632891840e-02,-5.003379044001130538e-01,-5.232333896534178130e-01,-2.182597833334457837e-01,2.189078146160371441e-01,2.378692662374989331e-01,4.831825883474361594e-01,-7.584521336014039550e-01,-1.575328723889862781e-01,9.412339295621237056e-01,2.497853084577227878e-01,-6.506999233616496126e-01,-5.208513990773895319e-01,-4.118226687762079341e-01,8.992862434053928711e-01,-7.235108036727098124e-01,-7.941440225098096439e-01,-6.923747756166676037e-01,1.688688072579531130e-01,7.215558516680500301e-01,-1.325694698167506902e-01,2.999103124232095907e-01,-2.030972387886142705e-01,-9.489311175879702187e-01,-6.314760440875853975e-01,7.673717689010053356e-01,3.787070352505380461e-02,-1.128932749077169589e-01,-9.804012355923944488e-01,1.809363931553595317e-02,5.312869886704649769e-01,-1.020896630432040625e-01,4.683584090989152959e-01,1.604730234952347068e-01,1.217458002283965668e-01,4.751522339371077042e-01,1.870262200553291648e-02,-4.798673294261983358e-02,-6.922066828371441494e-01,3.930351899391111847e-01,-8.120498331083049470e-02,9.201855107596247363e-01,-8.391990625390904901e-01,-8.037291013344521895e-01,-3.581797362812475516e-01,1.255546790630913956e-01,1.782600353415951522e-01
-1.020789890619828277e+00,-3.827095429341777905e-02,-2.731815273491520341e-02,-7.293621043459620479e-01,-3.504243904197550941e-01,-6.226594783397498833e-01,-1.386155225265521540e-01,5.999644653110254300e-01,6.406346283892988547e-01,-2.747295566085206781e-02,1.832765334182581696e-01,5.104094680767565784e-01,-3.630744213312399604e-01,6.067717783351557204e-01,8.961637012049050721e-01,6.008756418884163564e-01,-3.562705896410465201e-01,-2.076195311934699028e-01,-5.496613658128429725e-01,6.380019968238490602e-01,4.698452753348232869e-01,4.413109792099712547e-01,8.330798886341216347e-01,-9.417355709871281233e-01,3.141883704830909507e-01,-1.773973140187072306e-01,-5.196010164445753476e-01,-3.397810430877120091e-01,-9.039475941083635613e-01,9.873017157717964981e-03,2.476034447078680478e-01,4.152614764778175815e-01,-9.749207285628840314e-01,-2.045932284979059268e-01,-4.202357432467001414e-02,3.243988242619212370e-01,7.993331963851436905e-02,5.040968936909259179e-01,6.355237349648789058e-01,1.972436606697371420e-01,9.583718887058817471e-02,-8.556865234232210460e-01,1.027890411464469578e+00,1.310070590206261487e-01,-8.800004480352399128e-01,7.464920414446004626e-01,8.518458130521209259e-01,2.690520765479861298e-01,-8.802240527420662763e-01,-4.678729951942020571e-02,-6.069850420781494060e-01,-2.384126663075715469e-01,4.112397450897278817e-01,-9.253824095680754022e-03,-3.991143458366664953e-01,-8.416780931709011426e-02,8.912530619823132438e-01,-1.535195644925834990e-01,2.456893917565853847e-01,8.037466744959811393e-01,-8.362077101642960697e-01,2.385004171558738062e-01,5.148912019108499161e-01,9.073164619602601677e-01,5.451278805208306100e-01,-5.491093923146791456e-01,-3.606682011247493991e-01,-3.787244263653127829e-01,1.496327795202134214e-01,-6.759767843719883817e-01,-4.472014023566246999e-01,-7.949210308801160085e-01,1.769983206106042484e-01,-2.818462736265483493e-01,9.858011328841870258e-01,1.518957588636213329e-01,9.304418421341831280e-02,7.940244303220915789e-01,1.489067309524942373e-01,4.516694060773323582e-01,-6.630951128104517478e-01,4.706332361435507927e-01,-7.989155274774435433e-01,-6.141922283314348308e-01,-3.277702650902065695e-01,-6.038455908516447979e-01,-4.393725152821662538e-01,7.947618143755389442e-01,6.259785479609630832e-01,8.908196915917724334e-01,-2.516056588871971172e-03,-6.602930560665829507e-01,1.365964569683595364e-01,3.536687078567650189e-01,4.882074720175899607e-01,-3.660031767850110418e-01,-9.028857842253514843e-01,-5.014362716158511368e-01,-5.990319863288223745e-01,-4.257233134584305079e-01,-3.047044451778367635e-02,1.811722052949412132e-01,-8.467669824012508117e-01,-3.001106740243430493e-01,-2.637821622072429317e-01,8.735779982425435908e-02,-1.849098574659991112e-01,-8.468952358380970047e-01,1.001856472130044085e-01,8.248422292241718301e-01,-3.581880437415096985e-01,-3.909721257367485547e-01,1.019742746100430031e+00,-5.405316149672044768e-01,-5.055362891977736028e-01,-7.749323695793549627e-01,3.152143790742169549e-01,5.831426645454736990e-01,-1.095204456470906806e-01,-8.904254742826458457e-01,5.882454603619405864e-01,1.603246214584138907e-01,9.944825631760098039e-01,-7.085308403513386200e-01,-3.148717740885581540e-02,-8.946869271870361295e-01,-4.097878913962804126e-01,5.503494281010673506e-01,7.947697787361467370e-01,6.361043099007793744e-01,-1.109384344568984104e-01,-9.842468972172982999e-01,1.601246393390884648e-01,-1.400992142310339972e-01,8.356114736302591717e-02,4.337053086773164368e-01,-8.012945030655479473e-01,-5.270005873114880224e-01,1.713701470492820789e-01,-9.203675981639402037e-01,-7.464326212120726556e-01,-1.026702338532165387e-01,1.139999170863625899e-01,-1.002040891865450867e+00,-9.878462122515397903e-01,9.579871159502310052e-01,8.741862449841902860e-01,-9.154681653984051426e-01,4.667612230541626772e-01,-3.306558429050988068e-01,-2.229771505883208493e-01,9.095484211052156098e-01,-6.732244737900847653e-01,-5.676280514693471391e-01,-1.040967373753356739e-01,3.369792772672473014e-01,-4.537274470703601681e-01,9.556961830892777288e-01,4.780805290141155184e-01,7.050944083829330244e-01,1.872220530332264349e-02,9.413413328164073057e-01,-7.234053216178988333e-01,9.539625691242141770e-01,-1.652800855949983772e-01,-1.018879639548661009e+00,-5.307512958378295398e-01,-9.446756541919252292e-01,-7.226357531975765580e-01,-6.875406905823907566e-01,4.527466293009568821e-01,-7.959349669973529995e-01,8.817745519018470590e-01,-8.512747473896775663e-01,-6.721422816517146348e-01,-8.397363443528150784e-01,-4.457225675007577825e-01,-2.738460839312008011e-01,-1.773187795092678598e-01,-1.036613576836431794e-01,2.193528589125258443e-01,-2.696101326968337597e-01,4.095059228436844639e-02,2.345192525146070905e-01,3.292765902693713942e-01,9.021362634935349289e-01,6.076760891043297801e-03,7.356737550626557542e-01,7.987607817843276337e-01,2.122273130765957860e-01,-2.331006170849756753e-01,-8.197462991803516896e-01,-3.531681994561715054e-01,9.139911078770708297e-01,-7.541842437976788993e-01,-4.770726853134466539e-01,-8.755507727968152576e-01,6.062109757876587013e-01,7.602760699631377905e-01,8.428113603627243045e-01,-8.704372050251496518e-01,2.126162073191742441e-01,5.353892152246003677e-01,-1.561289037493919507e-01,2.783144944333959536e-01,9.454571143219738794e-01,2.461985066043747838e-01,-7.708246465889661003e-01,-6.351569926749542905e-01,7.730504625460690171e-01,-2.769599357670284867e-01,1.574102398637737543e-01,-7.095673581348070913e-01,7.839281993563111950e-01,-5.125596598499300161e-01,-4.955693733534386469e-01,6.558116388779440253e-01,-8.159030568272319650e-01,7.222765711079871531e-01,8.932035847102317572e-01,3.726386081258756811e-01,9.167744481829710468e-01,-7.743876963081899323e-01,-7.092471219535244620e-01,2.071367454784746320e-02,7.152816485564743587e-01,-5.608455446750074680e-01,2.674344585276948807e-02,-4.891731075730589018e-02,2.786421908612982112e-01,-4.001627662186452716e-01,3.410976987652158954e-01,1.590165798137066211e-01,4.444132852505771059e-01,3.589207546360985157e-01,-2.364976507636545877e-01,3.144098035057515950e-01,-2.068820645077275311e-01,8.132868698499006177e-01,-2.334240278932309676e-01,-1.942156785153203447e-01,-1.618062388088190862e-01,-6.250053018623600298e-01,-5.268520834009700060e-01,-8.089931646392088949e-01,-4.091036063380018399e-03,-3.017792044869521684e-01,-4.244413209300990086e-01,-2.433722175964560253e-01,-6.630901171263235971e-01,-8.284699343521894077e-01,-4.745212068840897746e-01,4.602683086719837058e-01,5.397289476956662092e-03,4.735204754141265071e-01,5.466190360407290338e-01,3.097292998895199712e-01,4.900663611007430864e-01,-6.007433111206568199e-01,-6.399012325633599563e-01,-5.130373829039901468e-01,-8.380124458721689429e-01,-9.337307023630719849e-01,4.329855678453773948e-01,-4.134834538520482661e-01,-1.820948992971647140e-01,-9.652622626121367677e-01,4.596278163518912607e-01,7.132733714243438827e-01,7.464262050599187459e-01,-9.279462999122451983e-01,7.202869293883676916e-01,2.180162856280124656e-02,2.685742780292075249e-01,-5.882462869258937577e-01,5.754942125913184992e-01,8.543866967838640303e-01,8.263664402317129065e-01,-3.743628375983041878e-01,-3.231681430313810832e-01,-8.042739562978095114e-01,6.393717489446473223e-01,-9.401223065163267778e-01,6.281802913699837676e-01,2.606540846472723549e-01,-7.850754656519767227e-01,6.957529171518954669e-01,9.170738249804837317e-01,4.802074246470828256e-01,-1.681932131639047312e-01,2.925462810366563637e-01,6.378613155388738187e-01,4.720385499997006296e-01,3.900397803854543932e-01,-7.438998917851459280e-01,-7.355347752644189052e-01,2.258018083818437716e-01,-5.852746415897422394e-02,7.291767123667363126e-01,4.838315777597123057e-01,5.822035542336629899e-01,-5.297490649723185507e-01,1.133697985364695709e-01,2.275447128406858921e-01,6.159784816641264982e-01,5.862121726185376414e-01,-5.521174031736818533e-01,-7.867158430964473759e-01,1.602669280953447351e-01,4.087141221710990924e-01,2.617813484771334617e-02,-4.124590829116976942e-01,4.784927984744412055e-01,-8.130390221043495291e-01,-9.445062661987503327e-01,-4.666107376546166918e-01,1.074422245081132262e-03,-1.029769222568308606e+00,-3.041706911760686527e-01,8.698709787827513251e-01,2.211061027028830839e-01,-6.528090081935877809e-02,8.723654843220959298e-01,-9.614837030655770667e-01,5.278268298442438944e-01,-5.466288267267698231e-01,7.509393090905659429e-01,-5.739004519971210305e-01,-5.693931286660701696e-01,6.992045204930651403e-01,-4.379918104753395824e-01,-6.276548047135864783e-01,4.442145326848559450e-01,-1.435424298611452376e-01,5.138227717919643389e-01,9.497537183318935927e-01,-3.631900462126179119e-01,2.367386978147361931e-01,3.893520643800805758e-01,7.208144731228490615e-03,4.571308586721047063e-02,-8.243447417154191603e-01,-8.722458148444961479e-01,1.896131373312689439e-01,2.674872154731827711e-01,-1.507088762023796047e-01,8.303188294258353336e-03,-9.462450100692716415e-01,-8.369314490841091025e-01,-6.621940197071588541e-01,-8.030857267388135101e-01,4.829546532544776727e-01,-6.249234339213933787e-01,6.699688639231133891e-01,-3.037944902916995815e-01,1.451845484274552622e-01,-9.973602704703578015e-01,-1.825460478894281036e-01,-8.018146689237242164e-01,-8.053315253161328346e-01,7.890111548877313252e-01,-7.966715244256078465e-02,2.220389167182918455e-01,-4.212216053944687344e-01,-6.550977598134025692e-01,-5.113883103856011747e-01,1.421046878868104275e-02,-1.858697707356360973e-01,-6.448154122676531819e-02,2.714312240786218022e-01,4.518951696471391610e-01,-4.828827653700783484e-01,6.865854600424891041e-01,-5.857068697282406117e-02,3.284794044770399102e-02,-2.153170739951773272e-01,-9.883943253680052554e-02,-3.978030023459284137e-01,4.762095159141761097e-02,8.665229688692485110e-01,-1.283462729667518565e-01,-6.753227770896343962e-01,6.531676369609057398e-01,-8.752198940804555016e-03,2.409890527154422701e-01,1.409371609486761157e-01,-2.070456403880779339e-01,-4.609329978340409584e-02,-1.876319481712566684e-01,-3.622637034613211959e-01,-9.562280330169914411e-01,1.322078820715739400e-01,7.003002934678734248e-02,-7.831500695583768490e-01,3.039620034004486548e-01,-5.455954674663071602e-01,5.842094190013942256e-01,3.044336870313746335e-01,8.043396184330527943e-01,-3.294653392231717270e-01,-6.255843622686374506e-01,-1.055220952454166694e-01,2.424976742977936195e-01,3.781208654036603001e-01,5.936398718734616775e-01,-7.263910438260512414e-01,5.168470562035984983e-01,-6.887317454288174323e-01,2.074903072091309475e-01,-6.268900269286620253e-01,-9.106698922399641960e-01,1.476171981012225076e-01,-3.956498401706275425e-01,1.585710566123641752e-01,5.067808833093236931e-01,-1.008953366511462280e+00,-7.475823918864312745e-01,-4.532945640068292703e-01,-1.050536505969345225e+00,-7.430756393943573901e-01,3.308272263797980561e-01,8.788976795387437591e-01,4.809908503948582270e-01,5.710382576595927073e-01,9.665666566430224371e-01,4.799765650980636345e-02,-8.062907447785389037e-02,3.082425838163155296e-01,7.088650904313825718e-01,-7.066073047937052598e-01,-4.015574978649792404e-01,-3.978105240182987501e-01,-5.756499366160270359e-01,-1.060327609790693515e+00,9.213507475436761851e-01,2.905747670596650067e-01,-7.738254053919416675e-01,2.437000723714385642e-01,6.238438099280858573e-01,-5.555237130530613632e-01,-4.515841852004925244e-02,5.856121986406123137e-01,1.168891628383903793e-02,-8.084366543562800933e-01,-2.621301507626084271e-01,4.126541105533695353e-01,-4.808244380572573307e-01,5.533233383712070630e-01,-1.010342456315165283e+00,6.884566093153005051e-02,-5.827883887720721745e-01,3.364323904128241338e-01,6.927533493024568001e-01,-2.000175750363505922e-01,4.531000421975961423e-01,-1.140076557021444947e-01,2.660533346879034311e-01,5.192887000576055234e-01,6.288972347922737738e-01,-7.369324408877062638e-01,3.493989274921272536e-01,-1.421098307871963562e-01,3.377889397418690764e-01,3.092274572002878252e-01,1.789081153293500814e-01,-8.524760530214156029e-01,-7.144922444141009743e-01,-6.865726836629666430e-01,7.393484532749815541e-01,3.424571787593388428e-01,-2.582198289002423652e-01,-2.351618630973301149e-01,-2.192242419858508040e-01,-6.103705809071295896e-01,1.368503022319446094e-01,-5.163312710857456134e-01,5.232432870405285819e-01,-1.377528949378459544e-01,7.328553920142910627e-01,-5.692427355148004242e-01,2.224419600811955999e-01,-4.722602875649643539e-01,-5.623890968646434452e-01,9.170001731406569601e-01,5.884447497804251581e-01,4.850496800206844927e-01,5.900276363294022497e-01,-1.508477883023902344e-01,-2.823999833840421525e-01,6.773202748056819100e-01,-2.913151113996212960e-01,6.299482719405420372e-01,2.782679563669158140e-01,-1.041370276343527745e+00,-5.635979272625264019e-02,4.376392165641672660e-01,-3.487773197137245540e-01,-1.339530646185528029e-01,6.731967610267077795e-01,1.626269192852164147e-01,-3.742411551928707253e-02,6.640217853679164506e-01,2.583130486897724509e-01,6.518010590291043460e-01,5.984282790965805843e-01,-9.237720349123104135e-01,4.086400315039026565e-01,3.119331317559791428e-01,-3.432285290803560041e-01,-5.584876870939488036e-01,-2.372641528041165571e-01
6.909555594485677910e-01,-3.724389620473712581e-01,-6.795045136566083555e-01,4.666767712729770201e-01,8.128026602200529860e-01,2.338660578927117834e-03,5.633258960739613297e-01,-3.766622209068806182e-01,5.926462724204113464e-01,2.391316603486655923e-01,9.357242743201770185e-01,-7.104314939234644966e-01,3.450267578691555426e-01,5.148208123424631300e-01,-4.456694408917681316e-01,-5.271362602349536491e-02,-9.462046150020488877e-01,9.301785890898139897e-02,-2.378913004784509455e-01,-7.688631043882919736e-01,3.241910507554647825e-01,-5.827538412326195294e-01,-6.587636153203442202e-01,-8.108945512758032603e-02,6.481349125822939705e-02,-5.077840802246440521e-01,-1.024735805871840988e+00,-5.057652058741533008e-01,-4.044664133755710433e-01,9.647379451961418662e-01,2.499411783569717715e-01,-9.958882864369034138e-01,-2.397704948547933756e-01,-4.299174611069655483e-01,-3.103590993086038918e-02,-1.033173382413865138e+00,-1.219918438073043232e-01,-2.478413015551648169e-01,1.131166844007863714e-01,-6.707360631564569520e-01,3.711761426123069141e-01,-5.926168963027822478e-01,-7.407152826984655380e-01,-3.851843213428362001e-01,2.729868695404499279e-01,-7.783062028868544813e-01,-9.225845544300719236e-01,7.433250029197241426e-02,8.549160780639077917e-01,-7.307754520719060842e-01,-7.210903990116663831e-01,5.272035961536747362e-01,-7.098832925690511386e-01,2.900797087283850106e-01,-1.005639459503277156e+00,-2.421986866333010469e-01,-8.565956343051797095e-01,6.635231424572879400e-01,3.573312041592859312e-01,8.319258775624812641e-01,-2.504139672155646368e-01,2.345545362258093236e-01,-7.584715180774759258e-01,-8.079616579867165971e-01,7.644582715242538296e-01,8.267685871943943887e-01,8.985248498294149400e-01,2.459747255033028698e-02,3.210194237081656077e-01,1.649530979969119071e-01,2.509133402225849907e-01,-6.173459902653759546e-01,6.612439180969914565e-01,-9.386992593362514237e-01,-4.752149980038780641e-01,8.284625603145625572e-01,4.187662145551526161e-01,-6.141399586581489795e-02,3.013699205420155014e-01,-4.721203567882482077e-01,-3.127212266458395673e-01,2.259823658633029475e-01,-7.512763487754544611e-01,-7.493228285314480486e-01,-9.531313994571946613e-02,8.601008565418409857e-01,-3.156349886652957126e-01,4.885722035850567635e-01,-8.234114088629345130e-01,-6.437117798705460636e-01,-2.946659902680999754e-01,-9.021867225134315715e-01,4.153563095006123640e-01,-4.679672812701801687e-01,7.057112794581944515e-01,7.878523260981422638e-01,3.993145463710142673e-01,8.444092259863253402e-02,-3.975517466104126069e-02,-1.776982651394178325e-01,-3.011446172855606895e-01,1.186824063589338313e-01,-3.452912768612705352e-01,-5.086254602284633330e-01,-3.493425731128018130e-01,2.863962810183536267e-01,7.933900436765737307e-01,6.711076698791117456e-01,-5.825590598331261555e-02,6.406928616480439542e-01,-2.232911600434545896e-01,7.158471608450598378e-01,-3.691612479163816195e-03,-7.399338806177204741e-01,-1.033092201207768124e+00,7.586786478934534061e-01,-2.293550851236831473e-02,1.870691154417247759e-01,-5.032479289165495695e-01,7.100527472228889136e-01,-7.074980848301678504e-01,3.404262111582521122e-01,-3.527812616007453550e-01,5.451001645703620335e-01,6.518785232545258879e-01,-4.805394361491320820e-01,-1.012185255983796939e+00,-9.958971907536513513e-01,-8.179590040593881506e-02,5.139685610383355474e-01,5.354884717720320708e-01,9.368275265886961689e-01,-7.974181283148219501e-01,1.927641511362477855e-01,-8.189822421027775912e-01,-8.331014744746614298e-01,-2.075429891187299258e-01,-9.525441662181571845e-01,-1.455523028599319812e-01,7.671150272496383149e-01,4.023292342793952092e-01,-8.201625864094479468e-01,-8.905499671603397394e-01,-7.175363543815356515e-02,-3.357518165688613831e-01,-6.039622635096668635e-01,2.481609038007568172e-02,-6.457376212121811454e-01,6.983443847863969323e-01,-7.381971544131054053e-01,-9.396024386475886336e-01,-5.176545954140086003e-01,-2.347968774986412543e-01,-2.910732308704441426e-02,-7.891130926095189790e-02,1.013432866818353706e-01,1.611518841365618682e-01,8.397688698794253392e-02,1.160407572382485680e-01,5.485145129886277449e-01,3.216468253382617215e-01,1.258686122884168646e-01,7.138520341153560267e-01,1.341373414120463903e-01,-9.224745310695505740e-01,-3.868059255835097909e-01,9.040601075358452310e-02,5.245309044354827532e-02,6.135261721962319559e-01,-5.340975390309117277e-01,5.617572515013931067e-01,2.438184239637445627e-01,3.055058800905297023e-01,-2.203556007051793719e-01,-5.562051528881325480e-01,4.917046186262981067e-01,-8.240507508303743789e-01,8.426166219879138025e-03,8.753162216472715196e-01,-2.564505653404813845e-01,5.054221738165469713e-01,7.497177027267942773e-01,7.824894468879156628e-01,9.094995231675334635e-01,3.328079150223018368e-01,6.098428961434979589e-01,4.740977764463207844e-01,-5.751362825989788652e-01,-4.679750898730187236e-01,7.950924373088219532e-02,8.501591446647057682e-01,-7.924202572228169483e-01,-9.892611991266121452e-01,-5.984126810506309457e-01,-5.420519968991429627e-01,-7.974343711134141977e-01,-7.536829485807361451e-01,-8.035481002125167693e-01,4.563080834573906563e-01,5.609967297054384572e-01,-8.470362208960867667e-01,-1.076029427749035233e-01,6.143423216368466139e-02,4.833678196260947080e-01,6.973253737814288922e-01,-4.551685080458656163e-01,-6.861748872070209115e-01,-9.878013399649619997e-01,-7.536499604531182728e-01,-7.788674408554115969e-01,-7.641514805503493157e-01,6.943795190824727515e-01,-2.884296083130941102e-01,-1.944499404798335496e-01,-3.719661512120357449e-01,5.265128021576622741e-01,-9.240861428196545102e-01,9.279049724641579011e-02,6.425333607783996204e-01,6.286717620845215793e-01,-2.077368763481328776e-02,4.189818685023283806e-01,3.175371894102055892e-01,-4.154799226722675209e-01,6.586968342346358751e-01,8.845044644952860802e-01,-5.232727698925913884e-02,3.967663615760834150e-01,-6.377049923469741977e-01,-1.634837040049651746e-01,6.804636585670338356e-01,1.458580641447616844e-01,2.942687343742340575e-02,5.882891494735300597e-01,7.310255548726194430e-01,7.595802373251583361e-01,8.018631042972703682e-01,-9.495327420688333131e-01,7.231368193282861068e-01,-9.588149331879015913e-02,-7.232785231718743546e-01,-9.525849162908945900e-01,-9.799876228513130227e-01,-9.748069788813847891e-01,1.987096904417514492e-02,-7.792269440159027560e-01,4.442647045884127177e-01,8.252334273467566428e-01,4.382332825792520925e-01,2.099535239967233458e-01,4.746132723633791906e-01,-7.393461269557244364e-01,7.007008780371607459e-01,7.978115200563931642e-02,-9.317780269450509634e-01,-6.696057756494487867e-01,-7.506577281575908811e-02,-4.700075332726424970e-01,-3.051904854013369195e-01,-8.387318368231357901e-01,-4.659424320455337470e-02,4.833879116082467897e-01,5.913620373841478317e-01,5.631284256907994612e-01,-2.095024206121723631e-01,3.923434722252412410e-01,8.861522587478648516e-01,-1.072375294365366478e-03,5.983517191522166323e-01,1.005125837292923041e+00,-2.577080011848901717e-02,-7.979333166801177990e-01,-6.386108386483201338e-01,2.030574598554691357e-01,7.907258914013362006e-01,-3.997223579087472167e-01,-8.499226344856196658e-01,-7.547463239694469639e-01,8.502300889277945029e-01,-4.531294196740626168e-01,-4.772023341479426084e-01,1.397130439108122402e-01,2.999268661705890571e-01,1.750207731539157319e-01,4.156483835463952725e-01,-4.894952765465137023e-01,5.692009458507524267e-01,-3.914854347104922971e-01,9.472291503256501377e-01,-2.301169874996892017e-01,-7.110511062385141967e-01,1.190524253637438579e-01,-1.835719782306902415e-01,-5.577083610537209024e-01,-7.105534716984230892e-01,-8.672637480883041983e-01,2.139216025493532181e-01,8.154220354801209325e-01,9.557072452385884098e-01,9.121363333543370810e-01,-3.905681383665212114e-01,4.496966334406625743e-01,-9.282698991643393294e-01,-1.393671971168187196e-01,-9.137860057678055536e-01,5.203571002355493746e-01,8.640912941718243978e-01,-8.043699081240253124e-01,-2.773419463183682265e-02,1.757653666433053319e-01,2.720201767129123427e-01,8.321592157243328236e-01,-6.885684061663491784e-01,1.090183973245088395e-01,9.244630624811367436e-01,-5.776968720057975570e-01,1.390725424312463376e-01,-1.021636543706209821e+00,-4.776550255233970588e-01,-2.887500879735603321e-01,4.305650242217005097e-01,-1.443282244658529445e-01,-8.480667728289323914e-01,-6.491047869027994910e-01,-5.778448423047541915e-01,-9.643093509288086507e-02,3.676822202176484033e-01,5.728031028767772703e-01,-4.071068649695888109e-01,-2.758323695639549600e-01,-7.750496559818138564e-01,2.174986780095598815e-01,1.004181534516325636e+00,8.862530730132688328e-01,-6.223965690164741105e-01,2.862421494572445768e-01,-3.694041368624179089e-01,9.156993052115595111e-01,3.525259053375930929e-01,3.986413480925911079e-01,1.484580398936941881e-01,-5.991672570537993625e-01,3.091295148908438928e-01,-2.756582962487977295e-01,-6.083649552796284166e-01,5.900631290669394735e-01,3.735239795592033146e-02,-9.340368232375266810e-01,8.629392940538481716e-01,6.350494337951537727e-01,-1.009923560801100129e+00,-6.319841762925992867e-01,-5.578463287790553782e-01,2.319856250467338676e-01,-5.328274367985306181e-01,9.188818055312034661e-01,7.374035390921895861e-01,4.897809730477914458e-01,2.377118773544705799e-01,-8.440986962347561962e-01,2.004535266795529676e-03,-4.773270293722334801e-01,7.900874650769762475e-01,8.417116861761911872e-01,7.308577024020770363e-01,-7.767230469494962319e-01,-4.014672052423258475e-02,3.474209817631420671e-01,4.129038768845607610e-01,6.218315297503096417e-01,-1.087645440567044514e-01,4.442992549019836868e-01,5.779668725127967699e-01,1.689287214468175313e-01,-9.048663500992633058e-01,-4.192967648446026541e-01,-9.470126901316909818e-01,-4.264745006490100465e-01,-7.001063236673029655e-01,4.150342582425760041e-01,8.491191144171704730e-01,5.559824532451718149e-01,-3.380908312588204456e-01,-8.916998193581268106e-01,4.713466392838849273e-01,-7.769026413633113304e-01,2.231222867391859099e-02,9.787351468175510272e-01,-9.292421524636254038e-01,4.772448253672330609e-01,8.248523058173366784e-02,5.225066265043814412e-02,-8.423058907087899172e-01,4.268422295269226341e-01,-8.282667600884550119e-01,9.209780628312853601e-01,5.207318342914744047e-01,-9.790460923405848448e-02,4.279873670936012314e-02,-3.433634565525966326e-02,-4.173174294728847489e-01,9.027580611524357312e-01,-9.271488180975226978e-01,9.667635646805838867e-01,-9.092030826306660707e-01,6.099846807553291894e-01,-7.309617262046248509e-01,-4.401975236921846779e-01,7.670468845128524116e-01,-4.513023222527632328e-01,-1.257270291551203234e-01,-2.440250505010956583e-01,5.179110723271871386e-01,7.949611021500168073e-01,6.499081394331661377e-02,-4.806942248065554923e-01,6.702453017426741599e-01,-3.666887280306322175e-03,-3.957797751083771964e-01,-1.350168731485909268e-01,-4.845478413300782772e-02,-9.484588889449058202e-01,-9.244645541776463915e-01,-2.521405182501867404e-01,-2.378660494863968078e-01,9.173374610567793797e-01,3.525737516516128101e-02,3.924866764355599558e-01,-6.393787323044923809e-01,-6.532617270918471553e-01,-7.046465447745438038e-01,-6.999283719757185551e-01,-7.583504670571235007e-01,4.271045887352458714e-01,5.465530877184850977e-01,7.160497352074949307e-01,3.363681036320599893e-01,2.389597098761896687e-01,5.970648396481099685e-01,2.404925563396755062e-01,-3.328050265567644717e-01,-1.912618479218322065e-01,5.460573548284073375e-01,-6.751101311537907046e-01,3.096310296392155159e-01,-3.674729878053212828e-01,-9.552150783536944578e-01,-8.800143792418180233e-01,-6.653197532007143478e-01,6.172687467286397389e-01,8.036582641623984946e-01,1.565818419983411661e-02,-4.284959030134995461e-01,-2.091860524226160645e-01,-5.670285054938799529e-01,-8.142326644630223376e-01,1.192058810087941456e-01,-4.101657368345415500e-01,-1.742444643595389420e-01,9.693339986375818507e-01,-7.807597765978008253e-02,-7.606773423408369483e-01,9.538175530000911895e-01,7.069113629357193229e-01,1.173257266336727306e-01,-1.133206251286828226e-01,-8.540303920407839033e-01,-6.538510375523133578e-02,7.627535876677219440e-01,6.493784279444726470e-01,-8.024773074302217202e-01,7.137282510990290429e-01,7.066678646128046193e-01,-2.583535823339137005e-01,-6.592763930963347896e-01,-8.196064822019748508e-01,-7.533460210434982374e-01,4.894670917226774387e-01,5.420701680423910540e-01,7.899747152549975171e-01,-6.783626749823997715e-01,6.606275706708177875e-01,3.685389090392980349e-01,-5.003451475519524738e-01,-5.011094835537259762e-01,8.782329295436370753e-01,-6.693200628629903948e-01,6.204215402943721314e-01,-2.564643665823108099e-01,-9.442814275955360159e-01,6.088724382114873990e-01,2.518861777994422790e-01,4.695760219270016522e-01,-6.393627586328745060e-01,3.700330894387729441e-01,-9.424756071624391662e-01,2.092040967795061324e-01,-4.413221389915095716e-01,-3.094927322568902239e-01,1.565866677770501036e-01,2.573736542837344321e-01,-3.161669173067415683e-01,3.934942034202824623e-01,-8.176509016565163268e-01,-1.001668653787106678e+00,1.295938346425097587e-01,3.036844620126776251e-01,-6.471393124039828137e-01,9.578715782988728167e-01,-6.385111750910242856e-01,-7.391580572776397517e-02
