2.826006209387626686e-02,1.232919637329640494e+00,-2.317203143351865280e-01,-1.388694415293277307e-01,-2.182166266006125288e-01,-4.097809170197067030e-01,-6.829938838475012597e-01,-3.844886017738583517e-01,-7.595723261717660102e-02,4.680786271358477468e-01,2.389205743242673041e-01,-2.747097521446259516e-01,-4.469688767359860648e-01,5.074487819739734867e-02,-6.395285338148667398e-01,-1.072481120562389201e+00,-3.321511056166606690e-01,8.024936454519426832e-01,1.002460319503575503e+00,4.498784887432129564e-01,-6.155950794709224017e-01,8.748659234967158804e-01,-8.137439272360776077e-02,6.678836129703080715e-02,1.493351612614128854e-01,3.750956066565306335e-01,-7.620757052330990877e-01,-2.019339213287810464e-01,1.791380690255564845e-01,2.214462953988786120e-01,-3.491988187707124602e-01,-1.902334563346898544e-01,1.435414890826922918e-01,-5.583565245322124060e-01,-9.532477783487615097e-01,2.156336594362990300e-01,-1.420694676746976359e-01,2.402802312216183733e-01,5.418118207246962470e-01,8.785445716913160563e-01,-3.040639607407553235e+00,3.531344413719640363e-01,5.848003204659504295e-01,1.506429489887625983e-01,-3.259478157209055871e-01,-5.117675560288655889e-01,-6.036625482790138886e-01,4.496846754268779556e-01,-7.345640150948780089e-01,6.415920465636171244e-01,8.113527077720990022e-01,1.850745705771642824e-01,-6.812637726973485019e-01,3.090869582907616597e-01,-3.297687698161955727e-01,-5.430754465855508473e-01,2.389615406165520872e-01,4.602573937741972765e-01,2.199705725555830757e-02,-5.999237045745711150e-01,-1.089265258920454782e+00,5.381781929528725028e-01,5.259995461951548767e-01,1.363009818906038839e-01,-4.284379567450916776e-02,-1.959549741760734376e-01,1.446561128313096356e-01,-4.102360913577417501e-01,6.670536930235354545e-01,-8.336863889627967872e-01,3.974227839353261515e-01,-7.427408115208177231e-01,-1.980986653366175465e-01,-1.847687640101398215e-02,7.476708712936869228e-01,3.143286749217205633e-01,5.487174936751944010e-01,-1.203232383681829831e-01,8.750414957070451472e-01,5.473439694669922639e-01,2.097304035605585676e-02,-1.946577718507555843e-01,8.622978610136601552e-02,-4.234231412199297995e-01,-5.737530284823664228e-01,-6.308264736844551024e-01,5.135418885894987157e-02,-2.645730719907218864e-01,-4.471387019596001489e-01,-6.657311927704591126e-01,-9.645927769855870693e-02,-1.900573760072023499e-01,5.909884681682631147e-02,3.589843323309139800e-01,3.475019373347837393e-01,-1.149253947986481839e+00,5.576863345943782191e-01,1.730599663047371894e-01,5.513462334307455137e-01,2.558421417714106250e-01
-2.363807989486874206e+00,1.320925975687098353e-01,-7.655882505646001146e-01,7.023430999594323376e-01,-2.687927983342091598e-01,8.961028016899076631e-02,2.366583079996422423e-01,-1.016739184431275200e+00,3.783072455430948056e-01,-3.335425993772240250e-01,-1.691645943798770091e+00,7.494989608982647322e-01,5.779884958209169366e-01,-2.435240324045514770e-01,1.298018638249889722e+00,-9.187043237920019534e-01,2.532581971355828965e-01,-6.146106474530204089e-01,3.113829397060449700e-01,-9.449189058313718359e-01,-3.425587294898202462e-01,-9.307525774171369892e-02,2.150295704620310278e-01,4.771639037144995710e-01,-9.068382120603644125e-01,-5.652362987685580764e-01,7.662180295252215556e-01,-8.771699455732018258e-01,4.103816441373971946e-01,9.032241732704957005e-02,-5.908675222581675213e-01,5.878367237227754005e-01,3.206946425435799192e-02,6.625007460542797766e-02,6.120099012844337771e-01,4.578931229019152505e-01,2.091520233021106623e-01,-3.835940517091466218e-01,-7.717094926367921159e-01,-5.387982108632879269e-02,6.234330392020209777e-01,4.184779984816046627e-01,4.310895121194380925e-02,-3.967412763804453180e-01,-1.010620632528464347e+00,6.210732128180196376e-01,8.931363863185235452e-01,8.347481119749173839e-01,-6.306544283874523371e-01,-6.004980473982232114e-01,2.260909003485551683e-01,-3.833630483280582313e-01,-2.246986185882405840e-01,-4.932520484525542148e-01,-5.195935017971147624e-02,9.805347058874381849e-01,-5.444692409917569753e-01,-5.146103358825973029e-01,-8.951735827375153498e-01,4.866330570417193857e-01,1.690310730057192901e-01,-3.284677635131375006e-01,7.055473960060233418e-01,7.065800082372873936e-01,-1.083484450067888211e-01,5.804409884495358440e-01,-6.721493696775059090e-02,-5.559453685809997436e-01,-2.282441621762109352e-01,-8.383638346718643719e-01,5.673373160349944877e-01,-1.011211136145209410e+00,-1.155107243178205900e+00,9.957367358975045546e-01,-4.964978243645353784e-01,1.041110325733553832e-01,-9.259046621986833925e-01,-1.900015574022514365e-05,1.905803195762315050e-01,-6.459856057675534835e-01,3.796740881631736619e-01,1.075702374659852190e+00,-8.323129193703751039e-01,2.548825674905342287e-01,4.607130768178656632e-01,-2.091908800265814827e-01,-5.454227146841326146e-01,-2.066027315760214089e-01,2.330299954956338571e-02,-6.346079160792011953e-01,5.776892591183085957e-01,-7.674853593638951699e-01,2.207235689401178605e-02,4.591306294843968128e-01,-5.730417655965703849e-01,-2.687146561662153155e-01,-7.323459276572710230e-01,7.437316367395238048e-01,8.238191652263707199e-02,-2.605288587171561074e-02
5.401013216519818805e-01,-6.342735871275243520e-01,-6.614146760145916959e-02,-1.058346872810054552e-02,-5.207711717743581520e-02,8.207527670571819201e-01,-2.581384367973781901e-01,3.088050430485628217e-02,-1.252548375953105482e-02,3.643576964744129065e-01,-7.223259773412313844e-01,7.263301826264558780e-01,5.518443617592585504e-01,-5.392921193515569644e-01,1.673493424388791673e-01,4.323347704610382425e-01,-4.656834428247298707e-02,4.566814550244404636e-01,-9.510267970672172666e-01,-1.682301882395714487e-01,2.664657318794444230e+00,-3.479982971403030034e-01,-7.276738521026604456e-01,-4.912578169818199170e-01,-6.369866116924344235e-01,-7.167109888677432039e-01,7.752939698201541940e-01,4.462721458821017340e-01,3.065261915938541359e-01,-9.256869708185982981e-02,5.970228893344770027e-01,-2.318954967486461238e-01,-5.986385583735863714e-01,-5.198812724454184853e-01,-8.059468037030704801e-01,8.900437584989775441e-01,-5.629108400317623939e-01,8.729376432465877356e-01,3.065551545587170690e-01,-3.502600676766249310e-01,8.473497605080135830e-01,-8.565719754470118019e-01,-9.003024087059953162e-01,-1.241031385024370826e+00,-3.137819425992327549e-01,5.148540838158205402e-01,-6.074650981072435979e-02,-7.504306878975433581e-02,-8.594800932196854371e-01,-3.317007077903350032e-01,5.865910679274733974e-01,-2.104214526142617336e-01,2.352803838440029049e-01,-9.905196137185346972e-01,3.512824753574968484e-01,2.782895969161852112e-01,6.955674664087618808e-01,-3.993725365330638155e-01,-4.449308730205483453e-01,-1.355025705365583977e-01,3.848965777662612942e-01,-6.169676621683825024e-01,3.534238512230076790e-01,4.814915706162449793e-01,4.626096058462403349e-01,-9.977632107773559689e-01,2.841243119958392627e-01,2.553266603997309536e-01,1.156594487422778261e+00,-2.464951881596938732e-01,-5.462490974770040086e-01,-6.034169711870795982e-01,1.401291772986364981e+00,2.787868471632939937e-01,7.890305088159359492e-01,1.586994479588835216e-01,-6.188700484072118257e-01,-1.393580472359321032e+00,-5.271540428640177078e-02,6.186549980162062701e-01,1.784579690165568888e-01,-7.711786860018762790e-02,3.730993931011433173e-01,-8.346678568506112061e-02,4.129525414251162818e-01,7.788172660885954723e-01,-7.211703970833769350e-01,-1.291452161117877973e+00,1.272209486042026994e+00,-9.314671486976763282e-01,-5.109308692332000801e-01,2.795680098059351582e-01,1.935588754824877078e-01,3.742681348843421296e-01,-8.732111523253687224e-01,-2.415894011919623441e-01,1.158997098464782799e-01,-1.384677444422817427e-01,-3.391567716844828273e-01,-1.270140718286660864e-01
-6.952126747986371313e-01,-9.752297003517624852e-01,6.503207809102002912e-01,-7.645010395826352667e-01,1.851796336169415358e-01,6.634835070022998549e-01,-1.631757342723948873e-02,-7.401801301997508187e-01,-1.357243678023835678e-02,3.975232679396130675e-01,4.006352518506355320e-01,5.729474410603818679e-01,3.387669055875989765e-01,1.472313738904373059e-01,3.912834640235656608e-02,3.780563150162599140e-01,-3.060718264014296586e-01,-2.060309230531818525e-01,2.254767239281383617e-01,5.176276644813062600e-01,7.540414013585571007e-02,6.661670937261912062e-01,5.620472253039279220e-01,3.161444270758315689e-01,-7.281714220367260237e-01,-2.165268565084114694e-01,-6.386803262897726707e-01,9.697293019837174496e-03,-2.357393663790558758e-01,-3.913000712474436898e-02,-4.402464548443651982e-01,5.113780748379745944e-01,-6.580042169641371341e-01,-3.180854184343022140e-01,6.426920921259968167e-02,-3.991051111749112090e-01,-6.540864719839939445e-02,4.973374913139719244e-01,-8.206537371163011851e-01,-3.266847935236166234e-01,-2.441767071703104530e-01,-5.716805486276422821e-01,8.007301953231009684e-01,7.391492833963567155e-02,-8.265145719344031416e-01,7.287400277475636519e-03,-4.762078066673197108e-01,-7.848864749197940194e-01,-3.195994820277489046e-01,2.883900984449205285e-01,1.318466578174784798e-01,-8.442537060825671125e-01,1.687456039074255010e+00,8.932155678132720489e-01,-3.660376999375368201e-01,3.660718913109179407e-01,3.558638831795019053e-01,-4.180799238422772679e-01,5.240347919515480068e-01,8.734436140850338273e-03,-4.167923667266358878e-01,-8.740491374784986611e-01,-7.869238295121131488e-01,3.146382858617137734e-01,4.867915307463004937e-01,-6.750866494282734553e-01,-3.188000173906849893e-02,1.489547645103320439e-01,4.583957290728741807e-01,-7.841983079357436326e-01,-5.597708629480679238e-02,-8.949112317840997033e-01,6.360222803672854752e-01,2.885992096804165241e-01,3.889471524876771391e-01,-2.246929194358761317e-01,5.346496855744511389e-01,1.335434219488004504e-01,9.825567795315308384e-02,-1.666201930213683458e+00,-9.764368873062219123e-01,-7.482530056398581930e-01,-4.112200610805111789e-01,-6.823485330120606651e-01,1.507991240613806516e+00,-3.618122700254672308e-01,1.818427043649457175e+00,-1.865142735830848109e-01,-4.941431784351498213e-01,8.485922888989595736e-02,-4.670362069912502023e-01,3.835625824667913686e-01,-7.125730216353691748e-01,2.810116131168871600e-01,-7.762246497996891925e-01,-8.813950582813928625e-01,2.039433727659729079e-01,3.046556158603320186e-01,7.289047313946618312e-01,-7.214711653798756563e-01
1.061595530883367777e+00,-2.848680890823683254e-01,-6.515945780091416673e-01,3.581460741059931674e-02,1.720389214616300511e-01,5.164350215127925248e-01,-6.810353752552775752e-01,5.644184061946256881e-01,-9.117650930897455708e-02,5.373923519390897408e-01,2.471429759696216338e-02,-4.833482626791155146e-01,6.116372571458555951e-01,-9.397560535707379925e-01,-4.793168120376967156e-01,-1.139882443345694163e-01,6.968525233050383294e-01,5.195430407062682221e-01,-3.298309487743928958e-01,4.132953218301999021e-01,-6.449362038725344748e-01,1.116935583098843665e+00,-2.778125053576052106e-01,-4.651525213468108988e-01,2.423011918152346011e-01,1.166806373445780781e-01,-2.018417493169255283e-01,-1.557733233818526797e-01,-2.463039590447564930e-01,8.966517705591883214e-01,-8.800778932561000856e-01,3.907675917351469130e-01,-3.718546205790256853e-01,-4.911216651562030355e-01,3.738763215113240501e-01,6.770370289388675245e-01,-1.880543768542833671e+00,-3.071571373009834849e-01,-4.102745908005457354e-01,5.595821053916864019e-01,5.910590971888397549e-01,-1.913481137105394192e-01,1.544725778355709733e-01,-1.135423487403693921e-01,5.203164613067131627e-01,-4.802903857324304360e-01,2.916312758354036028e-01,2.136062795672917236e-01,2.981203432365691630e-01,-2.476390079644725517e-01,3.895713798474231826e-01,3.800950713165495154e-01,1.383194684185829748e-01,2.808311392738387369e-01,-2.719459166166319219e-01,7.692189122950074953e-01,-5.280569370022636377e-01,-1.961120970993605883e-01,-3.354902136444873340e-01,-6.565919924816835396e-01,2.190658465237242392e-01,-5.739958726087133201e-01,1.129570263003941921e+00,-1.082740915159537964e+00,-5.722386147528975009e-01,-5.493609402030552591e-01,6.879165138459817364e-01,5.864648007460505907e-02,3.567560039341308720e-01,-3.319244617320260549e-01,5.561403264727655671e-01,-1.567992297303922866e-01,4.795373877915600769e-01,-1.254970567848877394e+00,5.462398946130809785e-01,-1.382668081575271213e-01,6.832583975224482131e-01,-6.320233119194903493e-01,7.130882320571904076e-01,1.013245194929990184e-01,1.057595910592389055e-01,-2.502112613377512063e-02,3.671385718316029778e-01,-5.412098147540365251e-02,-4.961292927110581008e-01,8.142487926317032443e-01,-3.346070163002391462e-01,3.269716027183876550e-01,-7.758820676707364195e-01,-2.414391647544991137e-01,5.259954668643825881e-01,4.735963540139250250e-01,5.232187380274072597e-01,-4.724252996295910667e-01,2.933611576881175464e-01,-1.067213360979663711e-01,9.059891466953489125e-01,-3.750785809050644626e-01,-3.526703634474580018e-01,5.773862329462879917e-01
7.898089708812161547e-01,1.100836476849135215e+00,-8.116150903706303987e-01,7.442435055013922884e-01,2.105016311105142590e-01,1.642161364489412301e-01,-1.143917292538500385e+00,9.160765058883472145e-01,7.653152633559526796e-01,-6.621042086091795398e-02,-2.123794863963108376e-02,7.323571644116620982e-01,1.986749946966691605e-01,-4.068923062542553204e-01,3.191136616414419480e-01,-4.356703440672163308e-02,-4.514571723495320876e-01,-1.213733774652037412e-01,9.614856503139278532e-01,-6.434500289295383979e-01,1.908508148038073893e-01,5.523634725324705341e-02,2.420443621882827079e-01,1.369333117609584927e-02,-5.819979994604416312e-02,-1.293074758025256621e-01,-2.113456597142864268e+00,1.760514166832523875e-01,9.384383054426269632e-01,-2.003576117665599177e-01,-5.117280560794565947e-01,9.303602527186449755e-02,-9.041119018954267214e-03,-6.126597850101784815e-01,3.525225829395052801e-01,-5.465824818138953489e-01,-2.817867435313085034e-01,1.554611283325554039e-01,6.818065875960946931e-01,8.260822611158945283e-02,-7.288625940493785593e-02,-8.997446274039035477e-03,3.386416987447615767e-01,-5.354873553146181075e-01,-6.663591616988348010e-01,-5.728772509884733077e-01,-9.843284434037479214e-01,-2.097911242035916946e-01,-1.930057657150430483e-01,-4.604652013911149089e-01,-7.947645160323197899e-01,4.548472052948901445e-01,1.186516713077988977e-01,4.785390246370735956e-01,-1.770715630173526345e-01,-4.916210610661590763e-02,-4.193174579527451096e-01,-5.624367106138062483e-02,-4.571828158875856918e-01,-3.700124345202065457e-01,-4.727288550084202123e-01,4.885411140683603159e-01,1.426553681687889874e-01,-6.219468402968642007e-01,4.741534325796738919e-02,-1.339336751434164086e+00,7.084512076420355076e-01,4.799317626852540597e-01,6.744350864335495188e-02,-4.746014440547521307e-01,-9.277901644092194644e-01,-3.663005058757274335e-01,2.625902579445631990e-01,5.390030811231543151e-01,-9.792779530973125812e-01,-3.591160890248060178e-01,4.021402694685221046e-01,-4.587114971864062474e-01,-3.014703373418533783e+00,5.095937662758363018e-01,3.549481167265942649e-01,3.824047617567532531e-01,-3.478308836342613453e-01,-6.159593335963149396e-01,-4.326980615717769263e-01,3.715592245167649299e-01,2.932500346555566573e-02,2.751961239645113744e-01,-3.539020980051708065e-01,6.669892830273206341e-01,8.907555829418263571e-02,3.376246997217695611e-01,-7.466459736188146845e-02,1.709493577533656612e-03,6.834806347892443679e-01,-5.487949180950769668e-01,2.806637430425425461e-01,3.423234398136951739e-01,4.418083324457465211e-01,-6.162194886047918096e-01
-1.071204092825349743e-02,-9.971648242883424107e-02,-3.619616014031572515e-01,-1.327535666012296008e-02,5.667460354082155538e-01,3.281188645977392571e-01,4.906753925550059181e-01,-5.283541107140032889e-01,5.368404579793958353e-01,-6.777953469196937863e-01,1.570817314343385049e-02,1.111202571247128068e+00,3.333364193926182523e-02,-6.776795440417406891e-01,5.536382611247582242e-01,5.424366533158075931e-01,2.802598582503412761e-01,1.824410696998665302e-02,7.490088395892222639e-01,-3.430723307821113566e-01,7.560761664489343802e-03,3.143794271068540147e-01,-5.308883391050697037e-02,-5.724866089175413286e-01,-4.792950562641186685e-01,-5.852731554920677093e-01,-7.486811261318803735e-03,8.547402902685105608e-02,4.758227297816713386e-01,-2.285848446690008640e-01,-1.810067166665217109e-01,5.566644464467224163e-01,1.981819025961023550e-01,-5.425669264732188024e-01,4.478383917545133291e-02,9.298908698798414862e-01,-3.614526241773011184e-01,-2.166034121243830768e+00,5.734503700003186211e-01,3.738555284914442112e-01,-1.272252746850201510e-01,4.010596959498476111e-02,2.845521923882585735e-01,-8.587000355277722707e-02,2.293635115151143600e-01,-5.391255185945430517e-01,-1.084069561125424075e+00,-6.630679418455456275e-01,7.412829298964979108e-01,-6.395240422684459469e-01,1.677773761399252439e-02,6.984626291643972751e-01,1.565815933753191835e-01,6.293469547807869491e-01,-3.897198928866917877e-01,-1.453852502782311713e-02,7.149928518835128866e-02,-1.347031934435694855e-01,1.034866527658403479e+00,2.394258726685447869e-01,3.070522964461151472e-01,2.348511306346850458e-01,1.788077944199356339e-01,7.061170230364701705e-01,-7.862390204282013184e-02,3.292549723663740768e-01,-1.762702532888928419e-01,2.312114285589333407e-01,-7.400272808125585300e-01,-4.125118988500487416e-01,5.995906172929310607e-01,-3.991128382682140874e-01,3.985355385235705983e-02,4.809895776821267455e-01,5.718981743257389727e-01,4.917993286337025705e-01,4.742428233362453449e-01,-7.914754103579217936e-01,-4.386289589847855996e-01,4.639906781500480193e-01,1.056944782039448416e+00,-6.359342038726417679e-01,-3.848822740152851307e-01,2.062174231824561998e-01,-8.365612029087896584e-01,-1.634987192361508912e-01,-3.982071792605920701e-01,-6.055071752547813713e-01,7.218795261034675059e-01,6.846003483139474488e-01,-3.814648802378631937e-02,-4.277610234265692424e-01,-3.325466088833257117e-01,1.044177792640562687e-02,-9.932499216940684494e-01,-9.932902963608418734e-01,-4.687346055605455253e-01,7.664827280644308238e-02,-4.661578927179406695e-01,-4.404824211794975408e-01
8.383026511566938899e-01,-1.948755160369285977e-01,-4.627895735873424066e-01,2.822957725379438565e-01,-1.522208395764828581e-01,-1.895674073706883275e-02,7.682797068221348669e-01,-7.008293482953420472e-02,-5.274409998625301244e-01,9.038464640176024911e-01,5.876901000309853185e-01,-2.466097032725472760e-01,2.773575434622336244e-01,-9.112731825834058386e-02,-1.818063761521844679e+00,-4.700225504856276326e-01,5.671574578352115426e-01,2.608300118762887920e-01,2.634373485542347293e-01,-8.916018617711217731e-01,2.595863530893502968e-01,-4.178207326159081858e-01,2.197329355861231126e-01,-6.165868898769706341e-01,-1.237395560882312284e-01,2.565509949864114847e-01,-3.460262958014403423e-01,-2.828843207118272862e-01,3.484173932032882948e-01,2.208297307369366247e-01,2.239682607762142896e-01,2.283733547578154222e-01,4.366309448840695606e-01,-1.779943797635225589e-01,1.967602712107694718e-01,9.903048114141906055e-02,3.561322754655577016e-01,8.424781308920548106e-01,-2.580038801785183300e-01,7.252602543821841108e-01,-1.116108618340533598e-01,-7.965322299988786270e-01,2.575587032321384195e-01,-7.242027403194454260e-01,-3.053863145583611827e-01,-3.324682536969177926e-01,-9.130851260467778285e-01,-1.524963418632372614e+00,-5.380358113058488767e-01,-5.295991670554809350e-01,9.961626452685119759e-02,3.862612699162933927e-01,7.050913017051401166e-01,-2.985130035670454096e-01,8.046990168878365157e-01,-3.440687214465836252e-01,-1.040533338569733957e+00,1.973283799638388125e-01,-3.276757075187017865e-01,-2.319087464546549238e-01,3.952391706371863878e-01,-2.558742816367973738e-01,3.949229534168598454e-01,-1.911341385693254291e-01,-3.656828189970538490e-01,-5.184463174725608692e-01,5.634762579174426023e-01,-4.774370357525372643e-01,4.260412198436228093e-01,-6.316450478404521396e-02,-4.115238054359621200e-01,-1.560061249284249718e-01,9.505183081596943473e-02,-5.671109743601193687e-01,6.275718556592932984e-01,1.014363828677491107e-02,3.921869989143529633e-02,4.091898349722402628e-01,-9.528370517426759667e-02,3.698152567882753150e-01,2.508899881573924961e-01,-5.975794433069311906e-02,3.519996845690779863e-01,-8.372997514430343680e-01,-6.772283579349666627e-02,5.027780316590204635e-01,-6.474598379902966050e-01,5.372384226536114360e-01,-4.697172166571580987e-02,3.819855104169516680e-01,-4.731709586786969068e-01,-3.150647495692394107e-01,1.455581256147055746e-01,3.967651799619444919e-01,4.230267608440669846e-01,2.243915824706620987e-01,-2.100091849957379964e+00,9.794491361031379406e-02,-5.565863118433743428e-02,8.742445954362716432e-01
-3.507934684427296834e-01,5.390940927501584046e-01,-3.693517683819963482e-01,-9.700956149210185342e-02,4.003444011219578491e-01,-2.362665742854244577e+00,-6.000398734948136914e-01,-2.665852036268024153e-02,-1.311347775445772523e+00,-4.174103820562190953e-02,-2.359027482992418212e-01,-2.013867023942430556e-01,5.648845052923445048e-02,-7.017536910565411734e-01,3.437847128059535184e-01,7.419962636716788129e-01,2.166279925971935916e-01,2.588848858348715698e-01,-2.384415319860102023e-01,5.757633146270870750e-01,1.219167407875396299e-02,2.607262436927153537e-01,-7.063109359195568482e-02,-5.039980776958031816e-01,-3.154095852534584410e-02,-3.894863819775995495e-01,-2.610801636962635230e-01,-7.038295236488423257e-02,5.889998304464497680e-01,7.380250710577214435e-02,-5.870055247415260080e-01,-5.058416686617069891e-01,4.709397851770311672e-01,-2.587193710684154158e-01,7.148312315295534125e-01,2.614431371509607360e-01,4.418297064826317566e-01,9.845919695718814424e-01,-7.012372041846283433e-02,5.331720837474294150e-01,7.494928222214018998e-01,2.134106429706492392e-01,6.746239085237003552e-01,-4.035574838051733670e-01,7.821938768175574763e-01,-1.751914064824777184e-01,1.322257754894343051e+00,-4.382492838514960853e-01,-3.762233342254069912e-01,7.435685480159934801e-01,-2.282236463559411010e+00,2.800819194855044825e-01,-4.092398543329415356e-02,3.342885779807504565e-01,-5.357271978728538331e-01,-5.844472819786909745e-02,6.419229087672688738e-01,3.597215065264093292e-01,2.464066971000219985e-01,-1.577957900024382354e-01,-2.789456472412226162e-01,-7.705770318426337084e-01,2.632057703370248025e-01,-3.827760864266609442e-01,-1.107953253345029365e+00,7.977099819004217496e-01,8.582841410920677427e-02,4.926398377996473732e-01,5.546658963876783810e-01,-1.315588893173563756e-01,-5.869083215105809215e-01,4.726942576887488978e-01,-6.971140803097471972e-01,-4.902695440959666806e-01,-4.976893540719274367e-01,-3.049438393243378981e-02,8.968738703257141121e-02,-7.901778953192117871e-02,4.129582951153169534e-01,3.862298921036553812e-01,2.462982599511755188e-01,5.941612948701592289e-01,-4.905699171922327517e-01,1.959649729654008854e-01,-4.034682357391077834e-01,3.397487231249264328e-01,1.601750250289215582e-01,1.219880535465279886e-01,9.222785839063794844e-02,3.803152994314350915e-02,-1.652985129621164229e-01,7.914149913621293386e-01,-1.713510245732968507e+00,-4.059611298493305820e-01,-7.317952158310878641e-01,-6.191409426346488470e-02,-1.874918826635833258e-01,6.803377504004382015e-02,-5.604941096371673925e-01,4.497619133406867697e-01
