1.282098805283388709e-01,-6.629053441245748024e-01,1.828651867950590038e-01,-7.396024904928271138e-01,9.727127033268132550e-01,8.735630494658827017e-01,-8.847027216961026452e-01,-7.579849598560045587e-02,-9.124587657088268910e-01,2.613005575508268730e-01,-2.347544877337150449e-01,-2.212940608065248060e-01,-6.165883362404381840e-01,9.913927712787828916e-01,-6.718307476494796981e-01,3.599261478878604814e-01,-7.497249959884877413e-03,-9.978905606940856599e-01,4.567758830899738554e-01,-9.208151330880206542e-01,-9.016539705634069035e-02,-4.177976372184299403e-01,-1.085908937000510527e-01,1.674174471908938533e-01,-6.322571573813668966e-01,6.088391849146370660e-01,-8.214781009982154991e-01,-2.590829616579671257e-01,-8.018049827961706288e-01,-1.079759706208794079e-01,4.666369850384234352e-01,-2.762316189827825064e-02,-5.691337732039100095e-01,5.680268018161737098e-01,-5.511975725749567179e-01,2.484869058825775467e-01,2.885504600840427605e-02,-6.104599033473494529e-01,7.234044467394108446e-01,-1.229477642414178035e-01,5.961235594006251137e-01,-6.586094842753228984e-02,1.196112917614549354e-01,-8.727471163981501689e-01,6.485822691863636358e-01,-4.528600983519689982e-01,-5.517124896250211186e-02,7.671831115468250584e-01,8.363593662531074724e-01,2.208485024717027623e-01,8.474112777601003899e-01,-4.063936867202799230e-01,-4.658109498497093326e-01,6.230959523333571282e-01,-8.036770048662903454e-01,9.100081542411992963e-01,-9.844280746634537227e-01,7.914906350465997775e-01,-1.467294610000160482e-01,-3.602832306668832252e-01,2.792987916387290603e-02,-7.603365115497098259e-01,5.412604187854239690e-01,9.797445298493670518e-02,-6.159916674918448631e-01,6.893139415844989903e-01,1.421297080785613454e-01,-7.236501803173152336e-02,-2.529933043530335421e-02,-1.778416318832190535e-01,8.881713543518319209e-01,-2.953009969239906995e-01,1.321091029932879302e-01,-4.646166999404529041e-01,1.361379031060958589e-01,3.616849018420912332e-01,9.740549355390066832e-01,4.585976997259847976e-01,-4.334081483775764632e-01,-9.730645920482203781e-01,-5.934999654010352232e-01,-5.290307278287760262e-01,-8.556343216631820958e-01,2.138051481656978725e-02,5.853643691855762304e-02,-4.867592554567240493e-01,-7.610440154350222031e-01,-5.024573744299279943e-01,-4.030731870295266583e-01,-5.469367540513714321e-01,5.011319597531255221e-01,-6.112498741496262822e-01,-2.295427295466018758e-01,9.532902488940853125e-01,-8.353268875023118767e-01,-1.222845205758391618e-01,7.180293346349158057e-01,-9.183745363749540314e-01,-3.878453210079689795e-01,6.488794704080130815e-02
6.971763942164613814e-01,3.853795426981185962e-02,4.825694803196280969e-01,9.179979147745750412e-01,7.403459636258818977e-01,-8.429486360874859363e-01,4.664354557428911918e-01,9.706219551868721096e-01,-8.118437429028603214e-01,6.549918474036469096e-01,9.916564103569242006e-02,7.855869857233335196e-01,-5.727835176662682271e-01,3.745567987062651261e-01,-3.537300293238740401e-02,-3.871479430223866425e-01,-6.218664805031322018e-01,-1.691450433788096730e-01,-1.949852204859873206e-01,-3.081474957806578652e-01,9.501420694775094544e-01,-7.494025150925106571e-01,2.127102189272378832e-02,-6.632548863942112627e-01,7.257566453947063012e-01,8.238687066532818237e-01,-5.308944308864507189e-01,-6.174685082851854023e-01,3.647142236664837056e-01,3.731739129843337777e-01,1.338644639931465541e-01,-2.280465608662013977e-01,-6.274954518465107600e-02,-5.094381134172631942e-01,-9.388728950108284899e-01,-2.434714612685664747e-01,7.203499290296546675e-01,-3.650403154871022515e-01,3.820031601997818660e-01,-4.457467993453277377e-01,-2.090053971206983219e-01,5.516282172730548883e-01,4.132335104719381258e-01,6.336105296537378750e-01,-9.606310684371431874e-01,4.116728163595443912e-01,-2.233722162206836226e-01,6.840706746285794004e-01,-9.057902326484617017e-01,-6.612181935888975515e-01,-8.283355743876600341e-01,-3.923073559848753722e-01,1.334627624991902850e-01,-9.518087872019340701e-01,-8.643566389355558099e-01,1.453202713418590419e-01,-9.355452840986309970e-02,3.097168719923485969e-01,-8.238374022193262203e-02,-9.131747145603793525e-01,-9.918712850972267736e-01,-1.673193043369064839e-02,8.608670155782525146e-01,4.784368306840243168e-01,-9.836902343155115025e-01,-6.040903006311010293e-01,6.742026115948417386e-01,-1.567584419797562467e-01,-8.604929798623870418e-01,9.247037227602730169e-01,4.840711359850920492e-01,-3.900058139832831006e-01,-2.421269188762289470e-01,-4.201652145419007556e-01,8.035755899104201072e-01,-3.295631261490613705e-03,-1.404721207494994129e-01,-3.643650133545298098e-01,-5.894113983071447294e-02,8.072583017260978044e-01,-1.373930674142607999e-01,1.597370977106750967e-01,6.862858512219869311e-01,-5.646808336392832306e-01,5.183296795145719837e-01,-5.705346286945264245e-01,9.894344468225098055e-01,-2.924648906672961957e-01,-5.782666056401503107e-01,-6.265202252605052147e-01,-9.542965117394938135e-01,-7.664715439064115898e-01,8.761218880147085830e-01,4.024017484772021147e-01,9.110669248916789531e-01,2.007278512478997967e-01,6.881620425323643764e-02,-8.359417386375265213e-01,-4.562810532784594697e-01,-1.583583583744536116e-01
-1.847763251732297274e-01,5.490489359996192364e-01,-3.249115386219630919e-01,3.331954620081149510e-01,9.788884929285364411e-02,1.700032019051827548e-01,-6.800675912648457277e-01,-2.596565165958663046e-01,-9.691038868045723786e-01,-6.602896559386478570e-02,-1.443954851343548784e-01,-8.650434238327471270e-01,-2.368004581359507699e-01,-6.447990793947755428e-01,1.716331040541166919e-01,-8.629796632481581131e-01,7.691805936180635683e-01,8.131892836360997689e-01,6.077421881630354905e-01,8.066249140745203050e-01,-7.033785844351766459e-01,-8.281485437282189999e-01,-3.415229963848253614e-01,3.113820929015183037e-01,5.050899943645619228e-01,-1.697525714309962575e-01,-7.717673294029858688e-01,7.669843222618939471e-01,-6.136003766010704741e-01,-7.248756817784345052e-02,5.042637591142727638e-02,-4.567288080331454170e-01,-9.994100213777383779e-01,-2.760788520459389606e-01,6.479355696890858329e-01,-4.343995130596149390e-01,1.960312899427684163e-01,8.201596170871312541e-01,1.704170393711861298e-01,9.512719687670139201e-01,-8.349829778334610930e-01,-2.786139195418875780e-01,8.100405908091435903e-01,9.554214430927363555e-01,-5.755734517638783077e-01,-2.454755107275526094e-02,5.241276129371035264e-01,-6.666005607395790733e-01,-8.003937272965893079e-01,-6.848669378803380337e-01,1.980269133514907243e-01,2.385206383361651028e-01,8.437830231157281702e-01,9.364384087113387933e-02,6.570825546460259403e-01,-2.205627626613356762e-01,-7.707898986360617322e-01,3.349394080563811715e-01,-3.908959712842563494e-01,-9.197337788865941333e-01,7.425649749425473622e-01,3.280583023642356100e-01,5.981569581606028391e-02,5.831971866171122842e-01,8.491381982873462686e-01,4.494405369827311758e-02,1.663567293320634688e-01,4.656807481313595121e-01,-4.585599876097464639e-02,-4.470067482602901321e-01,4.382846225185682010e-01,3.191186614783423359e-01,-5.131173875546168883e-01,7.106127769401531236e-01,-7.126213177452886960e-01,-9.786336985470205363e-01,-2.420333813591287186e-01,-2.738578724603513148e-01,8.303906584102396238e-01,-9.325733030745725349e-01,-2.870055757253459627e-01,5.866679750372639779e-01,-6.579839952315229556e-01,6.994882568046977278e-01,4.993767582755005430e-01,-7.312042890280137097e-01,2.632894703320431962e-01,3.941403038656629554e-01,-2.528636984557901535e-01,4.293027733139564983e-01,5.369919741095705579e-01,2.386598574665151629e-01,-1.545474600647160079e-01,3.972595697325624967e-03,8.076129264810486541e-01,-6.189806911094628550e-01,7.084796850581773775e-01,7.575041871882655098e-01,-6.388040486423008923e-01,-8.294646763801443168e-01
6.458089593166234099e-01,-8.234240942094026572e-01,7.808632527053953609e-01,9.273493914210243494e-01,-2.266187822026645982e-01,-3.352072079960364270e-01,2.537479500787877540e-01,8.341962043028772200e-01,5.405861122131472296e-01,-3.837926361531638908e-01,4.778697716614091484e-01,3.148375508615738894e-01,5.338201457470482802e-01,9.309686960182934901e-02,-2.282747934394810385e-01,-5.746932781030196224e-01,2.427389377263935444e-01,-1.664494982883511776e-01,-4.900144155315088179e-01,-5.866394475438858613e-01,5.121600024090268155e-01,-1.405146252382281635e-01,-7.337412640235614347e-01,9.646721027907909640e-01,-6.019110182119867813e-01,6.735643056043422172e-01,-4.881706021077764079e-03,3.262180181281538749e-01,-1.660538143639096742e-01,-8.630692837300566467e-01,1.057568004744438295e-01,-8.308585052789189129e-01,-5.749090965641575623e-01,9.973203944951026800e-01,-6.741071238991765968e-01,-7.771700240284050709e-01,-5.266968464345697098e-01,-3.062656529508775982e-01,1.119002291876726972e-02,-3.457773039472296084e-01,-4.382073722373329705e-01,7.711834378025660408e-01,-5.151350731221487900e-01,5.174724897139623137e-01,-1.950604365850203692e-01,7.747225175551160081e-01,-9.648153393247034526e-02,9.211954472567157604e-01,5.222240676799904113e-01,5.600212281453625929e-01,-4.169754341588720048e-01,-5.676033621913492144e-01,-3.668042140813441154e-01,3.396001129714349420e-01,-1.529724951592038688e-02,8.142804549480139875e-02,1.004939283999130295e-02,-3.749653813311982220e-01,9.908292821847934917e-01,-3.349856006721133594e-01,5.341049992294173432e-01,6.257697294504036001e-02,-2.835379985368233768e-01,-3.327437990183159666e-01,-5.815543228599613368e-01,2.719493536640437692e-01,5.617513985955362443e-01,8.371296289406277014e-01,-3.065894225970727249e-01,2.549069580339105578e-01,6.736074718117052162e-01,9.314024667792456524e-01,-8.819351179034403687e-01,-9.954217631530967170e-01,3.197586805789927045e-01,8.735374868953603711e-01,2.898609040075196819e-01,-9.262066081163817799e-01,9.132497339952408977e-01,3.649559997239922304e-01,-1.839720509060651654e-01,-8.699573148067373252e-01,-8.593722326699917424e-01,-1.784029288459594853e-01,-9.500968035280491497e-01,5.980192907304585637e-01,-3.573382194601574247e-01,5.499469421398858193e-01,7.459324157977677006e-01,-4.141157214139943865e-01,7.235681615138452871e-01,5.493149616269807911e-01,-7.681623372787194093e-01,-1.010423236177974970e-01,-9.001124458009863716e-01,-9.597630307880183897e-01,5.856444309662870440e-01,7.288261610792831080e-01,-9.996247721221515059e-01,-6.319646679000480161e-01
8.908979137565976592e-01,4.969215798129788531e-01,-8.329808546197889907e-01,3.138582420800609674e-01,-7.757224366677758498e-01,-9.802282830171076267e-01,-7.063444073827916947e-01,1.032840504243194707e-01,4.796971773945803430e-01,9.949146577345314713e-01,-7.944143457823409360e-01,-5.929167232615183414e-01,2.230141356259481011e-01,-4.014516542160751489e-01,5.797005544915321273e-01,-4.822818352767551109e-01,-5.853172506380922568e-01,1.260383909451504858e-01,8.143161437751873510e-01,-7.032741057864038137e-01,1.740629187743379103e-01,4.921139936643280088e-01,-1.527661568979607476e-02,-3.280301722298253897e-02,4.021906002937840618e-01,7.317576981626048305e-01,-1.780533779038456776e-01,-6.419140637779600089e-01,-9.602607824197837427e-01,-8.935395004645312333e-01,8.295223574935334243e-01,-5.256426162434655325e-01,9.147441485029020880e-01,8.538114862522322435e-01,-9.036671142919168176e-01,8.788351305524279011e-01,-5.663652688409153146e-01,3.262293777765567504e-01,-4.734957641611993173e-01,-5.872925493200601421e-01,-8.542322432939347676e-01,4.070353816009931736e-01,1.156983030621145346e-02,2.333421776960152016e-01,6.452288221917246158e-02,2.870962183050977494e-03,1.569590372486095731e-01,-7.459589176988167258e-01,4.892144647966304993e-01,-9.053631529723694671e-01,7.081167758962046976e-01,3.221583321809084466e-01,5.645885511380601685e-01,4.483398931438605239e-01,5.199809232942717019e-01,-8.213429875070649144e-01,9.957167061942182595e-01,7.396026963924199338e-01,7.588594308932979926e-01,-6.232324280146872564e-01,3.963676515616819662e-01,2.841001499598154179e-01,-9.805723439730970048e-01,-4.319763772647598477e-01,6.122578667136081565e-01,-5.574698310920483957e-01,4.336033782340190101e-02,5.037308893039323804e-02,-7.336792523644268815e-01,8.315572223220751846e-01,-6.662535049790954123e-01,3.550884192496459590e-01,7.685186945444749673e-01,5.841212193309117673e-01,9.776905304488927584e-01,2.006542138108340922e-01,-8.655211562726221608e-01,-5.423522086464485081e-01,4.584570506790900390e-01,3.847479409584722565e-01,3.025322801813780105e-01,-1.678453265978064046e-01,-3.270336038434895065e-01,-2.016539731115493672e-01,2.484811068278745538e-01,-9.813132628335698160e-02,-9.473054270958246592e-01,-8.707006510924583109e-01,8.502350751012938135e-01,-7.099433551337153148e-01,7.346544868373766635e-01,-8.014381579800222699e-01,-9.052885022704098006e-01,-6.377790248624070069e-01,9.566760821276593107e-02,-5.171609930050641291e-01,-5.117431885828627181e-01,-9.388352998567607299e-01,8.556401273206587499e-01,6.947043088137088152e-01
-4.230019144137915355e-01,-5.633112377865456821e-01,4.188342378319934167e-01,9.246700318643095162e-01,-2.016500492677122114e-01,-4.062773712237470469e-02,6.373729166144332520e-03,-4.804586065618872692e-01,-7.529119248663832531e-01,-2.544893450693289649e-01,8.789044056704825580e-01,-4.510887835311847699e-02,-5.002039401545663733e-01,7.630941166553114607e-01,4.821485395480104574e-01,-8.047140721576384603e-01,-7.560853083195355762e-01,-6.250985469526297855e-01,8.009397655109802283e-01,3.017054916583870594e-01,-5.571761579841969514e-01,-5.350668061870177822e-02,-6.382927548748521529e-01,-8.347514012594697830e-02,-5.886327281181075177e-01,9.196222086490405401e-01,-6.321634535954031575e-01,7.600999316144700924e-01,-5.195174155208891476e-01,4.053157307799476472e-01,8.692815059786412890e-01,4.991841042517120020e-01,1.475827945985305756e-01,1.175356524254809187e-01,-6.646405010099387667e-02,2.870475301446260286e-01,-4.568276768703227741e-01,1.822643109273500150e-01,5.413659645743771343e-01,-9.347214956047119605e-01,7.889230282025198882e-02,-1.607082450535096962e-01,-3.083115092168554616e-01,8.662825540803473223e-02,7.601053600380098807e-01,-9.219439501932880088e-01,7.499434962817375094e-01,7.037545485164388159e-01,-1.095716815658101806e-01,-6.625294084458788202e-01,-4.873739903874799717e-01,8.700410790690367158e-01,-3.430290444906030078e-01,8.682668917983691823e-03,3.714902488740671194e-01,2.067455126786105490e-01,-2.298130178231226617e-01,9.717859299958186980e-01,-2.685443746664389342e-01,1.299605049825569847e-01,-2.458148190131621558e-01,8.896603653715629001e-01,4.491347100347691246e-01,-6.992923032186880716e-01,-8.862055518351102945e-01,-4.933659907851556947e-01,-9.418035202495863567e-01,-6.846471209296716154e-01,7.411943022684223947e-02,-2.611591919609397294e-01,-8.204010728130939345e-01,-9.072930256310723918e-01,4.401297772774823702e-01,-2.560049345860953007e-01,-8.893735701360495627e-01,5.552274184532659529e-01,5.506495379142071211e-01,7.752495436674371465e-01,4.098776009998403858e-01,1.542115130019684199e-01,-2.262617519027557145e-01,1.008196705273762539e-01,-7.850284484423614151e-01,5.814174452920267688e-01,3.234359179034202447e-01,9.317226747763064365e-01,5.230520787449233211e-01,9.529211093214299266e-01,-1.413027899899473895e-02,5.766181462013704184e-01,-9.915200693078490835e-01,8.692991377146248588e-01,7.162720575755827657e-01,4.659670742079037864e-01,-6.971447514025118641e-01,6.520527947880965236e-01,9.789859353891373628e-01,-6.074976875251782982e-01,-3.966022578374110985e-01,-3.801452644709725215e-01
1.241199961259349671e-01,-9.849810334692825631e-01,-8.535628309671856595e-01,-5.775401460262086228e-01,-4.155417712862175539e-01,-6.896233180293565024e-01,9.315313069868850215e-01,1.588254149185929498e-01,2.222681889074318851e-01,8.540818423895623068e-01,5.945213378533317217e-01,1.872517395411281427e-01,3.243319806898883328e-01,-3.596933175729945253e-02,4.166870523667091097e-01,-7.208954220971226512e-01,-6.330207670473443626e-02,4.501953717319616688e-01,3.889309695755178153e-01,9.815910377368664008e-01,-5.151953593937843578e-01,-3.646561010165209199e-02,2.149725222546347569e-01,2.173421216151583124e-01,9.564493206509994128e-01,-1.359216024776291609e-01,-8.842307268166931244e-01,5.411031497523070000e-01,1.615199824128902839e-01,-8.825274450812653493e-01,-2.629585337386015631e-01,-5.935019476380891668e-01,4.442375985298641639e-01,-7.109585850722560663e-01,6.240277804756140245e-01,5.149017780598984517e-01,-7.071134103350514843e-01,-3.292162768830206865e-01,3.631683623174241649e-01,8.442212838209164349e-01,3.646605771234201487e-01,-9.238511215035146718e-01,-3.931899235365013956e-01,3.297237553824143852e-01,-7.924574712821519373e-01,9.271509827822267402e-01,2.426692514230688325e-02,6.308449924960163324e-01,-5.918584006334405290e-01,4.266055591947520154e-01,-7.782718159415940029e-01,9.555130680841383839e-01,-3.002149444572808634e-01,9.580087048230775393e-01,-5.648617390101942082e-01,-3.068462437741550919e-01,-3.442027026513638233e-01,-5.953093015767515483e-01,1.680915874469121885e-01,-3.699332114109338265e-02,8.610998998336010235e-01,9.288896684603361598e-01,1.171250728939200042e-01,9.598276919362664916e-01,6.098291369511569249e-01,-6.218278248779852690e-01,-7.535116091899346502e-01,4.605437371594555129e-01,-8.223051212736931515e-01,-5.170339693049403884e-01,-8.790545442022239531e-01,-7.280757807015099115e-01,-5.939765728880685991e-01,-8.851452658472688251e-01,-3.593587489203761143e-01,7.095942147874083616e-01,1.034251994332090613e-01,9.208176289790823699e-01,4.235794436093756055e-01,2.111253965362722140e-01,-2.640261431861098962e-01,2.472076514839454953e-01,8.262637457573538402e-01,9.339975626960758115e-01,7.082813048866505312e-01,3.049971167424120888e-01,2.692714102852861724e-01,1.141522695982370716e-01,6.343607155460930791e-01,5.032596425926881833e-01,6.355251504831693765e-01,1.172249515863785646e-01,5.403407295734966587e-01,-3.588943111275662012e-01,-3.990086521514802920e-01,2.404681701659782400e-01,-3.976070546774698733e-01,-8.464973400761839628e-02,8.423089110583361627e-01,1.953791260689352605e-01
5.403269050658512374e-01,6.658336038267394230e-02,2.986499278842664751e-01,9.144889760322348904e-01,-1.317253056533722322e-01,6.928059772274247630e-01,4.264564328714163799e-01,-7.101233902812235099e-01,1.833751330040329919e-01,5.381081385264374628e-01,5.384940934227711029e-01,9.973559398779006102e-01,-9.338651548288504634e-01,3.743474992953540470e-01,3.411785046533603594e-01,-5.919220966003417850e-01,8.149840264177894422e-01,1.864087547282831103e-01,1.616036252048624056e-01,1.903144389313987939e-01,7.959781226001001464e-01,3.771167281790314685e-01,-5.911333882301296194e-01,-9.861460102792702909e-01,4.233493612261068906e-01,3.086888708033020401e-01,9.310969433348926794e-01,-3.374120029026365097e-01,-5.391147000347905616e-01,9.424097455409102819e-02,9.956104913090371711e-02,4.502943231797229551e-01,-9.081796952661598255e-01,-4.175682181307553975e-01,1.343678098175772606e-01,7.244571189675674816e-01,8.423213310883557181e-01,7.475357519091462288e-01,-9.891091240829160691e-01,-5.998035873673219776e-01,-5.083039841075875920e-01,-4.168320532182746840e-02,-8.904483204922296613e-01,-6.924187729694434301e-01,-4.351590606725149746e-01,-2.856491775959194360e-02,2.174026804990801254e-01,-9.414889399682998539e-01,9.920506038760138479e-01,8.248501456543149146e-01,-5.551370354856951517e-01,-8.606717933296610390e-01,-1.340383666807387908e-01,-8.888129766751642347e-01,-7.743224474613996655e-01,8.871602723981196759e-01,-7.968685489141118516e-01,-4.405953806363203107e-01,-2.539179498889309605e-01,2.597956351554945309e-01,-5.317900742776138223e-01,3.580274904584098139e-01,7.013183885534037820e-01,1.764122685010260372e-01,5.193753229642688041e-01,-8.432525960111281194e-01,-7.319936056840249394e-01,-6.810238746575199009e-01,4.977417880571548547e-01,6.023620366473785293e-01,7.457204394893153232e-01,7.836810513326434302e-01,9.376526166452225919e-01,-8.930422886517814796e-01,4.587954434800178283e-01,-9.885956908016944045e-01,6.759796260476216290e-01,-7.140957544149679759e-01,-1.829722148907024781e-01,-8.628985985952331017e-01,-8.728995607077618679e-01,1.965501030475625896e-02,3.668812515922149631e-01,-3.683181984378182117e-01,-2.540574393417408539e-01,3.829040844251238029e-01,-1.830007354732288843e-02,1.585375463416240083e-01,6.355824635426887692e-01,-7.766360846297492015e-01,6.989596799810217087e-01,6.487827683293426739e-01,-2.136375171670341910e-01,9.518748456779640987e-01,-2.738671129522070036e-01,-7.474228312968582699e-01,-4.082696202661549867e-01,-5.021340226801790374e-01,1.314509634092168588e-01,7.876791694162633695e-01
1.506834929163401726e-01,9.620131859971618737e-02,-2.970653330038918183e-01,-1.336899019992797422e-01,1.945933992684916736e-01,3.034625362085024980e-01,7.124138024164430316e-01,8.751389315843649541e-02,2.951551444808257485e-01,-9.211552415984481934e-01,-2.241146034964670297e-01,8.710564480468817594e-01,-1.490322989062851933e-01,-1.414873738367052047e-01,-9.615350029053715275e-01,3.089755939949755947e-01,4.140498635972502672e-01,2.753343037438983898e-01,3.350699696239989311e-01,-4.737742758012874478e-01,-8.026735087071446006e-01,8.225221963353608334e-01,9.218586891178042197e-01,-9.245021969788705940e-01,2.710427622132645029e-02,-9.635576332003159550e-01,7.690040861726684662e-01,-3.807481543413064329e-01,-7.524035499001843208e-01,6.783591544404601326e-01,8.554414918168292692e-01,-3.780066488689387549e-01,1.977879615557490145e-02,6.881801034063875777e-01,-7.960768128741331218e-01,2.791686459046145985e-01,6.448765990799347481e-02,-4.306300075094830482e-01,3.973239339705647022e-01,4.704758753373542435e-01,-8.551504489381276386e-01,-5.347704993726816181e-01,-3.465699535735435877e-01,6.297781927339752839e-01,5.978116494489721378e-01,-2.865764535961485837e-01,6.036343980520398889e-01,1.704402811937282339e-02,-3.384644997246021303e-01,5.427898165574944755e-01,-2.725831925636247252e-02,-8.468047113927652525e-01,-1.727229226105479465e-01,-4.133599879434780577e-01,-7.148927626493836174e-01,2.710659166701145373e-01,8.622043233081152502e-01,-9.126064073215741645e-01,-1.769509146321872339e-02,-6.149164939130087604e-02,-6.925180205650316445e-01,5.060390855274821131e-01,-8.265204945716109197e-01,1.991185632920038362e-01,6.801896262456633702e-01,-5.446544145713589913e-01,3.891177954679482243e-01,-5.583289879047832471e-01,8.181014763663846390e-01,1.578994680279861840e-01,-7.427898927466524137e-01,-3.107967454894851045e-01,8.188573428953516142e-02,-7.556881372201779135e-01,-1.520825739823397638e-01,5.569275041248503699e-01,-4.342477729951578214e-01,7.172718374239567263e-01,8.918563780979409383e-01,5.571298626506859808e-01,-9.093068727826101316e-01,-7.647572811901592882e-02,6.912818966039443458e-01,-5.219288036373600503e-01,-3.263372355959344162e-01,-2.294350483380236949e-01,2.650988737103818771e-01,-9.306246161203527434e-01,-3.504313516108264470e-01,-8.493332015076068275e-01,-5.584069999461875877e-01,-2.548046500543847404e-01,1.836718620283772918e-01,-4.425773792078953051e-01,4.689034697935958729e-01,7.532225868580411099e-01,-8.845535627325684658e-01,-6.730240975350268995e-01,3.240484967275719663e-01,-4.507002786481629775e-01
